829 50
player -0.0010220273 -0.16218968 0.033970866 0.12341915 0.11310857 -0.18930015 0.33788455 0.45668864 -0.46347764 -0.0844858 -0.09737757 -0.5280963 0.027053436 0.08066835 -0.07971063 -0.028029958 0.20624928 0.125164 -0.41687968 -0.28788087 0.09954289 0.02450555 0.31049958 0.0022183578 0.19210836 -0.012907761 -0.19359858 -0.19084549 -0.36176068 0.055177134 0.016408853 0.12352308 0.028813405 -0.024864439 -0.23825085 0.17533283 0.25914964 0.13280703 0.10639968 -0.43134353 0.30102336 0.025104549 -0.0010431914 0.11041856 0.368093 0.09939886 -0.09252807 -0.08006495 0.12368535 0.06424123
game -0.016655926 -0.1409288 0.009836644 0.104405195 0.14115383 -0.18014841 0.31950742 0.39703873 -0.43250674 -0.055016898 -0.10618322 -0.49344602 0.027280718 0.049915582 -0.061578065 -0.01659987 0.18394741 0.13061671 -0.38558027 -0.25377268 0.08763254 0.03208863 0.27822843 -0.020043999 0.17689897 -0.0056819553 -0.16658013 -0.1896219 -0.3328799 0.044565044 0.031209977 0.12068635 0.022587508 0.005684539 -0.23160653 0.17584358 0.24404934 0.13080433 0.08527867 -0.38027516 0.30418932 0.020321695 0.016955879 0.11676007 0.36231956 0.10255049 -0.090646304 -0.10899596 0.10187873 0.060415477
g -0.020633318 -0.10779658 0.023306316 0.093516685 0.11027992 -0.1436257 0.24690634 0.33591112 -0.33909968 -0.07320311 -0.08364108 -0.4072406 0.018078426 0.065238535 -0.038112186 -0.0030504484 0.15555288 0.10709061 -0.30736944 -0.20017608 0.06836817 0.005399575 0.23755327 -0.01761548 0.14189094 -0.0017594609 -0.15285876 -0.14336234 -0.26190597 0.061298355 0.046617795 0.077891536 0.0067161997 -0.021320675 -0.16393353 0.14031164 0.198275 0.11876442 0.09739224 -0.28762642 0.2508299 0.00021335174 -0.0149892345 0.08931417 0.2657714 0.092018284 -0.040563326 -0.0748394 0.0857173 0.03855271
mechan 0.016313478 -0.17017956 0.02112348 0.11079112 0.12576632 -0.15480718 0.329514 0.42828593 -0.4338748 -0.058385696 -0.12222555 -0.49427813 0.0249989 0.057088975 -0.05527262 -0.016914578 0.21156476 0.1078039 -0.36963063 -0.23979053 0.070863016 -0.0039377827 0.29512626 0.0097255325 0.17309569 -0.016357288 -0.19700338 -0.20102793 -0.32303393 0.052913647 0.012860873 0.12772954 0.017430749 -0.025895707 -0.22393323 0.1700319 0.22927602 0.122277655 0.101749 -0.414526 0.30417934 0.015542294 0.02418282 0.09804835 0.34687442 0.10200295 -0.06378683 -0.10192452 0.08563065 0.055563584
bestrespons -0.0005276052 -0.12977491 0.0056895185 0.09027496 0.12925911 -0.1358781 0.2711019 0.37800637 -0.4038916 -0.052419428 -0.1041048 -0.45675564 0.048761908 0.06376139 -0.040756073 -0.03644254 0.18134536 0.12931171 -0.36055696 -0.23826139 0.055076037 0.0006186905 0.24660341 -0.019778537 0.17354007 -0.012810227 -0.14401005 -0.16144918 -0.31285065 0.063161016 0.039444525 0.0915094 -0.0073928414 -0.014035366 -0.22082077 0.1515981 0.20602085 0.13520914 0.089615844 -0.36640987 0.26237237 0.01902844 0.010326521 0.11821499 0.32013714 0.09512914 -0.06407648 -0.09130606 0.08157099 0.03978661
r 0.0072130924 -0.13978925 -0.0037552107 0.074547686 0.09033669 -0.16101474 0.26444185 0.35993916 -0.38687542 -0.074343815 -0.08954047 -0.44964916 0.053843446 0.06931694 -0.07536588 0.0037894049 0.19481827 0.11634213 -0.35346976 -0.21066596 0.0804362 0.027870353 0.2635267 0.0050732573 0.14443797 0.010346825 -0.14339808 -0.16417648 -0.30497545 0.051830277 0.032457557 0.082708746 -0.016928447 -0.016806554 -0.2029588 0.1384889 0.19145033 0.10638152 0.11157108 -0.36088347 0.25720996 0.020749211 0.041656923 0.08914526 0.33962497 0.103683405 -0.050407663 -0.08828386 0.118172124 0.023981217
strategi -0.018996295 -0.10953331 0.018529292 0.08429521 0.11746226 -0.1512159 0.27112615 0.3649065 -0.3498881 -0.07852286 -0.070209615 -0.415439 0.037421923 0.042941418 -0.035609003 -0.02460295 0.17610317 0.09009205 -0.34233207 -0.20183356 0.072053395 0.0063696657 0.2601787 0.022195745 0.122385845 -0.0016990675 -0.14447024 -0.15787536 -0.27783144 0.05160707 0.02879052 0.08927739 -0.0027984763 -0.011960018 -0.18163443 0.16397606 0.21622148 0.105877556 0.066763684 -0.31483656 0.26337123 0.026094673 0.022512954 0.089337155 0.31048408 0.08696159 -0.05460894 -0.08414723 0.08393746 0.033783942
1 0.01079739 -0.14284067 -0.0048297285 0.076759756 0.1016 -0.15919419 0.28837675 0.4010086 -0.38146132 -0.07961268 -0.095870845 -0.4479055 0.04986239 0.06243846 -0.04791281 -0.030704042 0.17955181 0.12601583 -0.35878098 -0.25518152 0.08730341 0.0060873707 0.2585388 0.018977502 0.15122095 -0.017140714 -0.17988391 -0.16079496 -0.3162547 0.059504535 0.020177158 0.12046111 0.019219657 -0.007493294 -0.20970997 0.15170744 0.23298821 0.13787466 0.087769024 -0.38922763 0.26317868 0.009628194 0.012877767 0.095820755 0.34503892 0.09069681 -0.05198498 -0.10792832 0.097494215 0.030510336
elimin -0.013639194 -0.14702687 0.00755359 0.09570784 0.13029495 -0.15503888 0.30300364 0.41142175 -0.42264247 -0.058304165 -0.118399136 -0.47325012 0.016911382 0.06774433 -0.07428408 -0.03184378 0.17678118 0.12545562 -0.36249623 -0.2615641 0.08225473 -0.0001194799 0.29346797 0.020804955 0.15981771 -0.003721628 -0.17924604 -0.17487311 -0.34004673 0.061838258 0.04385299 0.11627622 0.015514958 -0.032673735 -0.20041648 0.15217845 0.21977234 0.14167647 0.09751487 -0.38537574 0.29827094 0.0018701759 -0.005768243 0.13193223 0.35687545 0.07760752 -0.062131874 -0.09479546 0.11434257 0.032318216
student 0.010310109 -0.13432482 0.040335108 0.088153526 0.120672286 -0.17459293 0.27571258 0.378561 -0.41164622 -0.082247145 -0.09400536 -0.4895956 0.03759811 0.06897809 -0.064695194 -0.025332823 0.20517227 0.13068095 -0.37398767 -0.22287208 0.06470394 0.025526052 0.26642653 0.008779654 0.16912957 0.0027205436 -0.1753839 -0.16981944 -0.29957783 0.035811957 0.015063717 0.093862295 0.014238656 -0.017278934 -0.22793657 0.14589477 0.2381123 0.13711119 0.08067729 -0.3914818 0.29386085 0.007861143 0.027524062 0.09954746 0.3441076 0.07425446 -0.05278398 -0.083665505 0.105982766 0.04715626
e -0.014522295 -0.15743692 0.019097196 0.09257579 0.11538482 -0.19352838 0.35201624 0.46766627 -0.49020144 -0.09901042 -0.13165487 -0.5500299 0.02561943 0.05408889 -0.07852011 -0.043328624 0.19353682 0.11100854 -0.4232691 -0.28538808 0.07045767 0.021207144 0.33500868 0.012886006 0.1752076 -0.010019776 -0.19546007 -0.23360626 -0.36203533 0.081178494 0.053076167 0.11080369 -0.0031411177 -0.030940799 -0.24576163 0.21050888 0.2628847 0.16761242 0.12015075 -0.44089296 0.36098573 0.0014043889 -0.0063681914 0.12084246 0.39015988 0.09546904 -0.08199071 -0.09414714 0.12283037 0.043124765
incent 0.0032162527 -0.15153816 0.035216864 0.108952895 0.096038915 -0.14521785 0.3002542 0.35619733 -0.39595497 -0.08296438 -0.07805361 -0.44790968 0.0484773 0.04322688 -0.047032654 -0.016375585 0.17215101 0.109837994 -0.3575691 -0.24327677 0.07724111 0.022977386 0.2709133 0.009603861 0.1514909 0.01442559 -0.18122084 -0.16492553 -0.2950141 0.06331162 0.043893166 0.08986686 0.017355202 -0.027871212 -0.20143865 0.13615821 0.1933216 0.14695577 0.08429646 -0.35255596 0.28719214 0.034773607 -0.00045484715 0.09553322 0.3306477 0.0933587 -0.069516726 -0.10518631 0.10050675 0.028584573
u 0.020538196 -0.13633418 0.0077225086 0.08487149 0.10444789 -0.1373121 0.26192042 0.33729735 -0.35025278 -0.064290464 -0.07380463 -0.39966086 0.024667975 0.07677344 -0.062074076 -0.018674001 0.18427975 0.11089578 -0.3044437 -0.23282021 0.07234018 0.0050316467 0.2500902 -0.00037148828 0.14217483 -0.002395692 -0.15580459 -0.16709113 -0.26825255 0.043132886 0.03935267 0.117595114 0.004356939 -0.006793576 -0.19997685 0.14244749 0.17635112 0.093600586 0.071864285 -0.34762478 0.2569948 -0.00026640185 0.037969865 0.071257435 0.29713398 0.1046098 -0.077174306 -0.10112965 0.08303155 0.030966394
tiebreak -1.43927755e-05 -0.14340988 -0.0018216877 0.092526615 0.08209374 -0.15786332 0.2514417 0.321641 -0.36588827 -0.08188423 -0.086193785 -0.4169469 0.04283693 0.05575878 -0.058634493 -0.005700741 0.14038987 0.08451834 -0.3262477 -0.22160429 0.06193636 0.027666578 0.22595921 0.00879674 0.15323055 -0.020899719 -0.14186195 -0.14172293 -0.27681956 0.06438879 0.03877716 0.08110766 -0.0030799909 -0.0026606098 -0.18466435 0.12668817 0.20798977 0.101583116 0.061154775 -0.32513982 0.24037415 0.015716648 0.0010638759 0.0934895 0.2805826 0.08097538 -0.04315521 -0.08854757 0.08055995 0.051047884
outcom 0.016672458 -0.14383969 0.03441094 0.1078083 0.09731151 -0.1480947 0.28335184 0.35405108 -0.38756156 -0.08348946 -0.093384504 -0.43704543 0.04101587 0.054166384 -0.05218968 -0.013905818 0.1766154 0.10332592 -0.35052848 -0.24302498 0.06640466 0.026527168 0.25157693 -0.022633119 0.13034932 0.008666856 -0.1683344 -0.15245964 -0.30366367 0.07191439 0.012441531 0.10614118 0.009435351 -0.019102702 -0.20340331 0.14866498 0.18924566 0.12046257 0.062494963 -0.3434134 0.2838251 0.009876968 0.008156494 0.10839182 0.32236585 0.06948604 -0.07941863 -0.09271556 0.10968544 0.044739235
rout -0.0143379 -0.14642365 0.036436073 0.085543245 0.112206765 -0.14599246 0.2813119 0.41289067 -0.41204894 -0.06029053 -0.08971141 -0.48844954 0.027435036 0.086158566 -0.060740836 -0.00932251 0.17367107 0.13550793 -0.3728673 -0.25792608 0.08564276 0.016054744 0.28817624 -0.008682939 0.16162708 -0.0014197199 -0.16042493 -0.1966139 -0.3233163 0.040723056 0.020294927 0.111525014 -0.013241933 -0.0079026995 -0.21886252 0.16316973 0.22923657 0.15479203 0.11571605 -0.39888868 0.2984474 0.0018543531 0.0021190748 0.12332614 0.34668946 0.09370956 -0.074404605 -0.10931727 0.11474503 0.037458006
compat -0.020502156 -0.11018698 0.02756499 0.106737636 0.12071727 -0.13543467 0.2865649 0.3429941 -0.37870276 -0.052841872 -0.082979254 -0.4370175 0.04983348 0.048418064 -0.032856975 -0.020913973 0.1478875 0.09844535 -0.3411938 -0.21795328 0.071043804 0.03283885 0.26122504 -0.017097715 0.15269887 0.00075625937 -0.15992016 -0.18220398 -0.27900752 0.035441376 0.039912574 0.08671692 0.016258592 0.013773729 -0.19158761 0.15621401 0.18967165 0.1363548 0.09086908 -0.35749155 0.25118336 0.021816647 0.013171966 0.095195174 0.29343992 0.074001454 -0.06016663 -0.075719886 0.08241383 0.032009915
0 -0.0015176677 -0.12041536 0.015838701 0.07376487 0.11132835 -0.14150864 0.25768277 0.34102213 -0.33488536 -0.07622795 -0.10175482 -0.4180272 0.04981779 0.052673187 -0.06823721 -0.018219395 0.14739084 0.10529226 -0.33374596 -0.20429221 0.047729153 0.018186847 0.24316265 0.015345165 0.12162689 -0.018344827 -0.16378364 -0.17402886 -0.29265374 0.04645109 0.024056017 0.07832619 0.01922254 -0.012220241 -0.17224656 0.14553358 0.18998136 0.09961742 0.08238791 -0.31893376 0.2382485 0.011348955 0.015089008 0.08835448 0.3090396 0.09607985 -0.05178956 -0.06296332 0.09990809 0.026028454
n -0.006896295 -0.14098892 -0.004166957 0.10029068 0.09658337 -0.15426713 0.24366482 0.3489883 -0.35186073 -0.069343396 -0.083153404 -0.40718672 0.023897823 0.058430888 -0.05617476 -0.003442644 0.1658481 0.07102481 -0.29720196 -0.22762056 0.06773236 0.019081654 0.21957968 -0.006331942 0.15253301 -0.016806541 -0.16607052 -0.1384463 -0.2689521 0.04075386 0.04457368 0.1063693 0.017550262 0.008232417 -0.19863646 0.15035933 0.19459377 0.121387556 0.085031554 -0.31515545 0.25308302 0.024395762 0.007236561 0.07865694 0.28585 0.08901961 -0.067156 -0.06666892 0.09959353 0.051052563
node 0.006377815 -0.12825257 0.0147314835 0.11893904 0.13598128 -0.18932757 0.29925576 0.41217527 -0.4146712 -0.08008883 -0.11517626 -0.4796422 0.055804525 0.06440528 -0.07292501 -0.03356128 0.18506664 0.09481521 -0.37762803 -0.25790763 0.08864474 0.029029662 0.2752641 -0.021371702 0.17636576 -0.020585194 -0.17657974 -0.2008489 -0.31921625 0.06083219 0.041643597 0.11311955 -0.002843896 0.0026198856 -0.22285749 0.16345382 0.20978536 0.14296696 0.113792 -0.38815516 0.28558323 0.028950412 0.023361377 0.12909417 0.3735883 0.080359966 -0.08930153 -0.08668401 0.12857786 0.04891539
rule 0.015612376 -0.12342057 0.030395264 0.06360034 0.07932952 -0.1471497 0.23180921 0.32820457 -0.33983687 -0.07749422 -0.06349473 -0.39141095 0.04553315 0.041196536 -0.039291322 -0.0075218873 0.1520513 0.0857579 -0.28892705 -0.21291634 0.054640032 0.006004192 0.23223457 -0.009458009 0.118594766 0.0054977112 -0.1429495 -0.15239792 -0.24204051 0.05399385 0.016334716 0.08881844 0.026253434 0.011149475 -0.15883145 0.13960484 0.18532512 0.103181325 0.05996857 -0.30796003 0.22923122 0.013319932 -0.0027497676 0.10330694 0.25371727 0.06119132 -0.060646098 -0.077731475 0.06411582 0.04003522
repeat -0.011186942 -0.13280748 0.003179612 0.092465796 0.11564304 -0.14537792 0.25519383 0.35580543 -0.3559916 -0.057031542 -0.10711427 -0.43631217 0.035249196 0.062865004 -0.07193487 -0.012605066 0.14523494 0.08848396 -0.32173255 -0.2262298 0.07517909 0.030333519 0.2359706 0.016511172 0.15335664 0.017588241 -0.14429729 -0.18328954 -0.2925156 0.067409515 0.041425854 0.11855445 0.02362876 0.008362567 -0.2154359 0.15822452 0.18909118 0.12994227 0.09637246 -0.3375295 0.27596432 0.015722327 0.008157735 0.11022702 0.2894166 0.07898409 -0.04115399 -0.09594054 0.09835318 0.024837213
nbrsolvabl 0.020941924 -0.10501773 0.018146409 0.0944705 0.099854276 -0.1508503 0.24643852 0.34326088 -0.34832665 -0.06966734 -0.06995598 -0.3942403 0.027190564 0.046579745 -0.032356348 -0.025912888 0.14326723 0.079996735 -0.3159664 -0.22514044 0.05346177 -0.0041254386 0.22837831 -0.0206997 0.10659057 -0.021231264 -0.1602464 -0.13440344 -0.25244203 0.05107933 0.015909428 0.07554512 0.0128973005 -0.0026777743 -0.17585434 0.13914935 0.18809381 0.10896932 0.05133867 -0.32839653 0.22402798 0.011662651 0.013912548 0.10787025 0.2725623 0.069222145 -0.03772228 -0.07466306 0.07380517 0.059408292
set 0.0074118786 -0.15605298 0.032339834 0.1114192 0.10817224 -0.1655692 0.30322415 0.41755384 -0.41994438 -0.07909053 -0.0989578 -0.48383862 0.036024276 0.058099013 -0.073244706 -0.009179255 0.2026532 0.12925006 -0.38845763 -0.23920637 0.07084771 0.0348304 0.28151393 0.007960582 0.17047758 0.009983672 -0.19048439 -0.17344293 -0.32739657 0.052936852 0.029204046 0.13271447 -0.0057858927 -0.017102681 -0.20468336 0.16917224 0.21028903 0.12481489 0.114036426 -0.3759187 0.30433953 0.008655507 -0.0035324167 0.12084651 0.35730898 0.08166086 -0.08597516 -0.099515446 0.09229329 0.040795427
order -0.002244595 -0.13857879 0.037002616 0.06598001 0.11090962 -0.1283313 0.25463027 0.36556187 -0.33713523 -0.07174155 -0.10297383 -0.42784286 0.01167351 0.048708405 -0.06301977 -0.03766784 0.15583947 0.10082743 -0.30447268 -0.21958353 0.057967074 0.013490287 0.23457037 0.01861168 0.13805422 0.00897243 -0.16786908 -0.14173727 -0.27651688 0.069049366 0.010948845 0.09765471 0.012371616 -0.0065404824 -0.1912835 0.12086818 0.17958142 0.09567754 0.0847634 -0.32683662 0.24587557 0.028076101 0.0026396152 0.091540456 0.27186555 0.060219523 -0.041339375 -0.08776848 0.073148176 0.048290078
2 0.01726501 -0.13937736 0.0149953 0.07150772 0.110364735 -0.14589295 0.24444012 0.34966177 -0.3371767 -0.044032786 -0.109912895 -0.4273557 0.04695648 0.06543943 -0.059174675 -0.019545186 0.18043385 0.09645522 -0.33595645 -0.20317273 0.08074913 0.02690537 0.24357887 -0.015885442 0.14306383 -0.0062463623 -0.13788944 -0.18022348 -0.2908416 0.048596542 0.008874852 0.104141876 0.0036437935 0.011145309 -0.20013122 0.14126183 0.20419721 0.10901492 0.076328896 -0.33159453 0.2551934 0.006425904 0.030059466 0.08044613 0.2995421 0.08163376 -0.042118542 -0.0668416 0.106011406 0.054002672
j -0.016155638 -0.10253922 -0.00023821175 0.07808644 0.096048765 -0.15192488 0.2362998 0.3284193 -0.36021614 -0.06348768 -0.102226846 -0.39522946 0.0045704124 0.045027442 -0.034366447 -0.008019292 0.17709579 0.10520795 -0.31355512 -0.22001186 0.080162674 0.019494778 0.25272274 0.019130096 0.15896153 0.012747851 -0.17109326 -0.17939584 -0.2717733 0.06631068 0.040342476 0.109550744 0.026926054 -0.030305507 -0.17223905 0.13282716 0.17047681 0.13870083 0.09620879 -0.33657855 0.24525663 0.0044727717 0.025530444 0.10408553 0.28692958 0.059415985 -0.06499244 -0.078211226 0.10543628 0.02696569
equilibrium -0.00010444973 -0.1201957 0.0032436198 0.08769092 0.10560378 -0.13379517 0.2576526 0.33540964 -0.35621044 -0.043821756 -0.07792243 -0.39337063 0.03734976 0.07409183 -0.03607044 -0.022968384 0.17449728 0.10625159 -0.300548 -0.20823088 0.05953906 0.0013279824 0.21179576 0.002970976 0.16051732 0.016642494 -0.15046147 -0.14511026 -0.26474524 0.040403012 0.030763937 0.08360475 0.021487964 0.004645923 -0.18024568 0.14908269 0.20474623 0.13364506 0.078374654 -0.34068096 0.2640785 0.028979577 0.016490703 0.090832494 0.27313066 0.06847848 -0.04100404 -0.086140424 0.07362495 0.058911934
bid 0.022934949 -0.123229265 0.01974157 0.07873363 0.1377847 -0.17109631 0.3052979 0.4039594 -0.38229138 -0.089066096 -0.080203205 -0.49113145 0.01752919 0.039862525 -0.074950196 -0.0037002894 0.20431684 0.10036427 -0.35323402 -0.24733609 0.09193481 0.031273786 0.27256376 -0.004853135 0.1480241 0.007809854 -0.17212516 -0.18958904 -0.30300742 0.054046795 0.010670682 0.10628401 0.01390881 -0.03149452 -0.22331591 0.14835097 0.2358077 0.15055393 0.0947406 -0.36734772 0.30374327 0.008480973 0.03469656 0.11933818 0.34696376 0.10663988 -0.07834336 -0.097253606 0.100372635 0.04827904
result 0.0064305887 -0.13009778 0.029174402 0.07687057 0.11158719 -0.17251422 0.30938774 0.3965927 -0.39706883 -0.060278468 -0.114902794 -0.4756651 0.040517528 0.07336835 -0.05000355 -0.011045376 0.17494494 0.105046794 -0.35561615 -0.23594922 0.06345416 -0.0011746589 0.27907306 -0.0047243917 0.15871774 -0.017959481 -0.14953893 -0.17753479 -0.3048025 0.063492864 0.014905263 0.11084088 0.010999033 -0.02560771 -0.19908999 0.16394266 0.22692013 0.14251707 0.0835061 -0.38699254 0.29525822 0.021916192 0.026276728 0.11885409 0.33070162 0.074517526 -0.06837196 -0.075990625 0.08600673 0.062270842
edg -0.010823994 -0.14479887 0.024787067 0.11827912 0.119707346 -0.18470675 0.30509552 0.43809983 -0.4524802 -0.060078703 -0.12273152 -0.53114074 0.026389409 0.08639319 -0.078902625 -0.035557304 0.18135017 0.12810588 -0.38527483 -0.25374386 0.07475181 0.027950747 0.28444323 -0.006437758 0.16411786 -0.0033842705 -0.19014327 -0.1816079 -0.3424585 0.047189437 0.026711233 0.103896 0.011366903 0.0053888205 -0.24250622 0.19685867 0.25336006 0.13411057 0.084934115 -0.38921842 0.33422747 0.0054106577 -0.0029827184 0.13538386 0.3749167 0.11249199 -0.091528475 -0.122173086 0.120090455 0.023858653
exist -0.010312812 -0.13686648 0.03693373 0.10863188 0.104516126 -0.1354171 0.28726947 0.35711467 -0.35450873 -0.053126592 -0.08740409 -0.44020855 0.02146487 0.053258583 -0.037267044 -0.034391824 0.15809819 0.1210734 -0.32620525 -0.20835333 0.05265614 0.013163341 0.25853246 -0.010814105 0.1637122 0.012569819 -0.15967923 -0.17099757 -0.29238778 0.04322017 0.01234565 0.09342985 0.0029759235 -0.0014353788 -0.20865712 0.16003317 0.18457302 0.106813975 0.10269781 -0.32842255 0.2542518 0.022535942 -0.00018138072 0.083116725 0.29171038 0.09607796 -0.04524497 -0.062333304 0.10214912 0.054957267
sequenc 0.002475977 -0.13549665 0.024792932 0.07672185 0.1100483 -0.12259067 0.22856615 0.3322186 -0.32068798 -0.056286298 -0.089991346 -0.399027 0.011533788 0.06931995 -0.065011136 0.00010866359 0.12671891 0.08695096 -0.29588932 -0.21415566 0.078736305 0.024555178 0.22163239 0.009412041 0.12810102 0.013268875 -0.12590627 -0.1662237 -0.26092094 0.04541116 0.03191849 0.077268034 0.011899574 -0.025635138 -0.16054866 0.13840362 0.187892 0.09953135 0.060543858 -0.32095212 0.22987385 -0.0040843682 -0.0053376975 0.099240005 0.2775089 0.07969337 -0.06912725 -0.082685865 0.09717013 0.04254697
dynam -0.011109011 -0.13355884 0.01771893 0.087731026 0.107525766 -0.12515284 0.23189983 0.30938026 -0.35598412 -0.057353962 -0.074676074 -0.38834366 0.031368513 0.06461915 -0.051161706 -0.012682334 0.1344488 0.11058828 -0.29076043 -0.18962036 0.07526385 0.027850311 0.22399253 -0.005148497 0.13924463 -0.02067571 -0.1252082 -0.1664992 -0.24864967 0.039788097 0.028150149 0.07459506 -0.01131539 -0.022710597 -0.1982963 0.13939245 0.16733278 0.103779405 0.0688336 -0.3282894 0.25241804 0.022953272 0.03065207 0.105446875 0.2641212 0.08860036 -0.07594098 -0.081179224 0.06680592 0.04504594
util 0.0044549867 -0.10126526 0.020016385 0.05862551 0.11675771 -0.14026883 0.25064558 0.32484868 -0.33067894 -0.06273713 -0.090615936 -0.39091286 0.04290206 0.043214206 -0.032575503 -0.040753223 0.14934003 0.08745528 -0.27312133 -0.21296154 0.07516782 -0.0030068 0.20083527 -0.009867209 0.12229693 -0.0118627455 -0.14495885 -0.16718875 -0.24913616 0.044225607 0.019610284 0.099203154 -0.00920046 -0.014502471 -0.15858401 0.14900522 0.15577604 0.12120742 0.09035704 -0.31329048 0.2482039 -0.008246187 0.030317212 0.09617783 0.26918313 0.06021381 -0.06661562 -0.07973936 0.08623492 0.03492577
everi 0.01819982 -0.10346183 0.03131508 0.076326646 0.118527584 -0.13897851 0.25930595 0.33852103 -0.34474263 -0.05297379 -0.09798632 -0.4126078 0.0139224 0.05835751 -0.036562193 -0.01764782 0.15651903 0.09783763 -0.29137042 -0.22303686 0.06732117 -0.0018212533 0.23522967 0.017830139 0.15016286 0.0051995656 -0.13033327 -0.14140749 -0.25062814 0.06828618 0.016526204 0.11143046 0.01974317 -0.0116198845 -0.16235016 0.1482487 0.2057083 0.1163193 0.09692179 -0.31784007 0.26021177 0.021798177 0.022752028 0.08376925 0.29489037 0.08847911 -0.06271884 -0.08074502 0.092606686 0.023472097
prefer 0.02227005 -0.150465 0.00010665779 0.096057236 0.12216325 -0.1562921 0.27075297 0.3805554 -0.38588414 -0.07646626 -0.104275465 -0.4439532 0.036101572 0.083075486 -0.04293039 -0.021702517 0.17533296 0.12075881 -0.31488332 -0.20654981 0.08298374 0.0018774549 0.24096869 -0.015430245 0.16337311 -0.013397859 -0.17413785 -0.15480794 -0.27282453 0.04291636 0.04930435 0.09677865 -0.0019609272 -0.013374576 -0.19727476 0.14233328 0.20298927 0.13705243 0.105130166 -0.37196234 0.25870144 0.0003136739 0.029857054 0.11050865 0.3004467 0.090220295 -0.07435751 -0.086729065 0.11769101 0.035225257
follow -0.008401247 -0.13909803 0.011039619 0.08036834 0.10876015 -0.11876542 0.24151878 0.34314552 -0.3270441 -0.05703567 -0.084757954 -0.38281476 0.047657985 0.06983687 -0.06410935 -0.00037482838 0.16828462 0.114966206 -0.3113754 -0.1966173 0.08029123 0.0032525614 0.24379963 0.0021618134 0.15781055 -0.008738715 -0.15428004 -0.14220801 -0.2885409 0.03717215 0.014332383 0.09495768 0.0014569985 0.0023026392 -0.16080825 0.1391945 0.18766895 0.11845584 0.07364533 -0.33948487 0.26067898 0.0017173674 0.020420104 0.11028326 0.29118177 0.083507195 -0.05185999 -0.08717643 0.09186566 0.036823172
let 0.0119667165 -0.11296004 0.02176156 0.09634221 0.08158995 -0.12547168 0.2690526 0.3298389 -0.34318876 -0.074830756 -0.08035322 -0.39766306 0.045858975 0.05630291 -0.045442663 -0.013949709 0.17256765 0.0825149 -0.3232328 -0.2163993 0.059355445 0.02302881 0.2118219 -0.00782103 0.12030465 0.0077645276 -0.15469219 -0.1721137 -0.25953844 0.06774955 0.01895152 0.08084829 0.017984848 -0.01357161 -0.19914663 0.15595332 0.17550953 0.10350719 0.0742284 -0.33391204 0.24991773 0.032894917 0.0190545 0.11007324 0.28493106 0.07750214 -0.06373858 -0.09671361 0.09356816 0.04353708
clear -0.018471448 -0.12400433 -0.0058547356 0.0659386 0.09769069 -0.10858882 0.24061455 0.30825475 -0.30100212 -0.060050923 -0.07596248 -0.3851999 0.024665527 0.041597534 -0.043666966 0.00018912554 0.12542713 0.079011045 -0.2975132 -0.20041749 0.05273324 0.017572923 0.21922952 -0.012444051 0.11447174 -0.0012821542 -0.12307737 -0.12773992 -0.2500946 0.036326777 0.009121159 0.083339795 0.013741484 -0.0030299784 -0.14928125 0.12200535 0.1711222 0.09247161 0.060903616 -0.30767497 0.22360367 0.017317567 -0.0064883204 0.10522793 0.23603761 0.049795922 -0.07345635 -0.055706922 0.08878313 0.05709608
c 0.0077279396 -0.12587215 0.012048481 0.10640791 0.116021544 -0.14080015 0.2647067 0.3654709 -0.36123818 -0.06625562 -0.08894678 -0.4357647 0.03792469 0.06540479 -0.0502405 -0.03320152 0.15562679 0.10792405 -0.3471474 -0.22138037 0.06836303 0.021874558 0.23144878 0.019208983 0.14704742 -0.0153316865 -0.15073034 -0.1747335 -0.30748454 0.046889324 0.02656527 0.083474934 0.011450457 -0.006965907 -0.20650618 0.15556428 0.20372258 0.14877562 0.09133241 -0.34671625 0.27337846 0.008980906 -0.005759606 0.116623744 0.30038726 0.059970822 -0.0757627 -0.0922865 0.10326395 0.049335167
v 0.01914529 -0.14079946 0.015784932 0.080204606 0.097906694 -0.12843329 0.2668517 0.34864026 -0.37837955 -0.070774436 -0.091967225 -0.40698573 0.041625742 0.03814582 -0.07746651 -0.0037886 0.16347063 0.08903313 -0.3116267 -0.2291254 0.08184988 0.01948845 0.228622 0.0028008062 0.16058286 0.017380906 -0.15179545 -0.1541639 -0.2964705 0.056373227 0.015981289 0.10219365 0.004980903 -0.023676947 -0.2094792 0.17004879 0.19930442 0.11678655 0.08080581 -0.32748923 0.24932286 0.015906898 0.019865131 0.119133055 0.31621498 0.07363621 -0.059200753 -0.08440408 0.070414476 0.029602738
consid 0.0006755819 -0.11372755 0.037971027 0.10609046 0.092136204 -0.1296351 0.2525001 0.35055107 -0.36286044 -0.050921842 -0.07917075 -0.41226462 0.046289146 0.059086904 -0.06577447 -0.032873563 0.17379203 0.08906331 -0.32982233 -0.20503181 0.065011226 2.0289646e-05 0.23812024 0.0028051212 0.14756393 0.0085918885 -0.1663295 -0.15582372 -0.26556575 0.055581752 0.038201246 0.087951414 0.018835252 -0.026924256 -0.18305388 0.12532066 0.18954231 0.10081925 0.0813141 -0.34811988 0.24960846 0.01740385 0.01682659 0.0931626 0.2785754 0.06803582 -0.0597404 -0.09006941 0.07188521 0.03593896
uniqu 0.014322636 -0.104902886 -0.0056647263 0.08909846 0.08615155 -0.15071727 0.24436057 0.32410517 -0.34833443 -0.07454184 -0.08924057 -0.3741146 0.0115747135 0.06997437 -0.049573977 -0.014913391 0.16647843 0.10027775 -0.30441028 -0.19197224 0.06916474 0.02853701 0.2220439 -0.011678126 0.13855626 -0.0173502 -0.1370415 -0.13904567 -0.24984276 0.06796483 0.011516706 0.07790763 0.019437622 -0.0032043352 -0.18607824 0.13841932 0.18520685 0.10567639 0.06284145 -0.30144617 0.2564228 -0.0024250925 0.006648651 0.0836793 0.2600141 0.072154045 -0.06524891 -0.057425454 0.06826625 0.046803508
sourc 0.0022704385 -0.12906586 0.022085276 0.12029573 0.11828818 -0.17663778 0.2926119 0.40570614 -0.41955864 -0.09012285 -0.11843362 -0.48870045 0.049319252 0.07044122 -0.045072567 -0.009325066 0.17365415 0.11641159 -0.34452674 -0.2363805 0.08523198 0.030349905 0.2553773 0.019623633 0.18371153 0.015271723 -0.19196081 -0.1727847 -0.30718735 0.057149094 0.02073204 0.1274965 -0.013419207 -0.022865016 -0.20789991 0.18632765 0.23701267 0.12512292 0.07426898 -0.36045203 0.3054927 0.0055426327 -0.004736017 0.09961287 0.3326307 0.08377953 -0.06781264 -0.09578281 0.09612552 0.028377589
step 0.022654004 -0.119111955 0.00094119227 0.08791438 0.10046388 -0.10799366 0.220732 0.29323068 -0.31098896 -0.055951774 -0.09674853 -0.36880475 0.029503768 0.060155373 -0.029779268 -0.013314903 0.12999527 0.08382462 -0.28836116 -0.17471932 0.04493922 0.011608266 0.20426711 -0.009858135 0.10802073 0.0064995964 -0.15115991 -0.14674751 -0.23464331 0.06036351 0.008179272 0.0937106 0.030329484 -0.023470843 -0.16634922 0.13581961 0.1847683 0.10572044 0.09294439 -0.28968406 0.22544509 0.006492462 -0.0058147353 0.08905034 0.26280144 0.05103696 -0.053764995 -0.07042176 0.08002822 0.04910013
show -0.002257535 -0.14026852 0.033520725 0.07499037 0.089755796 -0.14749175 0.2477837 0.3529805 -0.35824347 -0.069441564 -0.10222233 -0.426238 0.028062787 0.06490235 -0.036319748 -0.008272346 0.17890045 0.079463944 -0.30781913 -0.22117938 0.08687343 0.018655984 0.24920624 -0.02088997 0.12499442 0.013536765 -0.16143976 -0.15852427 -0.26870796 0.05259876 0.049003195 0.09512841 -0.011011361 -0.0239392 -0.19224295 0.13012034 0.21035382 0.12641874 0.06365452 -0.32191056 0.2758972 0.025206057 0.02469071 0.078282274 0.29780757 0.06173859 -0.07018611 -0.082386255 0.089713976 0.041182972
match 0.00866937 -0.13576172 0.026873069 0.115693 0.10974853 -0.13991569 0.30707282 0.41535732 -0.39050278 -0.07405726 -0.11113543 -0.47505882 0.027579768 0.090945914 -0.05440408 -0.021010792 0.18765476 0.08675412 -0.3475111 -0.22007889 0.07143969 0.020967124 0.25378168 -0.019739194 0.17833185 -0.017670572 -0.15847407 -0.1819794 -0.31622168 0.06455087 0.03000366 0.10087949 0.010959402 0.0018744146 -0.21623917 0.16939044 0.19689922 0.15584424 0.07783468 -0.36599725 0.29240903 -0.0010479273 0.0028712715 0.08949021 0.31833068 0.10808964 -0.04476944 -0.08670844 0.105869144 0.06559025
time -0.00624193 -0.114208974 0.023834132 0.06249767 0.07550345 -0.14519565 0.25162897 0.32155344 -0.3284886 -0.071827054 -0.07724641 -0.36456624 0.021521727 0.051213287 -0.05817129 -0.010002314 0.14259513 0.105304874 -0.30390394 -0.20108706 0.04004038 0.008121517 0.19608834 0.011824455 0.11286796 -0.017654464 -0.12579465 -0.1657084 -0.24310504 0.029139422 0.042040396 0.10626468 0.014219076 0.002496287 -0.15340774 0.114058726 0.1943115 0.082778774 0.09272188 -0.29243287 0.21991503 0.0038246203 0.028970283 0.07275923 0.28030172 0.058075104 -0.036224164 -0.07324943 0.09689332 0.025756352
environ 0.01318319 -0.10294496 0.023847116 0.083886504 0.11350716 -0.11459903 0.26530638 0.34948614 -0.3261961 -0.0403285 -0.06665999 -0.39951348 0.026271485 0.0548376 -0.047999937 -0.019385798 0.134096 0.07722174 -0.31091708 -0.18122205 0.056149837 -0.0021870243 0.23650135 -0.00085689756 0.14047104 0.0057520606 -0.13754126 -0.14403814 -0.26027974 0.050867464 0.043159094 0.09622006 -0.0025420147 0.005978822 -0.16842881 0.14416479 0.17519528 0.12106431 0.09183478 -0.30511582 0.2430267 -0.0034206337 0.014001502 0.09295168 0.28590742 0.056352142 -0.038895328 -0.092044614 0.09426218 0.018663371
user 0.023728337 -0.11298275 0.01800361 0.08151043 0.107326455 -0.14987063 0.25527057 0.36836505 -0.36460242 -0.058174517 -0.10742669 -0.41278315 0.02996105 0.055466063 -0.07231228 -0.013084469 0.17755547 0.11211649 -0.34117258 -0.23227744 0.05524567 0.014491514 0.2262897 -0.016430467 0.14351721 -0.0027690069 -0.17696138 -0.17679729 -0.28578293 0.0685472 0.032026086 0.098920666 -0.00600468 -0.022563197 -0.19523552 0.16690266 0.21086988 0.11844943 0.08444253 -0.3647247 0.25694293 0.0029423623 0.02252981 0.09280187 0.29170316 0.06089412 -0.06229258 -0.097372726 0.08747365 0.027431713
inform -0.002722603 -0.12803684 0.0009149676 0.07752656 0.10365758 -0.14020574 0.22947638 0.32613963 -0.3622476 -0.05872446 -0.07260479 -0.4051231 0.03624348 0.06239718 -0.03590578 -0.010021131 0.17308842 0.07549636 -0.3184132 -0.21433917 0.04952368 -0.0062437262 0.2096075 -0.008932936 0.13917924 -0.00918766 -0.16351803 -0.14598344 -0.26332515 0.058431957 0.038787458 0.11054965 0.0036439707 -0.00059590273 -0.1884923 0.142821 0.18986714 0.13102494 0.073142566 -0.3139774 0.22950712 0.005351081 0.030969048 0.08284347 0.2754968 0.055672027 -0.07949661 -0.057038456 0.07292579 0.04431022
stabl -0.013488348 -0.13327545 0.00090396445 0.10379888 0.121410325 -0.13036557 0.2869046 0.3531633 -0.38266012 -0.045653872 -0.102261975 -0.4091727 0.04073305 0.057219032 -0.070408195 -0.027810449 0.17343584 0.08402084 -0.32586578 -0.23277408 0.08631095 0.008684759 0.26202565 -0.014035377 0.12494065 -0.026244314 -0.16300265 -0.15794156 -0.28489903 0.07000714 0.038656026 0.10228983 0.014993779 0.0056529674 -0.19579145 0.16432436 0.17156807 0.12699872 0.083040014 -0.33758256 0.27067226 0.010087078 0.0049695866 0.09486232 0.29705912 0.076059274 -0.048176922 -0.094614014 0.10629213 0.041241657
point 0.010943243 -0.11946426 0.016161365 0.088289954 0.09791826 -0.13330992 0.25677353 0.3432607 -0.37527224 -0.08264598 -0.088983625 -0.42955264 0.02841291 0.047912005 -0.06920882 -0.017535219 0.17480211 0.09103122 -0.33356133 -0.20368524 0.061880734 0.00033560782 0.23275398 -0.0022056461 0.13533153 -0.024632292 -0.13444479 -0.15257376 -0.2827578 0.06658588 0.027264964 0.10996729 0.00367217 0.007958918 -0.18929736 0.13142058 0.18207176 0.1379982 0.082691416 -0.33291116 0.27373546 -0.0008038397 0.009945918 0.078899436 0.28021255 0.060090955 -0.052908763 -0.07516592 0.10239135 0.04338557
two 0.0052105403 -0.10887137 0.010913864 0.08961418 0.12144917 -0.13404876 0.2625831 0.32444346 -0.33051232 -0.05031256 -0.07754353 -0.42477143 0.027038252 0.06437678 -0.062015682 -0.0341342 0.1694469 0.081162594 -0.3204593 -0.18743633 0.051944405 0.030798554 0.23176917 0.006170095 0.13186282 -0.017482867 -0.1635505 -0.15990369 -0.27777034 0.043388844 0.044585854 0.076672435 -0.006796868 -0.021268148 -0.19748676 0.12223196 0.17928123 0.13759513 0.098821215 -0.3354367 0.22936396 0.007187848 -0.0048139095 0.08185208 0.2738084 0.08420503 -0.071328275 -0.07863758 0.094652854 0.048991047
activ -0.0012347611 -0.12343832 0.024397075 0.05528224 0.08998736 -0.10630413 0.22243378 0.27803513 -0.2862671 -0.032848664 -0.08751551 -0.34264004 0.028866095 0.036649626 -0.05209304 -0.021307664 0.10154678 0.07721313 -0.25271484 -0.17512639 0.059715822 0.01636604 0.19656892 -0.015523043 0.09973884 -0.023159264 -0.13699672 -0.1366269 -0.21698181 0.022238849 0.008168677 0.07428743 0.02234538 -0.0033084378 -0.12899108 0.09343525 0.14387168 0.08649691 0.084842436 -0.2569973 0.2011236 0.01413357 0.014988244 0.052388597 0.23478466 0.07489249 -0.036943205 -0.05119624 0.054487314 0.019893292
network 0.022794634 -0.15136975 0.002926337 0.11222776 0.11401211 -0.15435933 0.32094142 0.40829113 -0.42253935 -0.06453013 -0.11654593 -0.50000125 0.05394378 0.08474134 -0.08339631 -0.008582478 0.21021064 0.10934617 -0.37518087 -0.2563219 0.09525788 0.0133960685 0.29546267 0.016092993 0.18118338 -0.018249337 -0.18604492 -0.19071425 -0.3296026 0.067207634 0.05129373 0.1250552 0.026549628 -0.030249402 -0.23766768 0.17690124 0.23570973 0.14001247 0.08368859 -0.40369752 0.28824365 0.035019323 0.021610782 0.09858186 0.36111873 0.1035669 -0.083728366 -0.11128441 0.10936029 0.06438003
must -0.01885517 -0.12491666 0.0004644174 0.0820854 0.108860925 -0.1499478 0.24827506 0.3416827 -0.36386016 -0.044203103 -0.07768017 -0.42765763 0.024047242 0.06034431 -0.07029095 -0.036244053 0.13905405 0.08129451 -0.29415864 -0.1923215 0.068984844 -0.0060914773 0.24432242 0.007862355 0.13999869 -0.0242074 -0.15128449 -0.15805063 -0.28883597 0.054603882 0.02748243 0.08044293 -0.0064565963 0.006831349 -0.202026 0.12998536 0.20002209 0.11492838 0.07340718 -0.33870122 0.2452484 0.024060115 -0.002581061 0.082125664 0.27530277 0.07002362 -0.07506275 -0.09736733 0.10132594 0.053339202
use -0.0059217555 -0.1524477 0.017654153 0.0860027 0.13461174 -0.14881778 0.26551354 0.37087712 -0.4069158 -0.06298263 -0.10419962 -0.4547326 0.04186242 0.07713875 -0.049204446 -0.03487379 0.18489656 0.08243394 -0.35707846 -0.24668229 0.06919463 0.011918286 0.24803656 0.0019305294 0.17243825 0.011645169 -0.16818212 -0.15497078 -0.29340902 0.049684547 0.018718187 0.118102245 -0.012167964 -0.015026311 -0.18345067 0.14986101 0.21063226 0.10901469 0.09647381 -0.33974564 0.25339374 0.0097972015 0.028077865 0.10725041 0.3169394 0.0871882 -0.087699935 -0.07010502 0.092315435 0.029551957
eg 0.0058454904 -0.13430598 0.0050332793 0.10791186 0.11082255 -0.16614786 0.2979906 0.39348492 -0.3744315 -0.06499478 -0.09639805 -0.4734222 0.041700006 0.080303706 -0.05828331 -0.02754094 0.16625038 0.10509943 -0.36513022 -0.21431278 0.0724569 0.032821335 0.24431369 -0.014274651 0.14558946 -0.020080565 -0.15903674 -0.16607383 -0.30228034 0.063468546 0.011985661 0.10071717 -0.0103728715 -0.0030662448 -0.21331955 0.17772754 0.2017475 0.14538546 0.09623726 -0.3644403 0.27588847 0.03269527 0.018102981 0.121688336 0.32420823 0.09607426 -0.05521615 -0.10415879 0.08367538 0.04454281
converg 0.0011061713 -0.103135124 0.015701761 0.09083067 0.08230152 -0.11963981 0.23547298 0.30116805 -0.29784623 -0.044744954 -0.08145582 -0.3710796 0.03059702 0.03158057 -0.051637094 -0.03719425 0.1343654 0.06913123 -0.25645748 -0.18891402 0.07734907 -0.007280001 0.19177593 0.0028738377 0.11912933 -0.0002530416 -0.13677081 -0.13997993 -0.24967568 0.024131577 0.036107145 0.08293781 0.020461664 -0.02197998 -0.15320642 0.10326343 0.18071802 0.113518775 0.058137048 -0.26860064 0.2033972 -0.004474992 0.012023461 0.087967426 0.23181029 0.050616167 -0.03210024 -0.063194014 0.07574347 0.037518382
first -0.006692063 -0.10250483 0.021351697 0.09506829 0.076198876 -0.113972396 0.23493464 0.2804723 -0.31999633 -0.035606697 -0.059341636 -0.36038065 0.036569443 0.047650687 -0.053700555 -0.017833846 0.12301379 0.09456178 -0.26570582 -0.19628114 0.054841623 0.0036067525 0.21245807 -0.000530666 0.13353398 -0.0005089655 -0.1392177 -0.120934755 -0.22568573 0.035282083 0.010834574 0.07593313 -0.0015176962 -0.00158422 -0.17259227 0.108949386 0.17172319 0.09643087 0.081336625 -0.28594577 0.21332976 0.016728314 0.016693108 0.083450146 0.26537126 0.07471678 -0.063130476 -0.06954452 0.056618363 0.021187456
servic 0.0019075909 -0.14077675 0.03217434 0.085819505 0.097870335 -0.14671384 0.22844847 0.31060922 -0.31939656 -0.06383323 -0.07315286 -0.40614817 0.048735153 0.05793397 -0.04957854 -0.026530115 0.15754464 0.08208119 -0.28730366 -0.19053233 0.0659441 0.023326814 0.23225904 -0.013229209 0.15609689 0.00044042108 -0.15785146 -0.13665879 -0.26843324 0.070811585 0.021534516 0.10526905 0.015802635 -0.019710459 -0.18784958 0.15848027 0.18461205 0.101009294 0.0788153 -0.32581016 0.24430457 -0.0073638917 0.028463645 0.09555629 0.2952191 0.0822678 -0.064908385 -0.06935957 0.08039278 0.01314814
bgp 0.019808466 -0.11545304 0.040397342 0.0833429 0.097283 -0.14098436 0.2636439 0.38961366 -0.37733278 -0.05435834 -0.08248808 -0.44264498 0.026682349 0.059536263 -0.03711211 -0.034895357 0.16718271 0.10154717 -0.33230323 -0.20772545 0.06043569 0.020947 0.24467002 0.0037471154 0.17164019 0.0047312076 -0.17311135 -0.17802733 -0.28032973 0.07509674 0.04135418 0.09838033 0.00059610093 -0.021192586 -0.20723355 0.16208054 0.19122636 0.112517215 0.102092646 -0.3370299 0.28815255 0.017799951 -0.0047763833 0.08687399 0.31598815 0.06309769 -0.08062433 -0.083889715 0.0872571 0.024300914
b 0.017168716 -0.13543919 -0.0011128518 0.07702535 0.10025048 -0.13461702 0.22749321 0.33415157 -0.3129029 -0.07311729 -0.059728514 -0.3696012 0.012094065 0.04775571 -0.038022254 -0.0038722209 0.14500749 0.07448094 -0.28766018 -0.2148625 0.050405923 0.01102294 0.2316606 -0.012894569 0.1447937 -0.0035297684 -0.13634405 -0.13766387 -0.25533402 0.0678536 0.024188777 0.07354187 0.028905606 -0.02067613 -0.16570425 0.13030669 0.16260068 0.09933505 0.08565777 -0.31579703 0.23920514 -0.009676888 0.002923031 0.07693811 0.2900077 0.056127187 -0.04422219 -0.07906827 0.07995374 0.050104924
bestrespond -0.006392987 -0.12099186 0.017874962 0.08732953 0.10765 -0.12506923 0.22249115 0.29957655 -0.3107695 -0.036626212 -0.088769965 -0.34413412 0.03220727 0.053382847 -0.05557273 -0.010504267 0.14701468 0.1011785 -0.28415924 -0.16307124 0.06467138 0.0057637696 0.2168559 -0.009368391 0.11585079 -0.015488267 -0.13517691 -0.13280544 -0.2377544 0.029507622 0.03432423 0.069226876 -0.0076825283 0.011371342 -0.13638057 0.1289479 0.15755908 0.095458105 0.06702806 -0.26458836 0.19703892 0.012948597 0.019157862 0.0742975 0.24529086 0.07597198 -0.030987194 -0.060201366 0.09156866 0.019609828
repeatedli 0.010421609 -0.10644423 0.0057999813 0.06759056 0.07631519 -0.12083026 0.21050186 0.29070884 -0.29565868 -0.065218486 -0.07783648 -0.31199497 0.0027296168 0.062148146 -0.045874745 -0.013219649 0.12183041 0.06633826 -0.24481411 -0.15215765 0.038350593 0.0066453423 0.18962221 0.010451835 0.12780006 -0.008909655 -0.10542869 -0.13863012 -0.22408757 0.057582557 0.032420974 0.06066065 0.0035995794 -0.025369644 -0.14933743 0.123920806 0.13513726 0.1026091 0.0781002 -0.2698889 0.17775951 0.0069401693 0.0052944026 0.08249407 0.24930796 0.06970499 -0.052069582 -0.057404164 0.054778997 0.025781065
pne -0.0038869171 -0.088426895 0.00042219606 0.06254485 0.095503904 -0.11813804 0.21112135 0.28957963 -0.31578577 -0.06425888 -0.094695985 -0.37079537 0.02050933 0.065188706 -0.042080082 -0.015140966 0.13961615 0.07732664 -0.27053097 -0.1853155 0.070437744 0.0072227833 0.18716171 7.172368e-05 0.14463854 -0.0162225 -0.14091718 -0.14359164 -0.22322503 0.041844793 0.044642765 0.064582 0.028649604 -0.025521535 -0.1446683 0.13009751 0.17409219 0.093197376 0.0858851 -0.27817494 0.20986934 -0.006609554 0.021622214 0.073240414 0.23295802 0.076102965 -0.060824882 -0.0863481 0.097811766 0.032516345
gener -0.0015940359 -0.14093892 0.011410976 0.07961305 0.09942316 -0.15608652 0.25667554 0.3814158 -0.3597509 -0.070965976 -0.08739594 -0.44935665 0.046333723 0.073195234 -0.05611148 -0.03651423 0.15828283 0.11304904 -0.33842078 -0.21241304 0.0881254 0.021472007 0.23961523 0.009696124 0.14244926 -0.015744379 -0.14410828 -0.18817514 -0.2939071 0.051173016 0.011073756 0.09847794 0.02075795 -0.019477744 -0.21152373 0.16232026 0.19088754 0.10629844 0.08504907 -0.3481798 0.27882928 0.015309863 0.030996231 0.078678586 0.31459975 0.09573167 -0.0610051 -0.091978915 0.09231602 0.04004413
theorem -0.017342996 -0.14048485 0.021797704 0.080907285 0.12650196 -0.14976138 0.277018 0.35518882 -0.34813732 -0.081718534 -0.083422005 -0.42496336 0.036952347 0.05445103 -0.065467484 -0.0023693375 0.15407285 0.10772418 -0.33746913 -0.20314841 0.08771889 0.0125530185 0.254431 -0.0043528527 0.16433752 0.017228669 -0.15348281 -0.16783954 -0.30113897 0.06991099 0.023333326 0.102679566 6.4892054e-05 0.010676283 -0.17120071 0.15022835 0.20135725 0.13274737 0.085216664 -0.326049 0.25832713 0.0088042645 0.023922961 0.08959189 0.29459321 0.09871175 -0.08132523 -0.09264091 0.08359627 0.051094547
rank 0.01889305 -0.14434247 0.028936835 0.0865391 0.090164505 -0.15122584 0.26386395 0.35084826 -0.3682606 -0.073288 -0.08167711 -0.41124955 0.026637757 0.06862497 -0.056303464 -0.022568488 0.15195626 0.10350639 -0.32136217 -0.19985941 0.08269189 0.020908913 0.25530034 -0.016030036 0.14380999 -0.019126426 -0.14154956 -0.15059586 -0.29502422 0.052761953 0.041954417 0.10269929 0.007950205 -0.02486196 -0.17387971 0.12950546 0.18588315 0.10963304 0.076457284 -0.35082415 0.23777127 0.01641632 0.007877566 0.08986301 0.31753108 0.09210573 -0.054814782 -0.08986208 0.11544423 0.03646978
α 0.012058512 -0.10795683 -0.004317044 0.070205756 0.12481994 -0.13754605 0.2542186 0.3616523 -0.3676508 -0.07474693 -0.11006252 -0.4022639 0.021585548 0.044622302 -0.06701056 -0.008513532 0.1582944 0.08471206 -0.32315138 -0.216083 0.0626365 0.009698305 0.25098294 0.0023132793 0.13787784 0.0021589375 -0.1433511 -0.18446033 -0.29533657 0.066050164 0.009335606 0.10114143 -0.011961385 0.005549007 -0.20087492 0.13179314 0.18863049 0.11781399 0.102002524 -0.31691095 0.25494647 0.019622862 0.023409791 0.09391221 0.2874622 0.07805697 -0.05466261 -0.06600321 0.085982874 0.016147451
also 0.0112098195 -0.10252176 0.0035536662 0.08001802 0.08967056 -0.12269552 0.2682706 0.33205706 -0.33367863 -0.045793 -0.07501243 -0.41792664 0.034757745 0.048273604 -0.055339355 -0.007770916 0.14918025 0.11408233 -0.3071218 -0.19976108 0.0598202 -0.0049678246 0.20865788 0.00793404 0.12293866 0.004790835 -0.1403968 -0.17102174 -0.2723839 0.03663381 0.007840627 0.094333366 0.027851041 -0.02116821 -0.18805258 0.15617378 0.20354898 0.13282374 0.05714941 -0.30944878 0.22983457 0.02736963 0.024334567 0.082811646 0.29474616 0.058770955 -0.04819375 -0.06804718 0.09705721 0.047994733
present -0.0028847805 -0.1243484 0.0073199384 0.07551668 0.11413059 -0.16465726 0.26779193 0.3622157 -0.35187444 -0.07826112 -0.094182044 -0.43841848 0.019231563 0.053957973 -0.04576691 -0.032027848 0.16068691 0.120428786 -0.33210662 -0.22102742 0.08363711 0.015695024 0.24531412 0.017452087 0.16432068 0.006219385 -0.15089329 -0.17077097 -0.26849476 0.064160764 0.016643688 0.088338815 0.0051957606 -0.023782205 -0.18672323 0.13014205 0.19348693 0.12834314 0.088443466 -0.33971378 0.24176072 0.021941565 0.025386518 0.10497236 0.3153185 0.08303286 -0.050818656 -0.067264274 0.088457614 0.038994167
class 0.0034680131 -0.13296881 0.027458765 0.06966258 0.0908682 -0.13296585 0.25914082 0.32404438 -0.33257458 -0.06233517 -0.08452168 -0.38556185 0.016880201 0.039662004 -0.048405632 -0.009669697 0.15044057 0.1085699 -0.2934603 -0.19770776 0.045991898 0.022504833 0.23344421 -0.013360808 0.14276537 0.016482843 -0.1533268 -0.15178642 -0.27354577 0.05315091 0.017983116 0.093690164 0.026774213 -0.02411771 -0.192034 0.13521571 0.15823993 0.08935612 0.052908633 -0.30912563 0.23117355 0.016936427 0.009450003 0.10599403 0.2849397 0.060596537 -0.038424946 -0.09338514 0.07472553 0.0423106
guarante 0.001683735 -0.122238055 0.016558815 0.08182921 0.07758186 -0.13644136 0.22138481 0.3266436 -0.3287555 -0.073029466 -0.07199314 -0.37957403 0.03360368 0.06575393 -0.056131337 -0.005394056 0.13048567 0.08041695 -0.30598232 -0.1904318 0.044947956 0.031338226 0.22918479 -0.018985556 0.14608456 0.008744708 -0.15289383 -0.13991398 -0.26992917 0.06627446 0.037495 0.08630062 -0.012806433 -0.0119415475 -0.17178188 0.13330387 0.19048695 0.10475289 0.059198454 -0.32437366 0.22908276 0.015431506 0.010724056 0.08181405 0.2863894 0.07306932 -0.04147067 -0.069048375 0.06973792 0.03384513
desir -0.0143605815 -0.13382354 0.008716483 0.0915439 0.097503714 -0.11329549 0.23837863 0.3147883 -0.3261859 -0.05142945 -0.08229668 -0.39579433 0.013341495 0.058832683 -0.06290111 -0.03804108 0.12955056 0.1082932 -0.29166758 -0.17915396 0.082240626 -0.002831436 0.23116826 0.0045742937 0.1441421 -0.01194615 -0.12165345 -0.16409145 -0.24365841 0.058526766 0.025753139 0.100544624 0.019871179 -0.0021639597 -0.16003846 0.13876264 0.1760285 0.124662034 0.08339578 -0.3184364 0.23837203 0.013350735 0.023171596 0.077347286 0.26194948 0.07213931 -0.05044086 -0.08831891 0.099650174 0.02797731
action 0.012925216 -0.1262827 0.03543086 0.080362916 0.10623516 -0.14353502 0.267507 0.38532615 -0.39196637 -0.060141057 -0.09715985 -0.4443621 0.037672307 0.057578195 -0.068829454 -0.03913688 0.17466989 0.11592529 -0.35224608 -0.20690565 0.08046053 0.004371769 0.25304982 0.00528024 0.1374105 0.002064968 -0.15359898 -0.16022502 -0.28444073 0.061864536 0.024773732 0.09057 0.022103654 -0.027673233 -0.20346689 0.14731735 0.21496776 0.11252237 0.10053231 -0.35267925 0.26299214 -0.0047436072 -0.003990708 0.11276786 0.29768366 0.09633835 -0.07177177 -0.107595116 0.08704126 0.054187275
3 -7.207986e-05 -0.1033478 -0.0030095768 0.058953416 0.084676936 -0.12672946 0.22261307 0.29703113 -0.34363735 -0.05893439 -0.06580902 -0.39860442 0.015165501 0.053520948 -0.040854786 -0.036040008 0.16244824 0.07307865 -0.28083938 -0.17089602 0.07098898 0.022380201 0.23273095 0.004074433 0.114138916 0.007974532 -0.15538391 -0.16076712 -0.24054018 0.030042533 0.01078791 0.08098279 0.0133607965 0.0039744303 -0.16712365 0.14419712 0.16797651 0.117593504 0.058504783 -0.30848515 0.21516526 0.013636349 0.023870518 0.09352488 0.25736418 0.07428856 -0.04086007 -0.084250204 0.07221384 0.033799592
incentivecompat -0.009974531 -0.09689276 0.033510778 0.096612394 0.1154083 -0.14563867 0.23716041 0.3000292 -0.33628443 -0.0721667 -0.073444664 -0.37638643 0.01119414 0.067973986 -0.04642347 -0.018741088 0.13553217 0.084982 -0.296103 -0.1772552 0.0639232 -5.7926354e-05 0.22848623 0.0015703214 0.12606762 0.010610519 -0.1460734 -0.13300425 -0.26192212 0.032733392 0.015750727 0.07962993 0.0074681886 -0.010718409 -0.1586355 0.14183259 0.17139404 0.11441062 0.06675363 -0.30289954 0.22873661 0.007861347 0.00074236316 0.078383766 0.26547983 0.07475376 -0.074039005 -0.06283516 0.076018535 0.029000575
k -0.009023605 -0.1344587 0.0030642506 0.065547004 0.10306113 -0.16053542 0.25034466 0.3369705 -0.34059 -0.0649881 -0.110068046 -0.40806532 0.0099025 0.05732757 -0.047898963 -0.03485677 0.14483245 0.08635346 -0.30857575 -0.19315095 0.077924885 0.019048419 0.25195536 -0.008274192 0.16801292 0.0104347505 -0.14494361 -0.14831834 -0.29814348 0.055305924 0.04949849 0.0936222 -0.007991345 -0.019476388 -0.19681291 0.13881133 0.18920922 0.13657866 0.08800667 -0.32788217 0.2480815 0.031306893 -0.00037899808 0.073887184 0.2930296 0.06552931 -0.067890234 -0.08181548 0.09955192 0.037706967
base 0.012631982 -0.11613336 0.019907236 0.074205466 0.10930158 -0.10719543 0.22543457 0.31289628 -0.33002484 -0.06314687 -0.0917813 -0.37074018 0.016359136 0.038790274 -0.04612947 -0.0118417805 0.12439519 0.09212044 -0.2724149 -0.17781532 0.053051308 0.028759604 0.22865744 -0.00028840595 0.12711692 -0.022659887 -0.14571044 -0.14524521 -0.23574373 0.04488948 0.0028959627 0.10056899 -0.010431042 0.010856452 -0.15389864 0.11453728 0.17572327 0.118117556 0.06233202 -0.3106645 0.24095501 0.015831338 0.034095123 0.06264212 0.25686315 0.083611205 -0.05768301 -0.07294633 0.06220474 0.021160178
implement -0.01226196 -0.09089931 0.011464034 0.058395125 0.10719731 -0.12694913 0.22174764 0.29610357 -0.3003206 -0.06254912 -0.07622706 -0.36436886 0.043623246 0.0639288 -0.04162076 -0.031744104 0.14496763 0.08589853 -0.28550124 -0.19144185 0.050818667 0.015340138 0.18687743 -0.0119003225 0.14087792 -0.010407032 -0.11418277 -0.13936563 -0.24994622 0.03330064 0.023366485 0.09293486 -0.005350718 -0.016592206 -0.17498137 0.13927494 0.15780981 0.110864155 0.06413341 -0.30431795 0.2149597 0.012520724 0.017887294 0.06277979 0.2346142 0.05545949 -0.04683042 -0.078279294 0.07455406 0.041872308
share 0.012094635 -0.12450204 0.010831291 0.09303841 0.09699003 -0.16499242 0.28877735 0.3553459 -0.39572707 -0.061047435 -0.079278626 -0.43423283 0.03413102 0.051615696 -0.0657001 -0.039032035 0.14875272 0.07930084 -0.34395996 -0.20162022 0.0875766 0.01239312 0.24966012 0.016289461 0.1518117 -0.01474141 -0.15417354 -0.16598701 -0.2970275 0.04478847 0.051542502 0.1178838 -0.0117026 -0.019448409 -0.19414757 0.15563549 0.18314065 0.14227602 0.07148144 -0.33586472 0.28560606 0.015632143 0.017137114 0.09449014 0.2849142 0.08144068 -0.06559485 -0.107714936 0.11103797 0.022353731
case 0.013552664 -0.13431431 -0.0018927793 0.06377552 0.116978094 -0.15176393 0.26746422 0.34079516 -0.33366695 -0.047632877 -0.06914309 -0.3956328 0.012305489 0.034088146 -0.06634647 -0.021259086 0.1698507 0.10366535 -0.3191802 -0.19818924 0.059126206 9.4197094e-05 0.24676351 -0.02107411 0.14312094 -0.015816355 -0.13334282 -0.16931048 -0.26757628 0.036022224 0.047180682 0.08668244 0.015169158 -0.0023782868 -0.16642828 0.12957528 0.18220198 0.10537253 0.095214106 -0.34112898 0.25928307 0.011175833 0.028659394 0.08079592 0.29057702 0.07821631 -0.07712991 -0.06284779 0.085360005 0.048919916
thu -0.00013992898 -0.11139097 0.01992458 0.1026521 0.08220878 -0.119310714 0.26862878 0.33669436 -0.33618072 -0.054614663 -0.07736052 -0.4069136 0.034320854 0.053927507 -0.0408272 -0.0020935945 0.13584603 0.095102474 -0.32635757 -0.2042151 0.04541472 0.019409861 0.22715017 -0.0030508342 0.14963147 -0.021342224 -0.14421715 -0.16116299 -0.2750459 0.036044747 0.009323979 0.10869749 -0.0064325077 0.0013320548 -0.18823488 0.13660242 0.19073677 0.097009785 0.065391265 -0.33687496 0.22522528 0.004331194 0.00406239 0.092939705 0.28191167 0.060390968 -0.065989934 -0.08330825 0.07360894 0.024036914
natur -0.0026912286 -0.13642962 0.0015746029 0.06602518 0.10873952 -0.150419 0.24144731 0.34786218 -0.330332 -0.071831025 -0.072514035 -0.41620678 0.02714243 0.06858628 -0.057775475 -0.0027508454 0.154883 0.104842715 -0.2936639 -0.21763337 0.05207258 -0.0053345393 0.22553907 -0.015433383 0.13851148 -0.02060001 -0.14535911 -0.15568061 -0.25285396 0.031076722 0.020730551 0.10543649 0.02521522 -0.012824644 -0.17778003 0.12475076 0.18410765 0.098482184 0.06356795 -0.31956795 0.24180724 0.025080375 -0.006377673 0.09280899 0.28382552 0.064544655 -0.059641194 -0.06756104 0.07258731 0.0374393
nbr 0.0071546016 -0.10083894 0.020563398 0.088463925 0.09859675 -0.106248684 0.22682546 0.26482427 -0.2756011 -0.043377243 -0.08338405 -0.3482441 0.03656713 0.05680443 -0.05906691 -0.013904203 0.12692721 0.082350336 -0.24658693 -0.18756527 0.07157861 -0.009378794 0.20285897 0.020299384 0.10705558 -0.02422113 -0.11209464 -0.15013272 -0.23935615 0.040931582 0.009797361 0.095290616 0.024376366 -0.0062916423 -0.13369355 0.13611682 0.16866985 0.103185624 0.07998594 -0.2571402 0.21440494 0.025164582 -0.008972019 0.09771841 0.2521433 0.083105735 -0.06608751 -0.072904795 0.07086963 0.040420294
announc -0.014860159 -0.11793134 0.031198546 0.1005672 0.09571366 -0.13046312 0.25970116 0.32822856 -0.3386046 -0.07750267 -0.08207877 -0.389203 0.036403086 0.034384653 -0.061478566 -0.015006258 0.1584285 0.08617104 -0.29434916 -0.1929402 0.04486385 0.03311017 0.21242958 -0.0066856756 0.15832552 -0.0034647943 -0.1531982 -0.15577242 -0.27386475 0.03344731 0.00977246 0.10347986 -0.010569737 -0.003116423 -0.18927975 0.14677934 0.17558563 0.10074398 0.09610913 -0.34014842 0.2447027 0.0069968617 7.9852536e-05 0.07557277 0.30008292 0.06399043 -0.045790233 -0.09987641 0.092691354 0.0329856
impli -0.01164618 -0.11146445 -0.0021168923 0.066470884 0.08289751 -0.12454123 0.21161248 0.27153212 -0.28835863 -0.055037756 -0.060742844 -0.3417801 0.043050643 0.03705097 -0.061891768 -0.013980235 0.11489066 0.09736814 -0.2525884 -0.17566745 0.06998311 0.02841229 0.21107726 0.0069825216 0.13813522 -0.00035414333 -0.14463934 -0.15293346 -0.23738794 0.042240307 0.03953341 0.061509304 0.001876964 0.013006435 -0.15848105 0.10367201 0.16445416 0.08836889 0.05174338 -0.29192165 0.21104448 0.027268974 0.018557457 0.098290354 0.26161128 0.07500365 -0.06407501 -0.05360725 0.05179036 0.026213001
privat 0.017926859 -0.10199745 0.004197524 0.06299458 0.116099074 -0.14141954 0.23578718 0.3432651 -0.32681775 -0.049543697 -0.08710596 -0.3764913 0.04392708 0.06427177 -0.032369446 -0.032999326 0.1504892 0.088990755 -0.28632444 -0.18020199 0.073770136 0.020116173 0.23574921 0.011371364 0.13391753 -0.02349408 -0.14873618 -0.13497858 -0.27353552 0.049399216 0.03758329 0.08010703 0.023393715 -0.0049842126 -0.17256191 0.15307221 0.18275447 0.111064345 0.0589972 -0.2949858 0.21748611 0.030580817 0.021252131 0.088734426 0.2569168 0.092825755 -0.06084042 -0.061908703 0.07776081 0.023287585
play 0.0012323414 -0.12655407 0.00015173113 0.05299161 0.10043538 -0.115972 0.21664643 0.30561876 -0.30845702 -0.06644886 -0.06799984 -0.36816126 0.026018048 0.065560885 -0.048666473 -0.004916814 0.14415964 0.07561325 -0.28044394 -0.15897276 0.05976884 0.007003001 0.20105188 -0.009508833 0.12621985 -0.011026937 -0.120578095 -0.14912531 -0.2352868 0.05051862 0.00622573 0.07639285 -0.01291363 -0.0043764426 -0.15616496 0.12830421 0.164025 0.09832479 0.07738505 -0.28747222 0.22700825 0.0046126097 0.0017442435 0.068947196 0.22535548 0.051022563 -0.04812 -0.059817694 0.062642485 0.010624734
i1 -0.011983316 -0.09231651 -0.0046396987 0.07879675 0.09847331 -0.10187566 0.19328521 0.28709146 -0.29814917 -0.033029072 -0.08139714 -0.3433964 0.035705812 0.048557203 -0.031175137 -0.024042245 0.14315167 0.061928187 -0.24752021 -0.17015226 0.043354902 0.010781185 0.18987553 -0.0005650609 0.11191295 -0.024375 -0.13938582 -0.14317587 -0.24526934 0.030311909 0.041959625 0.07173882 -0.012652282 -0.024588102 -0.14781502 0.108074404 0.15509525 0.08783637 0.08242025 -0.28858995 0.18861805 0.024317475 -0.0014959952 0.07909619 0.24373376 0.08871447 -0.03860654 -0.06351591 0.07888196 0.035099495
round 0.0033754988 -0.10377069 0.021847716 0.07916313 0.09790743 -0.11017175 0.19874309 0.28142923 -0.29267177 -0.04968225 -0.083965406 -0.31076387 0.005289642 0.048470255 -0.020943925 -0.022274943 0.10023396 0.058815606 -0.23957473 -0.17491743 0.06658214 0.007299086 0.19848038 6.13474e-05 0.09457501 -0.0173585 -0.11580449 -0.13599339 -0.19788009 0.030753478 0.007908501 0.075293176 -0.0016509887 -0.024800107 -0.15305424 0.10496699 0.15110695 0.09687218 0.080128886 -0.23900631 0.20550264 0.013860641 -0.0051529203 0.09093236 0.2216749 0.0728707 -0.047087368 -0.04602475 0.0792315 0.012386427
cost -0.0025194322 -0.11989918 0.01842222 0.06357933 0.111689076 -0.1323045 0.25047487 0.32911745 -0.36251086 -0.044573672 -0.10567956 -0.42007062 0.037839342 0.036194522 -0.05775279 -0.0245243 0.15003143 0.07820866 -0.30015644 -0.20082186 0.0694181 0.011066246 0.24287872 -0.019378971 0.1492827 -0.014504819 -0.14356428 -0.17377277 -0.27603588 0.039066337 0.020986965 0.11300216 0.013629635 -0.0033037856 -0.1954375 0.15281463 0.17106073 0.11062488 0.06393258 -0.33473888 0.24986136 0.0061084577 0.012708614 0.100560844 0.26914787 0.07314456 -0.062119506 -0.09990457 0.065460175 0.03793063
costshar 0.011252172 -0.11846726 0.0027457858 0.08753282 0.10052228 -0.15388823 0.25944906 0.33763483 -0.35103223 -0.058796227 -0.07373595 -0.39549908 0.025831126 0.041340847 -0.03604502 -0.0073223147 0.15247662 0.0798704 -0.30155668 -0.20205373 0.040427826 0.02851165 0.2187319 -0.0028325093 0.14925393 -0.023227055 -0.12757584 -0.16677414 -0.2717356 0.060168553 0.018300202 0.08464935 -0.003916192 -0.014232607 -0.18154426 0.12621477 0.19848135 0.12932825 0.07198146 -0.3126916 0.224404 0.03141588 0.00012586289 0.100188956 0.2874827 0.08340955 -0.058474433 -0.06229712 0.09543654 0.02603485
nash 0.0022728636 -0.085747115 0.025519514 0.069292136 0.08797274 -0.12407609 0.18413764 0.26256746 -0.29365146 -0.04841576 -0.077251546 -0.329049 0.0382845 0.06645657 -0.026782298 -0.013315327 0.11960102 0.08293824 -0.25594783 -0.1849154 0.0645967 -0.0063567846 0.19173147 -0.00854105 0.10323413 -0.006341564 -0.13025652 -0.11055608 -0.23472275 0.02037082 0.035985913 0.08433399 0.016835285 0.00015885147 -0.15745607 0.10411723 0.15535091 0.10859031 0.050791312 -0.27089927 0.20177783 0.023780925 -0.005529783 0.064890854 0.22530927 0.065625474 -0.0371005 -0.052401856 0.04902859 0.046479877
given -0.0029545245 -0.108127005 -0.0055904808 0.060205773 0.10576142 -0.11353851 0.19972128 0.29622528 -0.31428805 -0.07083663 -0.064648025 -0.34258822 0.028421195 0.061899237 -0.029716512 -0.02696107 0.13956359 0.084403016 -0.2595248 -0.15962109 0.03881519 0.007443785 0.1968751 0.013149896 0.11712205 0.01347454 -0.13670306 -0.15334411 -0.24535158 0.035321463 0.04195532 0.07269393 -0.0050186017 0.008995481 -0.17130813 0.12821837 0.17225619 0.08183664 0.06848931 -0.28186345 0.22382647 0.0014789037 -0.005546872 0.099331155 0.23555842 0.08131821 -0.06683544 -0.053317532 0.067443654 0.014239916
observ -0.0023769245 -0.10340729 0.01055936 0.065110914 0.06749174 -0.11795753 0.19793865 0.28673413 -0.2683331 -0.051231176 -0.07888606 -0.31560564 0.005013459 0.045636293 -0.031715456 -0.020781418 0.1160565 0.05956003 -0.26737714 -0.15138303 0.058862183 0.0093268445 0.20529309 -0.017426468 0.112402946 -0.004375155 -0.13595219 -0.1444436 -0.20281142 0.0322245 0.0047519114 0.09216046 -0.0047455137 -0.014548427 -0.141373 0.106520206 0.13673359 0.08502309 0.044171184 -0.26041433 0.18798128 0.010413502 0.014952618 0.069895595 0.24798946 0.07575392 -0.049097154 -0.065090455 0.06962082 0.04417985
finit 0.019868972 -0.10913879 0.011885359 0.06534376 0.08946935 -0.13081804 0.21511619 0.27331927 -0.29800123 -0.047828075 -0.06665811 -0.35542768 0.035337947 0.030027555 -0.022915762 -0.015597485 0.13715985 0.092308864 -0.26645386 -0.17270641 0.057796292 -0.010404244 0.18988816 -0.003904291 0.09802421 0.0016704518 -0.11806402 -0.14194472 -0.21536157 0.041138377 0.02078237 0.092968516 -0.0072699264 -0.020935535 -0.14083306 0.10697655 0.18303421 0.11050187 0.054950126 -0.2620015 0.22734836 -0.0029993574 -0.0075217905 0.05893751 0.25131893 0.07890302 -0.05558417 -0.06461836 0.057806056 0.02154281
studi 0.011317168 -0.11298101 -0.0068589943 0.06384514 0.059655275 -0.116480716 0.1987854 0.27095243 -0.2779726 -0.027799634 -0.044645384 -0.29549778 0.014077798 0.0579983 -0.055567224 -0.023719642 0.12007755 0.0567637 -0.25314474 -0.14639747 0.06593471 -0.002163416 0.16381258 0.0071157836 0.10550613 -0.019761078 -0.09840038 -0.12613656 -0.19424303 0.044416096 0.03779333 0.0889534 0.020447189 -0.023797618 -0.13476872 0.10353003 0.14126006 0.10162344 0.070518285 -0.2631177 0.20474365 0.0076248064 0.010268831 0.08125871 0.19987702 0.056353502 -0.04127987 -0.044470675 0.07054323 0.023255125
function -0.013984766 -0.104032055 0.030865777 0.042450517 0.10468993 -0.10873371 0.19652498 0.2914175 -0.2571188 -0.028880568 -0.05156125 -0.34227043 0.038562275 0.022736363 -0.058567986 -0.03579921 0.12809567 0.09241603 -0.26045227 -0.17190951 0.04773529 -0.0013044105 0.18136635 0.0102739455 0.11802664 -0.010956611 -0.12536629 -0.13246427 -0.22112118 0.047485843 0.03964202 0.093811914 -0.011839105 -0.01927071 -0.16335398 0.10159542 0.15332203 0.07756814 0.07055084 -0.24022533 0.20205332 0.012116271 0.03129239 0.087676495 0.22595686 0.04798734 -0.052424673 -0.046241805 0.08580512 0.018793017
5 0.024866689 -0.11436456 0.028588125 0.07082884 0.11003604 -0.1341456 0.22249529 0.3405025 -0.35541943 -0.0707473 -0.079935074 -0.37568408 0.02291077 0.07002739 -0.039127577 -0.009427243 0.13871789 0.10408482 -0.31840694 -0.20527366 0.07192452 -0.0048192423 0.23793513 -0.011413641 0.13673933 -0.018582406 -0.15577085 -0.15756717 -0.24344516 0.0582601 0.006008239 0.07873925 0.012357994 -0.026619574 -0.16448747 0.14612938 0.16262057 0.12759164 0.09242887 -0.31802672 0.24234842 0.0021782243 0.025411934 0.10533346 0.2876508 0.05651143 -0.045787074 -0.08529679 0.07965563 0.051151384
q 0.005843893 -0.11147568 -0.0014751176 0.09045759 0.09092854 -0.13615231 0.25609273 0.33959192 -0.3189705 -0.068181515 -0.080108464 -0.37898827 0.022250457 0.074056946 -0.0728099 0.0019667312 0.16792412 0.1067445 -0.29464933 -0.19019553 0.058751963 0.0006413931 0.22263685 0.0024035263 0.1306006 -0.022038192 -0.15976073 -0.13509615 -0.24928226 0.058586348 0.018145895 0.091723315 -0.01756103 -0.0005725974 -0.18301484 0.14927708 0.16909651 0.10464933 0.087571844 -0.3175326 0.22538956 -0.00617849 0.025018435 0.06637209 0.3017972 0.09340625 -0.06314821 -0.0969504 0.07138572 0.031898443
break 0.01655983 -0.09045788 -0.0074963407 0.07739852 0.053131122 -0.08578018 0.19144769 0.23874277 -0.2614719 -0.030316297 -0.074306816 -0.29216677 0.037643313 0.017851857 -0.05316375 -0.023125665 0.11590555 0.07197651 -0.23026443 -0.1528005 0.06326312 0.02925351 0.18440937 0.0023707214 0.10595025 -0.0016940294 -0.103278644 -0.09731078 -0.18443786 0.03765039 0.012728944 0.050781447 0.024329081 -0.018495925 -0.12026074 0.0936758 0.12297928 0.07024114 0.063768394 -0.24088772 0.15620835 0.0059992424 0.018817669 0.07656513 0.19633606 0.07041916 -0.05818365 -0.06274791 0.042404443 0.015066646
reach 0.014592212 -0.10976619 -0.0044360952 0.043207686 0.09574329 -0.106853515 0.18837556 0.24102776 -0.26551986 -0.04521526 -0.06830184 -0.31795353 0.008732306 0.045770038 -0.058102287 -0.013606662 0.10974321 0.086986125 -0.23401819 -0.14167918 0.033463243 -0.0059571834 0.18356505 -0.0013791977 0.09278598 -0.008524048 -0.09145004 -0.13606343 -0.20838694 0.03997237 0.020040233 0.0888304 0.0010692867 -0.020332597 -0.15298925 0.08528081 0.122829124 0.07155334 0.049960554 -0.24591477 0.18178152 -0.00058947346 0.012631979 0.0774525 0.2306915 0.047852952 -0.033555247 -0.042709872 0.057030097 0.013305464
tie -0.0071139564 -0.10641417 0.024586491 0.08126431 0.089785874 -0.11945936 0.1927672 0.25676355 -0.24220468 -0.061982132 -0.063278705 -0.3077987 0.00035921094 0.044380758 -0.017069167 -0.0025017944 0.09805654 0.07387427 -0.23517203 -0.13116638 0.029091194 0.030284923 0.15459599 -0.0149729755 0.10326575 -0.006313692 -0.12650013 -0.11409203 -0.19556263 0.022967814 0.031020423 0.075090386 0.024485867 0.009423276 -0.14714299 0.108729556 0.14773637 0.09552112 0.069805145 -0.24884889 0.18666841 0.014291012 0.009369152 0.05436426 0.20813051 0.067382686 -0.06393778 -0.036484346 0.06708864 0.028138665
last -0.0048632994 -0.10303749 0.02688336 0.08000622 0.07572388 -0.10080741 0.21420318 0.2727579 -0.28027388 -0.041177206 -0.06723418 -0.32866165 0.0069775283 0.03352706 -0.04816208 -0.025772428 0.1280631 0.08063019 -0.2817337 -0.17102855 0.0604602 0.00925716 0.208633 0.004196333 0.1310811 -0.0059504914 -0.10946672 -0.13944487 -0.22445506 0.03505429 0.034460746 0.08720358 0.009967209 0.008332705 -0.1713378 0.13966346 0.16231951 0.09299565 0.06195911 -0.2964343 0.20545895 0.017639205 0.023347754 0.097201586 0.22690287 0.08246553 -0.06577094 -0.05989713 0.090248354 0.025249328
least -0.013317528 -0.12071632 0.01714691 0.066698745 0.06396967 -0.106865145 0.21485135 0.29158276 -0.27948743 -0.042208727 -0.09318722 -0.32688358 0.03260188 0.028659336 -0.045857497 -0.017281003 0.12326201 0.0744371 -0.2694018 -0.17039762 0.06293986 0.008162146 0.19277194 0.0040836497 0.10617206 -0.02117563 -0.10422182 -0.1521913 -0.2282198 0.038444802 0.00556002 0.081514016 0.022947721 -0.010941231 -0.13263768 0.1160169 0.14462006 0.09105419 0.06674922 -0.25479102 0.2198624 0.02269605 -0.004760862 0.059826583 0.2484159 0.06950225 -0.03727449 -0.06291138 0.09001509 0.009966785
subgam 0.023767376 -0.12867442 0.010627447 0.08693147 0.07547643 -0.11712543 0.2124239 0.29498726 -0.3119943 -0.050548468 -0.08502517 -0.35209635 0.013907787 0.05159968 -0.030924471 -0.013075347 0.12940018 0.09331124 -0.29350474 -0.18539366 0.06446973 0.029568583 0.22658901 -0.01233769 0.14622644 -0.015203701 -0.120013095 -0.15690668 -0.2638198 0.043579955 0.007567354 0.07617056 0.0060036476 -0.009889352 -0.18923837 0.11452989 0.15335578 0.10393948 0.08631151 -0.29796553 0.24513373 0.0021377148 0.029303906 0.09905211 0.27980155 0.07151333 -0.054466747 -0.0682049 0.059073996 0.05111748
tcp -0.0035046884 -0.098755755 0.020821981 0.08296356 0.092764795 -0.14909755 0.23746455 0.3181723 -0.3429071 -0.06388469 -0.085429855 -0.38568646 0.034293473 0.051153786 -0.039221793 -0.031667754 0.13002749 0.09731214 -0.2741559 -0.17555207 0.06881003 -0.0047479793 0.23155858 -0.014882679 0.11389611 0.013193134 -0.14206944 -0.16498761 -0.25575304 0.05794548 0.017599612 0.096853845 0.005479736 0.0013088795 -0.16815951 0.11055636 0.16557398 0.12479973 0.07645886 -0.3120869 0.24155417 0.029309064 0.027085504 0.08695315 0.24441083 0.062277153 -0.04351775 -0.08606605 0.09911623 0.016641827
flow -0.015738672 -0.12726687 0.02842791 0.062331267 0.116124146 -0.15504263 0.2493048 0.3382294 -0.33932456 -0.040889397 -0.077208 -0.3892274 0.039269444 0.06785893 -0.044180226 -0.0013105015 0.14650041 0.073584154 -0.31192365 -0.20184208 0.045955066 0.011944278 0.24488664 -0.013770997 0.14517896 0.006832171 -0.14611976 -0.15177262 -0.25212425 0.034194626 0.036824275 0.10915194 -0.0036977557 -0.024287418 -0.19819096 0.1203463 0.18819039 0.12588924 0.09405191 -0.3154761 0.24615516 0.018483084 -0.011952812 0.071815826 0.29186702 0.054884627 -0.06314483 -0.09164443 0.10175885 0.028327469
section 0.022336746 -0.09678492 0.0018059702 0.058069684 0.08110482 -0.11951333 0.21447477 0.28142774 -0.26406032 -0.06218542 -0.07948025 -0.31915 0.021830311 0.03163041 -0.02414875 -0.00309171 0.11331502 0.079470634 -0.2339668 -0.15379027 0.0679078 0.006761681 0.16929838 -0.00293275 0.09171152 0.017950468 -0.13501881 -0.12629542 -0.21568924 0.045238093 0.031741764 0.0559036 -0.0034806815 -0.0031375503 -0.13451752 0.12044964 0.14241476 0.088554814 0.043140512 -0.24558963 0.17559846 0.018368682 0.0035153169 0.055905987 0.23604846 0.05811056 -0.06614694 -0.08104851 0.068504184 0.012270609
graph 0.007864011 -0.11092867 0.023533951 0.07086235 0.11693368 -0.15021631 0.25988382 0.32820457 -0.33957243 -0.050927743 -0.08993835 -0.39997527 0.021190874 0.040578905 -0.05100244 -0.029399754 0.15892708 0.06949734 -0.30834496 -0.21743385 0.042856045 0.012369067 0.20764248 -0.0135681955 0.141535 -0.008929288 -0.13589193 -0.13547076 -0.2823704 0.059838153 0.012335333 0.10303572 0.02257896 0.009552633 -0.19306993 0.14383604 0.16332486 0.10936121 0.067960404 -0.33161727 0.2490963 0.022081595 0.001685612 0.072901376 0.28522506 0.06685243 -0.074666254 -0.08414615 0.07972684 0.054043576
select -0.011709206 -0.084426336 0.027501592 0.059256725 0.08356078 -0.12094492 0.21354938 0.2816399 -0.29298356 -0.06837917 -0.05919179 -0.3549548 0.0058894185 0.047659095 -0.03734545 -0.016494796 0.13096637 0.08421524 -0.2531492 -0.15489908 0.047019936 -0.004430774 0.1764952 0.016340813 0.12107646 -0.014648844 -0.108898 -0.113862276 -0.2096061 0.02849596 0.012052373 0.07522783 -0.0075663803 0.0013049663 -0.14001039 0.10501861 0.16865799 0.07976036 0.08104369 -0.2807844 0.20785621 0.004426493 0.018220985 0.09350314 0.23614435 0.05078851 -0.06560151 -0.058199663 0.08239404 0.04330853
capac -0.0046889456 -0.14292555 0.029434538 0.074883536 0.11384511 -0.12398855 0.24907072 0.35175988 -0.36343223 -0.07459932 -0.10257691 -0.41485235 0.01404203 0.051859945 -0.059180863 -0.006619552 0.15970568 0.107595 -0.30875888 -0.2174661 0.05636982 0.036722366 0.2529291 -0.020963082 0.15485172 0.012023696 -0.13321656 -0.17997605 -0.2823064 0.05491897 0.03399043 0.093807824 -0.0067132586 0.0049745888 -0.17435342 0.14444336 0.17679803 0.109978974 0.07450033 -0.3240965 0.25503343 0.0069642216 -0.007812873 0.09295674 0.3077143 0.0906605 -0.053498548 -0.088235214 0.108942956 0.038913514
protocol 0.0066256174 -0.10030825 0.0035237896 0.08747147 0.11405765 -0.11883118 0.24002972 0.32187796 -0.32672006 -0.0719833 -0.077702105 -0.3736964 0.013012983 0.052223224 -0.03850199 -0.033366807 0.14976573 0.10381428 -0.3047665 -0.1778286 0.041866157 -0.0055577965 0.22829367 -0.015989712 0.12748273 -0.019379335 -0.15286325 -0.16044158 -0.24870643 0.05080701 0.009827025 0.06943566 -0.0030458951 -0.011659007 -0.18165945 0.12076955 0.17843689 0.11213254 0.08819518 -0.2915373 0.22562045 0.019321883 0.031415373 0.08794871 0.26785585 0.07173205 -0.07358482 -0.061128277 0.09017602 0.033393007
β 0.021131363 -0.1324958 0.021857193 0.06617035 0.08454023 -0.13714173 0.26190707 0.35737818 -0.3731902 -0.05402869 -0.08707245 -0.3972122 0.0278588 0.070265554 -0.040369518 -0.037992734 0.13556893 0.10721567 -0.315811 -0.22702467 0.054276045 0.015733717 0.25384218 -0.006003714 0.13885082 -0.015185219 -0.16546963 -0.1587464 -0.27448842 0.03440528 0.029842395 0.07693802 -0.00021675404 -0.002068521 -0.18394497 0.15954727 0.20068923 0.11663802 0.09419573 -0.31502864 0.27158585 0.031300854 0.018191338 0.10426738 0.3095206 0.07242271 -0.07340733 -0.06578564 0.09620812 0.024777675
view -0.0014995795 -0.08707223 0.030451044 0.058784492 0.07481005 -0.07271912 0.17589302 0.2051621 -0.23329523 -0.045275502 -0.06193576 -0.27521023 0.01602074 0.01639579 -0.014502122 -0.020322427 0.08561096 0.043501455 -0.20316043 -0.14958966 0.041985292 0.016571598 0.13917693 0.0161137 0.08431689 -0.017841568 -0.099468246 -0.1070035 -0.1857688 0.011095569 0.009920313 0.05728237 0.012750431 -0.020578193 -0.12636738 0.09021685 0.113967285 0.080531195 0.048692252 -0.19740136 0.17290793 -0.00838561 0.015235507 0.07108943 0.1785264 0.06297105 -0.050053127 -0.059949838 0.038855914 0.043037664
agent -0.016160194 -0.100238994 0.011630519 0.052611973 0.10072041 -0.119756944 0.17789377 0.28174117 -0.28368777 -0.025885856 -0.075440094 -0.3010171 0.019485958 0.031151926 -0.059146546 -0.028210243 0.13495117 0.083239086 -0.23777087 -0.14621963 0.060792934 0.021669054 0.18413424 -0.017888566 0.12689295 -0.017536527 -0.122081004 -0.11958475 -0.19836803 0.022944722 0.022746032 0.087204725 -0.011129597 0.009227291 -0.15414287 0.12888919 0.12978365 0.104979865 0.08482987 -0.26992726 0.19234405 -0.008971631 0.030252848 0.09411876 0.20893906 0.058714204 -0.050298642 -0.076646626 0.06780628 0.0066450397
get 0.008930267 -0.11568311 0.024912339 0.0834948 0.07947203 -0.121021606 0.18617135 0.28890806 -0.27981123 -0.030919574 -0.0655536 -0.3365363 0.03017468 0.05987842 -0.026232598 -0.001759534 0.10958934 0.06232934 -0.24056083 -0.18437864 0.0595762 0.027011974 0.18297616 0.015147665 0.09832066 0.00848802 -0.10903046 -0.12295746 -0.24107784 0.060807865 0.03817031 0.074534684 0.015459754 0.004121681 -0.15413906 0.12702234 0.14415255 0.09058234 0.063356414 -0.27525833 0.20143238 -0.0051277103 0.018097887 0.09552297 0.24485205 0.076786615 -0.05789932 -0.053763255 0.058719214 0.018563379
see 0.02167937 -0.088028125 0.0060298294 0.05552953 0.10165631 -0.11018199 0.2230044 0.26745597 -0.29137576 -0.050946597 -0.07264209 -0.33323535 0.01188688 0.05459915 -0.04876966 -0.00027180868 0.12771809 0.099194 -0.2608869 -0.15702198 0.039243113 -0.0075923875 0.19170024 -0.0076391725 0.13464217 0.008523902 -0.13483165 -0.117359966 -0.22437167 0.021474265 0.034030043 0.074855335 -0.016003879 0.011660891 -0.13641524 0.13612732 0.15431501 0.11177441 0.07623671 -0.28342372 0.22396758 0.0028256748 -0.008733533 0.093100384 0.22796758 0.080344975 -0.06569377 -0.048799727 0.06184831 0.038931653
correl 0.020902857 -0.09550802 0.009873203 0.060636554 0.06567074 -0.10486858 0.22526757 0.27113947 -0.276794 -0.03434137 -0.09211089 -0.33463827 0.006678863 0.036423013 -0.041595012 -0.032996632 0.119358666 0.062933475 -0.2724293 -0.18163806 0.07197667 0.028778767 0.1911617 -0.007952851 0.12892006 -0.003121601 -0.13756673 -0.14591551 -0.22190185 0.057235718 0.030946078 0.09767177 0.019852675 -0.0047509195 -0.1361186 0.13585724 0.1707686 0.1161025 0.045575064 -0.2651048 0.18669328 -0.0021561605 -0.0075021787 0.08385075 0.23552173 0.04995815 -0.036785215 -0.047487356 0.080403484 0.04824051
transmiss -0.0091156 -0.11973471 0.022973223 0.066517085 0.07417479 -0.11242532 0.20995985 0.28525248 -0.29582736 -0.039542317 -0.06183036 -0.3513576 0.040682647 0.05453409 -0.031842723 -0.018578121 0.14007832 0.09526733 -0.2917209 -0.16473341 0.05988126 0.021992177 0.20030431 -0.0052275797 0.10833363 -0.0067723086 -0.13492705 -0.1454287 -0.23242126 0.06127263 0.036116865 0.0665604 -0.009207787 -0.014379036 -0.15228532 0.101904854 0.17278858 0.10932633 0.06681732 -0.2609342 0.23057896 0.014763108 0.020825546 0.059403796 0.23160435 0.058303162 -0.030354688 -0.06208538 0.09060002 0.016528444
call 0.01008301 -0.09311124 0.010143615 0.057913475 0.089130074 -0.12616126 0.20390119 0.2729395 -0.27301973 -0.055273797 -0.08258325 -0.32711536 0.009818218 0.050439667 -0.04907779 -0.018205883 0.10344121 0.06547334 -0.23990825 -0.17417379 0.056064215 0.029105885 0.18688412 0.0043186 0.09780489 -0.0070675695 -0.10959063 -0.11759839 -0.1910252 0.037324324 0.03558309 0.08528136 0.01121907 0.006637763 -0.15254232 0.09994006 0.15978521 0.105436735 0.07003828 -0.26059017 0.2051634 0.014346003 0.009100481 0.08924949 0.23004071 0.06723731 -0.045541894 -0.07927536 0.06165528 0.032922827
stableroomm -0.00985591 -0.08703095 0.029170863 0.05276652 0.07314696 -0.12405778 0.20861898 0.27404875 -0.29041153 -0.05513083 -0.06348842 -0.31352845 0.013134865 0.02920222 -0.031982765 -0.029736465 0.14044374 0.08393219 -0.27242658 -0.18335937 0.033872902 0.014004667 0.19599178 0.0038943754 0.1137 -0.0017264816 -0.11574267 -0.13326527 -0.23654534 0.04104708 0.030051919 0.07205072 0.002613251 -0.013521598 -0.13439845 0.10893882 0.17308271 0.08771682 0.044056375 -0.27833977 0.19392884 0.015008647 0.019531444 0.079820216 0.25023276 0.06553723 -0.0372146 -0.06444403 0.0687952 0.041952163
better 0.005695165 -0.072632775 -0.0051923487 0.041928302 0.07569597 -0.10403815 0.18000972 0.24906997 -0.26890987 -0.060917735 -0.046339698 -0.30692777 0.01576833 0.038156025 -0.03936454 -0.03353687 0.11265927 0.06754756 -0.2129284 -0.1690698 0.035915602 0.0050154584 0.1748089 -0.012300935 0.09192372 -0.02010461 -0.09605877 -0.13446417 -0.2062184 0.03731762 0.022856051 0.04809902 0.02487117 -0.009984825 -0.13583785 0.08601362 0.12120939 0.091981515 0.068377405 -0.23609866 0.1940834 -0.003801384 0.0074069323 0.06243198 0.20911288 0.064754635 -0.039762422 -0.07226851 0.07115888 0.040518586
start -0.008781553 -0.08441405 0.0027602247 0.07905207 0.0827984 -0.09701368 0.18311834 0.23279503 -0.23723476 -0.04700185 -0.0493055 -0.29129237 0.002373457 0.03872458 -0.03256863 -0.020429073 0.13472529 0.05912675 -0.24389035 -0.14453596 0.038868252 -0.0065862946 0.17370312 0.010471881 0.0888585 -0.012607848 -0.12395065 -0.11186082 -0.2091621 0.05484163 0.019856662 0.07297894 0.0023912808 0.0076468014 -0.13431905 0.08547059 0.123514645 0.0841997 0.07664671 -0.23356329 0.16990352 -0.005470954 -0.011232757 0.0753754 0.19068299 0.06434664 -0.039178688 -0.059598565 0.043158364 0.03934911
specif 0.0011274491 -0.11424939 -0.0018903665 0.08070413 0.08041067 -0.12098524 0.19023652 0.2666715 -0.2834438 -0.059167974 -0.067338884 -0.32516557 0.022510119 0.04305466 -0.022345122 -0.012955038 0.11828814 0.08291254 -0.24435104 -0.13919117 0.04972725 0.008981625 0.1559354 -0.0009107792 0.12001449 0.0028226885 -0.12756619 -0.12504701 -0.21549688 0.050287105 0.0068784654 0.08240725 -0.006439796 -0.018786365 -0.15260428 0.11247217 0.122409746 0.07372978 0.044945497 -0.2523041 0.1763559 0.014219065 0.022075796 0.06879431 0.2043079 0.05995865 -0.03203336 -0.070370056 0.05416312 0.03632684
space 0.014749078 -0.08493824 0.02427199 0.026061613 0.04393986 -0.09117784 0.14543495 0.19185062 -0.18945049 -0.019874582 -0.03868258 -0.2353359 0.0046137855 0.012661932 -0.031163614 0.009557439 0.07288014 0.060887907 -0.16534667 -0.12685204 0.02161881 -0.0042148638 0.11957289 -0.012801976 0.08933242 -0.018143566 -0.0888056 -0.08126809 -0.15131149 0.013250105 0.0065132207 0.06129792 0.007394581 -0.008908529 -0.10372683 0.0853334 0.10805463 0.058033384 0.057134397 -0.19841878 0.15324861 -0.013165905 0.0034306322 0.06559566 0.15430416 0.056827575 -0.02457003 -0.05923107 0.049058136 0.010966734
question -0.016200855 -0.09344481 0.025125464 0.08171835 0.067021094 -0.11013809 0.17614403 0.25892034 -0.2601377 -0.06649009 -0.060241472 -0.32459465 0.021882439 0.050469097 -0.050669998 -0.015345305 0.11327024 0.05401057 -0.23889486 -0.14347886 0.031246644 -0.00202578 0.17410004 0.014682429 0.1092228 0.02029736 -0.12687519 -0.101950854 -0.21375391 0.025251558 0.0035369026 0.0757787 -0.0026229336 0.009217482 -0.13856104 0.112677544 0.15335284 0.068522535 0.056602877 -0.25588098 0.16820784 0.016224109 0.014185281 0.06572286 0.21154349 0.043473378 -0.051744055 -0.057328727 0.081944264 0.041556876
simpl -0.006079791 -0.077332705 0.0061294935 0.046151634 0.06202696 -0.107969806 0.17879844 0.21725337 -0.25244787 -0.04992347 -0.04621854 -0.2740788 0.031170778 0.056185182 -0.049300723 -0.021991154 0.12231917 0.07688161 -0.20399731 -0.121983044 0.06439104 0.0031394628 0.16239241 0.009201807 0.11491624 0.01659273 -0.11875596 -0.11809355 -0.17644122 0.03587401 0.017733397 0.0807075 0.015475053 -0.022222055 -0.13136446 0.07895324 0.14287932 0.08499867 0.048796393 -0.22205508 0.18312433 0.024037441 0.02265105 0.068237364 0.20129345 0.06990511 -0.03764604 -0.055429332 0.040399883 0.029994544
differ -0.015987666 -0.08420324 -0.0012823001 0.061656307 0.082816735 -0.113715276 0.17893013 0.27582952 -0.2898602 -0.06476307 -0.061135605 -0.32055524 0.035721954 0.028636094 -0.042013694 -0.017430792 0.13478553 0.05645028 -0.23229006 -0.18002373 0.03476827 0.01089856 0.1769421 -0.008602667 0.09981498 0.006770756 -0.13551345 -0.12193817 -0.20521781 0.03731126 0.019663502 0.09005825 -0.013790358 -0.023622902 -0.13417348 0.12923415 0.1308552 0.073061235 0.06277924 -0.27618825 0.19819249 0.028119076 -0.0031441483 0.059260063 0.24317247 0.059605278 -0.053263325 -0.06841169 0.050014734 0.019132294
achiev -0.007025883 -0.09510888 0.015310986 0.07864394 0.094042316 -0.10756985 0.1718785 0.26606458 -0.27760395 -0.027248053 -0.05869312 -0.31302604 0.035412148 0.03629064 -0.047311164 -0.015978388 0.13759917 0.087036364 -0.23773308 -0.14951381 0.04429741 0.02766547 0.1636044 -0.008069988 0.096718416 0.015628556 -0.12071468 -0.12541187 -0.19244592 0.019132106 0.014517975 0.079883054 -0.007078204 0.009869939 -0.1388338 0.09668497 0.15259333 0.10574352 0.06442556 -0.23603277 0.1740488 0.003413114 0.03189949 0.081661 0.22190183 0.051433932 -0.037048135 -0.05630514 0.08504079 0.027718246
prove 0.019482959 -0.10498205 -0.0010200399 0.05904757 0.08287757 -0.10633674 0.20512807 0.23862258 -0.28219795 -0.03153365 -0.050738294 -0.31317097 0.014778919 0.031385608 -0.03823351 0.0033888735 0.11717484 0.06953476 -0.24121583 -0.15635519 0.028554041 0.022759698 0.15647365 -0.0074597327 0.09104006 0.015292405 -0.10038586 -0.11922294 -0.19554408 0.03305217 0.038383983 0.061783142 0.01422742 -0.013993359 -0.11709719 0.12480226 0.15169384 0.08483908 0.05293474 -0.26216182 0.20428142 -0.0052780444 -0.0030949323 0.08064514 0.2116446 0.074170895 -0.061704215 -0.039868496 0.06731477 0.0103847375
congest 0.010836435 -0.12487913 0.03087075 0.09183665 0.07932164 -0.11624789 0.24787036 0.3328998 -0.34109026 -0.0698341 -0.100013584 -0.37014258 0.016682198 0.05983213 -0.03903725 -0.002905287 0.14852253 0.08588486 -0.2907661 -0.18330984 0.041350022 -0.0009121591 0.21594064 0.009198886 0.12966344 -0.02301263 -0.14097795 -0.13325267 -0.24193855 0.054777008 0.016187768 0.08059411 0.0021979106 -0.02188673 -0.18977742 0.12863787 0.17835505 0.118862405 0.08391706 -0.28504652 0.2186592 0.0329988 0.0050192014 0.087819315 0.2590572 0.061189137 -0.055441037 -0.08884194 0.102816015 0.043952364
via -0.0062789195 -0.09709586 0.03325692 0.05987729 0.097146 -0.11457729 0.22037648 0.28413716 -0.31721884 -0.04110318 -0.07533272 -0.36453307 0.025575077 0.03366843 -0.02401755 -0.030171776 0.1279027 0.08050456 -0.27550003 -0.17983297 0.06830789 0.014111607 0.17716748 -0.001150153 0.09949687 -0.009189988 -0.116566874 -0.12743378 -0.24261859 0.04447569 0.034410026 0.06430358 -0.002433495 -0.013161238 -0.17507334 0.12584624 0.17218144 0.10311444 0.07625157 -0.27946264 0.20795786 -0.0015974889 0.009372062 0.09231245 0.24990074 0.06507103 -0.03269752 -0.059630312 0.05667034 0.046699926
abl 0.020130131 -0.12325244 0.030085262 0.053706765 0.08865134 -0.10631764 0.20318837 0.2740272 -0.3116023 -0.071268074 -0.08609175 -0.3262458 0.031078247 0.028504563 -0.027460035 -0.002864801 0.14705756 0.10387334 -0.28437614 -0.17984483 0.058473527 0.015811993 0.20752175 -0.018058201 0.12882799 0.017799692 -0.14370573 -0.11966425 -0.22302945 0.03547256 0.018370694 0.062209003 -0.009292679 0.006263041 -0.16336873 0.13976659 0.1414216 0.08449611 0.082325436 -0.26271182 0.21744907 0.025500786 0.024985766 0.068313636 0.26197422 0.052579235 -0.055910487 -0.07989203 0.08712748 0.02326787
therefor 0.008455147 -0.102809474 0.0107503515 0.054603282 0.07410489 -0.12129713 0.20624886 0.28368634 -0.2921763 -0.044416357 -0.08432523 -0.31301123 0.02247344 0.03161282 -0.04708451 -0.00096592045 0.12521236 0.066176996 -0.27097982 -0.18047373 0.046004396 0.027052673 0.17655568 0.0014316099 0.11436856 0.0049925577 -0.13674039 -0.11397211 -0.22887331 0.05134505 0.0041627516 0.08721493 -0.011091318 -0.014330538 -0.15371473 0.108483985 0.1506036 0.09454319 0.07585812 -0.27104682 0.1949837 -0.0017009225 0.026464384 0.08535097 0.2544593 0.07459571 -0.057540093 -0.048749864 0.05826444 0.036774397
along -0.005288349 -0.10176227 0.021043025 0.06448805 0.07708601 -0.12069381 0.21283014 0.2981295 -0.30478176 -0.041600045 -0.08154452 -0.356146 0.01486393 0.05052335 -0.02635058 -0.0022032529 0.14897428 0.09240512 -0.2670132 -0.1771344 0.07262275 0.024054809 0.20696609 0.011642842 0.1212174 0.0016215428 -0.1413219 -0.11747646 -0.20783179 0.027627764 0.02586096 0.098044746 0.011592828 0.0058468273 -0.13819075 0.114416316 0.1755394 0.1086635 0.064279824 -0.2736323 0.22852007 0.022215351 -0.004429791 0.07089154 0.23484191 0.07081799 -0.04914333 -0.08609293 0.0798172 0.05012434
global 0.004834222 -0.06729917 0.015236521 0.06711674 0.080423556 -0.07674254 0.14826606 0.21274623 -0.22851773 -0.020643752 -0.0587234 -0.22670901 -0.0026388413 0.0267866 -0.013985827 -0.019648293 0.09051943 0.06990742 -0.16897514 -0.12537874 0.024739617 0.026849013 0.12078319 0.00214887 0.09568679 -0.017208751 -0.10212324 -0.1146974 -0.16391894 0.03968203 -0.0014100735 0.05246646 0.019879188 -0.01422944 -0.10405827 0.09292936 0.108268365 0.058147486 0.06686749 -0.20309857 0.16757813 0.003319399 0.01410511 0.0686362 0.17376602 0.056230363 -0.048382208 -0.030294593 0.049113944 0.013321001
deviat 0.0102834655 -0.05522382 -0.00014410343 0.052777424 0.07382958 -0.08958548 0.15613668 0.22721457 -0.19871841 -0.049824145 -0.059186332 -0.23217365 0.01711848 0.015347433 -0.032729447 -0.025496975 0.09841155 0.062965386 -0.20162614 -0.13698597 0.05928233 0.017822662 0.1466726 0.0023372532 0.103819355 -0.012203512 -0.078564405 -0.100324154 -0.18123318 0.01045649 0.012770348 0.07435743 0.009254938 -0.025162837 -0.111195646 0.08030379 0.10750969 0.08799348 0.06196048 -0.20240945 0.15823641 0.010534583 -0.011020812 0.06324905 0.1909671 0.056934092 -0.032471873 -0.0563562 0.0580294 0.0083797155
even 0.008615676 -0.07583822 0.01007851 0.052386865 0.072055414 -0.08375022 0.16745043 0.23925847 -0.21832868 -0.035530414 -0.062883005 -0.27565706 -0.0025396126 0.028018296 -0.024631437 -1.2872675e-05 0.10072633 0.05293729 -0.19501118 -0.14141941 0.04087246 0.02560691 0.16629781 -0.001579044 0.07891611 0.004549342 -0.07644165 -0.08513133 -0.17865343 0.048415158 0.037252747 0.04120221 0.024143131 -0.004731192 -0.13039617 0.09778719 0.13812466 0.06022375 0.06623214 -0.22469965 0.14434636 0.019740999 -0.0009075125 0.06939582 0.19810016 0.06860392 -0.025829831 -0.068640076 0.06310382 0.006119032
number 0.0025016102 -0.07465255 0.002555551 0.071323015 0.06936033 -0.124915734 0.21520837 0.27576256 -0.25803027 -0.04096227 -0.06828952 -0.30973297 0.003937995 0.05612613 -0.050481696 -0.005718255 0.10993135 0.07645582 -0.23523594 -0.16868663 0.03396302 -0.0031304518 0.16201039 0.017677104 0.10021609 -0.004278074 -0.13398075 -0.1349115 -0.22164072 0.046128947 0.032178625 0.08066049 0.026052164 -0.0029364182 -0.12196122 0.12500177 0.15201584 0.09645384 0.049838558 -0.25923923 0.20867622 -0.007831704 0.012706426 0.057378005 0.24544433 0.0592774 -0.04499332 -0.074354775 0.08278596 0.014197493
optim -0.014231395 -0.056048043 0.0044807144 0.04722633 0.070709184 -0.07113448 0.16043732 0.21382236 -0.19520696 -0.05504536 -0.039505925 -0.21943377 0.009075233 0.03382415 -0.03559418 -0.018405408 0.10937702 0.05502618 -0.17475271 -0.13185239 0.049332373 -0.0007561531 0.12577507 0.005761144 0.09993171 -0.014224125 -0.078960374 -0.093968056 -0.172526 0.020631533 -0.0020895563 0.066823326 -0.0005052705 -0.017809356 -0.10435291 0.09045229 0.13171704 0.045835268 0.046210393 -0.19101244 0.13906856 0.006459144 0.022847243 0.052234743 0.18613908 0.04554347 -0.03670938 -0.03184263 0.065335974 0.023076521
interest -0.0007472427 -0.07798469 0.0059021222 0.07024546 0.07566486 -0.11358054 0.2013463 0.2433744 -0.25418842 -0.058204055 -0.057389133 -0.28910655 0.03330186 0.023070117 -0.05041665 -0.00055739196 0.12040344 0.071699664 -0.2424551 -0.15304404 0.028276749 0.010519546 0.1624857 -0.00014872734 0.112474225 0.0020816103 -0.124795355 -0.11543089 -0.21320567 0.028862102 0.024182687 0.087146126 -0.008985107 -0.00065544405 -0.11970163 0.12373915 0.14965901 0.07088017 0.0664435 -0.22400188 0.19128208 0.014179275 0.005103572 0.07445084 0.2181466 0.07338287 -0.05041687 -0.07760012 0.07641095 0.014975738
gain 0.00013556503 -0.07418042 0.008686234 0.044903282 0.070256315 -0.105186924 0.16389252 0.20820762 -0.23263025 -0.029734205 -0.052444275 -0.25203988 0.019086067 0.014663602 -0.0117202625 -0.020210896 0.09403696 0.07830784 -0.19942646 -0.12605713 0.047498442 0.01458805 0.15905252 0.018888721 0.088468134 -0.009142391 -0.083749205 -0.11976497 -0.15416162 0.03730327 0.029937282 0.06581971 0.004078235 -0.0054816483 -0.12764676 0.109737165 0.12921643 0.08343093 0.043165553 -0.22606039 0.1737967 0.015751095 0.001368953 0.043401383 0.17372915 0.051399212 -0.055686694 -0.049657248 0.06233831 0.0032428901
singl -0.0007817407 -0.0908455 0.0034248445 0.048453853 0.04487247 -0.09351707 0.1460211 0.19842151 -0.21778837 -0.03223699 -0.035275273 -0.24047825 0.0059392108 0.01575299 -0.018020239 -0.00076380145 0.11023439 0.05507217 -0.20879969 -0.13862897 0.02453817 0.02069922 0.13852279 0.018637698 0.07547451 0.015658302 -0.1027745 -0.082415655 -0.18096767 0.01605905 0.03231791 0.038535822 -0.012864428 0.0035026472 -0.13410076 0.097940415 0.12724927 0.055694018 0.05892119 -0.20328529 0.17216904 0.014784938 -0.0036870313 0.05257781 0.19433735 0.035251874 -0.017534582 -0.05455997 0.044385973 0.014261267
rate 0.009810581 -0.11399342 0.019988334 0.055625487 0.098642685 -0.11734855 0.17776632 0.27007568 -0.24975209 -0.042262297 -0.0729514 -0.30733696 0.0041399393 0.03436862 -0.049290735 -0.010360476 0.10799444 0.058375344 -0.2551097 -0.1460251 0.05656504 0.02748318 0.18404631 0.012471107 0.11660792 0.007718549 -0.1255596 -0.118799604 -0.20886342 0.051531732 0.006400346 0.07182769 0.012166617 -0.016948123 -0.16148426 0.119286865 0.14284916 0.09152355 0.05199924 -0.23242512 0.19322143 0.0157729 0.010532868 0.07052753 0.23299998 0.038246788 -0.0377636 -0.07305971 0.09021735 0.036141407
pure -0.009833758 -0.068502955 -0.0029708112 0.06435552 0.07584064 -0.06966357 0.15596804 0.17495456 -0.18566382 -0.044177737 -0.065564826 -0.23083784 0.012000011 0.019820215 -0.03561522 -0.009820133 0.08408338 0.03532834 -0.15501295 -0.109549254 0.014717172 0.0037827464 0.108610556 0.014622972 0.07535208 0.0136811035 -0.06913396 -0.09243407 -0.16630244 0.014617887 0.033363014 0.046355 0.0026409954 -0.0022466856 -0.11887937 0.086588755 0.086430185 0.08261905 0.02464814 -0.16209333 0.13027275 0.002654809 0.0011522025 0.052550346 0.15837206 0.044167746 -0.034052774 -0.027032401 0.032415822 0.0048897103
establish -0.01376775 -0.06673601 0.008971181 0.042708155 0.0775902 -0.10318833 0.16965304 0.23937637 -0.2129261 -0.047162913 -0.04990593 -0.25401253 0.03729837 0.029510008 -0.028507417 -0.021528158 0.09425091 0.065003775 -0.19871262 -0.1421648 0.04942997 -0.0024534112 0.14103325 -0.021021238 0.10723771 0.0071476554 -0.100204214 -0.08535408 -0.17071445 0.013288277 0.0019039151 0.052326757 -0.01209692 0.009709946 -0.10942684 0.09406375 0.11925267 0.06116935 0.064652964 -0.2225647 0.15390526 -0.0015574826 0.0044504846 0.041674443 0.19143187 0.03377063 -0.024155682 -0.06765613 0.04421825 0.024812486
termin -0.01336981 -0.07005506 0.0039466927 0.054417208 0.08494406 -0.08465512 0.16881384 0.24119191 -0.23128948 -0.029273443 -0.043589108 -0.28652567 0.021767616 0.015321629 -0.03753224 0.0039716074 0.09675945 0.053234495 -0.20029163 -0.12388102 0.0562217 -0.006361601 0.16709994 0.015917344 0.0807298 -0.00646098 -0.100209326 -0.12660694 -0.18206742 0.051554076 0.008554575 0.049055256 -0.0010189819 -0.02545458 -0.11564639 0.106118076 0.12866506 0.068373784 0.07398198 -0.23693074 0.15552846 -0.012477876 0.030193001 0.05594711 0.18006806 0.034585085 -0.023816848 -0.058308978 0.04733443 0.03146736
perspect -0.014009246 -0.05360323 0.023814514 0.041405484 0.057354927 -0.080689095 0.13218288 0.21358827 -0.20384759 -0.023071298 -0.07030808 -0.24832454 0.0026403118 0.045063395 -0.010502173 -0.015599593 0.080388 0.06609116 -0.18839645 -0.11668814 0.02635254 0.0048739887 0.13202937 0.013653732 0.06887285 -0.010911296 -0.091529936 -0.10239509 -0.15069509 0.028125927 0.010334201 0.039796557 -0.017545633 -8.8386325e-05 -0.11509925 0.065361895 0.1281989 0.08652799 0.061329205 -0.2045158 0.15160833 0.023236232 -0.0033068862 0.04158929 0.15438971 0.054235164 -0.056126837 -0.044891145 0.06858093 0.026606912
wheel -0.017623015 -0.08054328 0.025048902 0.05227116 0.09596536 -0.09441486 0.21863432 0.26462862 -0.26827797 -0.05988406 -0.086633876 -0.31964844 0.01247097 0.04396599 -0.053858552 -0.029810777 0.12481632 0.07882533 -0.25022307 -0.15008071 0.058237933 -0.011751918 0.16884705 -0.0041321116 0.1084294 -0.017304277 -0.101387896 -0.11860585 -0.23744339 0.05154017 0.020498628 0.061160635 0.004277159 0.005688087 -0.16017695 0.104626045 0.14707656 0.103962384 0.07595506 -0.28108647 0.18043986 0.005506895 0.018251684 0.07923145 0.24175094 0.063942805 -0.05056734 -0.059825502 0.07131373 0.042519435
disput 0.0025957304 -0.08073009 0.004835812 0.07369177 0.090884775 -0.12508118 0.22301567 0.28250524 -0.26907882 -0.052606974 -0.051118933 -0.31628135 0.020144593 0.054112297 -0.032447793 0.0008006514 0.13055465 0.079230964 -0.25583303 -0.17588203 0.034800604 0.004217664 0.17973848 0.003168453 0.113561414 -0.0007482506 -0.10877241 -0.13920404 -0.20630819 0.053502884 0.036163777 0.079396576 0.0026846475 -0.003280047 -0.1650035 0.099937834 0.15207955 0.09385359 0.074213594 -0.27370912 0.20748782 -0.00021087387 0.025674468 0.0660844 0.2257275 0.065573774 -0.05048251 -0.07247197 0.06522165 0.04733716
obtain -0.02046756 -0.06784249 0.0075816903 0.07385006 0.07672164 -0.08285584 0.15666333 0.21705557 -0.23400491 -0.0439428 -0.041889954 -0.28497514 0.025282986 0.043192152 -0.016101614 -0.020146374 0.11169888 0.04306368 -0.20244278 -0.11626285 0.05092353 -0.0038429652 0.14286627 -0.01492965 0.0868239 0.0060835388 -0.11234737 -0.090260506 -0.18227716 0.04290363 0.029441908 0.06561574 0.0018007326 -0.026744973 -0.12815015 0.09270774 0.103571154 0.09100952 0.06155032 -0.21122634 0.17642675 0.00016668392 0.009792494 0.0624304 0.19928244 0.055871014 -0.042781383 -0.057653178 0.03996233 0.034494825
strictli 0.011235564 -0.057771124 0.02159469 0.029936519 0.08249303 -0.097882405 0.15183273 0.20239106 -0.19326387 -0.05412457 -0.045101438 -0.25423825 0.01797414 0.04589643 -0.049180634 0.0073563606 0.07387107 0.07236746 -0.20375803 -0.13810763 0.022603564 0.02039058 0.13102819 0.0026182837 0.06484581 0.01807562 -0.082171455 -0.1038791 -0.16789062 0.047123358 0.021362728 0.03641472 0.012163951 -0.016761962 -0.10789783 0.101137705 0.10835492 0.070210226 0.060440544 -0.20857432 0.15488678 0.01760313 -0.011637397 0.049961448 0.18580934 0.049793992 -0.017408682 -0.049647257 0.06814148 0.004985102
one 0.010531083 -0.09951119 0.014820258 0.06974277 0.062833086 -0.07431486 0.14530256 0.2204276 -0.22242379 -0.04907426 -0.04308961 -0.2832034 0.016442105 0.0551047 -0.019999191 -0.012812506 0.12241352 0.042117164 -0.2111567 -0.1307475 0.03879758 0.018083636 0.16774482 -0.00887453 0.087020524 0.015530454 -0.10815585 -0.12123213 -0.17964046 0.015861051 0.020732312 0.0659377 -0.0105996635 -0.0065841004 -0.12983681 0.08473895 0.12816748 0.083939895 0.04863326 -0.1987313 0.16282976 0.02412373 0.014539449 0.06924985 0.20632498 0.041382436 -0.038366504 -0.05894525 0.06597544 0.0111994855
traffic -0.0027798747 -0.092957206 0.0066869585 0.0816478 0.09136125 -0.12141858 0.2244054 0.2876828 -0.29273707 -0.040673997 -0.098792195 -0.3766729 0.030640423 0.0508308 -0.053414844 -0.0015914035 0.12092934 0.0769482 -0.26282594 -0.18310098 0.04589679 0.031005934 0.22175923 -0.011306178 0.112350136 -0.0071168668 -0.11445369 -0.14762682 -0.23354277 0.04149467 0.032362387 0.08192989 0.015564984 0.011525554 -0.18150027 0.14063965 0.15021752 0.08464356 0.085195296 -0.28745165 0.23193018 -0.009159702 0.027016526 0.06698104 0.24599652 0.070711166 -0.06211267 -0.0675264 0.06873767 0.019108126
hold 0.0121672405 -0.08161077 0.023551952 0.045089003 0.06167804 -0.07504807 0.16893367 0.20648678 -0.23493445 -0.040797066 -0.039891638 -0.23716937 0.005465553 0.04002417 -0.012827411 -0.02999228 0.093304865 0.061134007 -0.20546788 -0.1384667 0.051402103 -0.0015694903 0.13061543 0.0031980118 0.10443195 0.012376925 -0.103289664 -0.10163435 -0.14789188 0.03127359 0.005492219 0.04256942 -0.0077286023 0.00852163 -0.10737576 0.07196123 0.12706526 0.0655317 0.047997415 -0.20868208 0.15735541 0.010311785 0.011767265 0.047515307 0.1694223 0.047599487 -0.04386212 -0.048939176 0.06843184 0.026702639
cycl 0.014198333 -0.09468073 0.015235744 0.06993119 0.10114433 -0.10352881 0.19334295 0.2944174 -0.29685172 -0.049228925 -0.092372224 -0.35511065 0.014908845 0.056842636 -0.03911272 -0.019121055 0.11483398 0.086652845 -0.23832232 -0.15211071 0.05044915 -0.0062736324 0.20655854 -0.0070170467 0.11832374 0.0031362101 -0.10086833 -0.13208567 -0.23350658 0.038967077 0.031957403 0.07518275 0.0045599374 0.016002592 -0.14487328 0.10385987 0.17479 0.08112296 0.058174323 -0.25603086 0.18914968 0.024811562 -0.004813992 0.05511668 0.2153124 0.068875745 -0.034399007 -0.047536567 0.077795796 0.04004411
internet 0.0012424035 -0.10972599 0.034126632 0.051145535 0.09244405 -0.108385555 0.19386359 0.2571893 -0.25310746 -0.061365165 -0.061915398 -0.31350595 0.024351094 0.029248463 -0.057733104 -0.031222451 0.11211317 0.07288477 -0.25281233 -0.138922 0.053518552 -0.0055451733 0.1690517 -0.012653479 0.09217205 -0.0025504567 -0.11767289 -0.10389583 -0.20043935 0.037108373 0.03922701 0.061579417 -0.013424601 -0.0036875212 -0.15530027 0.102441154 0.14841807 0.07349994 0.057234112 -0.24698865 0.19326635 0.008174284 0.008084173 0.08972121 0.22715767 0.05290503 -0.058541305 -0.076417945 0.06399663 0.021286424
multipl -0.018853687 -0.08099884 0.0020839882 0.044228397 0.059272856 -0.088714235 0.17333004 0.2222705 -0.20227492 -0.025918376 -0.047395837 -0.25162232 0.02533139 0.031951353 -0.01629233 -0.028742932 0.09908421 0.067330055 -0.17766197 -0.14026567 0.060819875 0.017418878 0.13330762 0.018385895 0.07876684 0.011795241 -0.112255655 -0.10783271 -0.15727516 0.030015688 0.00077408494 0.058471978 -0.011641746 0.0073663443 -0.097499944 0.0833816 0.12931764 0.06432936 0.05951861 -0.20105551 0.13656907 0.012258177 -0.0026076226 0.07067221 0.16540796 0.0658868 -0.03793217 -0.03297647 0.06431904 0.043124784
alway 0.002913046 -0.07620627 0.014580924 0.04954 0.06006459 -0.08081577 0.17875183 0.23339295 -0.21931149 -0.030426634 -0.05770193 -0.25721323 0.0116087515 0.020884052 -0.048218943 -0.0040793577 0.08746751 0.07835649 -0.21143295 -0.13211915 0.028062811 0.022769526 0.16007929 0.0023870708 0.087629825 -0.011102889 -0.10824431 -0.08170619 -0.19298477 0.041618783 0.02332453 0.08096641 0.010663553 -0.0007066355 -0.108898416 0.099996425 0.100155585 0.0636795 0.051940978 -0.20858182 0.16758601 0.0024396428 0.004151628 0.067381255 0.19220695 0.06874726 -0.020406958 -0.047844257 0.056087118 0.005050085
say 0.009742808 -0.09228194 0.01897752 0.05902806 0.090752974 -0.08358932 0.19628628 0.23886618 -0.2533716 -0.054876775 -0.07507905 -0.27845567 0.03643316 0.05331088 -0.038342394 -0.013484091 0.09387911 0.081637815 -0.20727968 -0.14150745 0.0652107 -0.009489465 0.14111808 0.018418461 0.10616543 -0.02183471 -0.086636394 -0.11961642 -0.18352075 0.040112834 -0.0010583046 0.07726205 -0.0050465628 -0.017948184 -0.1121149 0.11286289 0.14872558 0.08791279 0.060021285 -0.24145123 0.16846076 0.007622675 0.013904036 0.07956951 0.21296279 0.051202353 -0.051824763 -0.0394898 0.0797156 0.0146894865
context 0.006803216 -0.060079638 0.0096781375 0.058499854 0.050589297 -0.10524079 0.14175723 0.19053535 -0.23323503 -0.029286988 -0.06449629 -0.23585095 0.020034108 0.028442053 -0.05021598 -0.022554163 0.10197635 0.07817015 -0.19709578 -0.110223845 0.03145967 0.026986571 0.14014745 -0.0143750375 0.09320522 -0.00082519813 -0.074526995 -0.11227482 -0.16104202 0.036686175 0.03330395 0.054422528 -0.0040274546 -0.019991314 -0.10340131 0.07271471 0.12569104 0.08595527 0.061885424 -0.18508796 0.14074752 0.02741263 -0.0065967315 0.072055854 0.16712695 0.04887101 -0.03817979 -0.047286805 0.068140715 0.025827745
roommat -0.017388605 -0.06647709 0.016561396 0.041479707 0.07694913 -0.086720645 0.17012128 0.20917082 -0.20588794 -0.025901532 -0.061519355 -0.2735832 0.013618923 0.04321074 -0.045059163 -0.03137687 0.10157557 0.059344582 -0.2035125 -0.14007977 0.058285385 0.026248394 0.12895973 -0.017533645 0.08751238 -0.011872344 -0.094114386 -0.112032205 -0.18270898 0.020131886 0.02628665 0.065555714 -0.013200916 -0.02382129 -0.12888885 0.09307627 0.09780329 0.07514671 0.068610586 -0.22346738 0.14628887 0.027586538 0.02326253 0.05520613 0.1690062 0.032837346 -0.0455605 -0.04742568 0.071422696 0.018546872
would 0.0207129 -0.10561839 0.024403531 0.072412334 0.066908576 -0.088096485 0.17467062 0.2629679 -0.27977622 -0.04754639 -0.069034755 -0.28867126 0.02929458 0.020564301 -0.043961238 -0.026653137 0.101633675 0.073816195 -0.21595238 -0.16645786 0.06506217 0.015106937 0.15899761 -0.0017240219 0.110210456 0.009527246 -0.11035942 -0.09969528 -0.21168044 0.01812113 0.0027320052 0.08080181 -0.0055657574 -0.025737973 -0.15075254 0.10600636 0.15710732 0.079967625 0.06839323 -0.24534507 0.20480621 0.019323437 -0.0049267695 0.04826501 0.20924884 0.065068595 -0.03513534 -0.043024525 0.07190326 0.043732367
