187 50
game -0.0014159685 0.0017536384 0.010563586 0.01744853 -0.01729452 -0.016239233 0.014989049 0.020662216 -0.011560395 -0.008531029 0.015326045 -0.0057891426 -0.009254369 0.014424008 -0.008599295 -0.0025154862 0.00642272 0.0028770901 -0.018527623 -0.020099437 0.01455067 0.011176089 0.0154159935 0.001248345 0.014519267 -0.0071467757 -0.0029826332 0.012006414 -0.016463893 -0.00898671 -0.01481854 -0.0013438882 0.01833482 -0.015397564 -0.005519616 -0.0035253896 0.019101001 -0.011364548 0.0016527066 -0.011325909 -0.016920695 0.009771187 -0.018165205 -0.008796034 0.0021784722 0.00023714587 -0.015509708 0.01837107 0.011079966 0.018608345
player -0.0163838 0.009960588 -0.007963594 0.001418714 0.017902862 -0.01020328 0.010121796 -0.011675317 -0.007941928 0.01801579 -0.002768756 -0.0013703245 -0.008275509 -0.014350948 -0.0020907333 0.0056206817 -0.0014574298 0.011481954 -0.006497358 0.003785231 0.0109781865 0.017239872 -0.0017385149 -0.018430242 0.009414575 0.0012282962 0.014021849 -0.0013462364 -0.005978459 -0.018238539 -0.0013319263 0.005678297 0.01032354 0.013491926 -0.012168194 0.0041182367 0.0140908025 -0.00942632 -0.005248906 0.012516922 0.0045127207 0.000110432426 0.0065068514 0.00039143884 0.020515008 0.01089577 -0.01798479 -0.014593149 0.0021655867 0.012530961
bestrespons -0.01735723 0.008317742 0.010552073 0.011376516 0.015760036 -0.01309573 0.0032455807 0.013873959 -0.0061554452 -0.0128964335 -0.00062875473 -0.018106755 -0.011320198 0.014890913 0.0073645962 0.015082085 0.01426069 0.015341603 -0.00833409 -0.002038595 0.0047657914 -0.008508471 0.017726261 -0.01967565 0.014554859 0.00583352 -0.010373649 0.009101388 -0.0042951154 0.012994109 0.020070866 -0.008633671 -0.0016080257 -0.012272716 0.00722788 0.0058537 0.0154249575 0.012100943 0.01984163 0.017480869 0.016743997 -0.013990582 -0.018745475 -0.00072273123 -0.0050779413 0.016110668 0.011491176 -0.0036525708 0.0033425381 0.0037279625
repeat 0.015545257 -0.01851564 -0.00026800844 0.0067162174 -0.0014917301 0.015935082 0.018837843 0.014349826 -0.0020891975 0.014912707 -0.01673914 0.0053073145 -0.00942511 -0.009385969 0.0076532904 0.011306565 0.015972748 -0.011284194 0.014172545 0.012966659 -0.0071762307 -0.017172083 0.01202895 0.012963793 -0.00094030437 -0.013551402 -0.014647919 -0.004972946 0.009900199 -0.007695639 -0.018327184 0.0076085986 0.009565425 -0.013417411 0.0022250542 -0.0039883014 0.0013358846 -0.019623954 0.006085488 -0.010077202 0.0029713293 -0.003242984 0.004021028 -0.016007554 -0.0048163603 0.0057248822 0.01050867 -0.0049765757 -0.018622784 0.009174101
congest -1.0419983e-05 0.0068307784 -0.013651984 -0.002950571 0.016032895 0.013998392 -0.0066507454 0.0063654673 -0.017070033 0.011999 -0.009198412 -0.0071914555 0.018639112 0.0023431098 0.015485272 -0.011939284 0.010689302 0.020044126 -0.017422978 -0.010874352 -0.013939453 -0.009419353 -0.0069555985 -0.016925024 0.016598372 -0.009570726 0.016570402 0.010888737 -0.01360857 0.0077446275 0.0111634 -0.014641172 -0.0149428295 -0.0051905927 -0.017489918 -0.0029060363 0.0002991435 0.0067909523 0.0034647465 -0.0023313125 -0.010602444 0.0034280838 -0.0019497314 0.013431312 0.008617409 0.009462736 0.002676911 -0.0054363348 -0.008481208 -0.0020433548
control 0.0028098274 -0.0047703222 -0.014159305 -0.015513128 -0.017821567 -0.012441496 -0.003242411 -0.0077495966 -0.013378537 -0.0076087797 0.008540747 -0.008268267 0.016729025 0.003638014 -0.0140326815 0.019212587 0.015550239 0.01106217 -0.014216745 0.011283464 0.008220343 0.010516566 0.009125088 0.0039484827 -0.0059859427 0.016607128 0.018855 0.0076173227 -0.005936057 -0.0003199054 0.0026296359 -0.01668219 -0.016507974 -0.0006808527 0.0021793265 -0.011202509 -0.008492128 -0.014680548 0.017248416 -0.0002775683 -0.008522351 0.011365306 0.018152216 -0.008170988 0.016282937 0.011230281 0.011698045 0.0008166971 0.016557794 -0.014046035
rate -0.01651228 0.019130327 -1.5977288e-05 -0.0042221975 0.009993979 -0.008680607 0.0059513664 0.015147306 0.011718871 -0.015170792 0.018926334 0.008327502 0.008007908 -0.011871688 0.017682124 -0.004011942 0.018013963 -0.0103287315 -0.01680099 0.013484873 0.0035916206 -0.0041391505 0.020057628 0.019310273 -0.018948702 0.005197354 0.011843559 0.00805282 0.0037222167 0.00052599906 0.0016069344 -0.007449194 -0.014995314 -0.004563761 0.0076961583 0.017710442 0.020010388 -0.011785989 -0.018147398 0.01885254 0.007746186 0.010297611 0.012558142 -0.0055862474 0.01534438 0.0061841235 0.005598898 -0.005100019 -0.0057893926 -0.0048006657
strategi 0.008549772 0.0005017356 -0.019193204 -0.01945519 -0.012093431 -0.00060039206 0.0044113304 0.019496338 0.010942987 -0.008784127 0.0005841273 0.0094509665 0.015474288 -0.002019398 0.008895213 -0.01137326 -0.0014796888 0.016385129 -0.0049564647 -0.019647475 0.011694669 -0.0077819517 -0.0020372304 0.020024728 -0.0041432967 -0.0095878625 -0.01088839 0.0140107665 -0.011617229 0.004087352 -0.010451121 0.012295086 0.008778579 0.0048258114 -0.0030199727 -0.0053464905 0.018673297 0.010617174 -0.0040846616 -0.019338004 -0.014449766 -0.0021228835 -0.0016629408 -0.005192829 0.019717425 -0.0007274679 0.011690835 -0.0150514245 -0.004822676 -0.0110721
rule -0.01433728 0.0027743203 -0.014239307 -0.0045492733 0.0075898785 0.011272922 0.0027462568 0.004781243 -0.008465032 0.014200806 -0.012454044 0.008889545 -0.016458515 0.0043986524 -0.009605545 -0.008260112 -0.00619041 0.011432579 0.011258416 -0.010158706 0.0017094236 -0.016731007 0.015951838 0.018375449 -0.0051864763 0.0015270585 0.0013092646 0.010952316 -0.017437203 0.0009514828 0.013777746 0.0043605487 0.0021758177 -0.018942054 0.016865382 -0.012360157 -0.0053781294 0.0071053593 -0.0011391623 0.002426173 0.003961893 -0.013823405 -0.019591948 0.01811709 0.012981118 -0.013675191 0.0067033186 0.00030680414 0.009677996 -0.0142356865
transmiss 0.0078035234 0.009974071 0.020610485 -0.009777289 -0.0015332474 -0.016146112 -0.018208774 -0.015522769 -0.0031176286 -0.014012323 0.010088538 -0.014682544 0.0049445513 0.002399135 -0.005630644 -0.0009504511 0.020612866 0.019000176 -0.010249581 0.017205356 -0.011234921 0.012477374 -0.0044633145 0.0070510413 0.007182242 0.014067614 -0.0060100113 0.017944068 0.014237882 -0.019833138 -0.015571697 -0.01510804 0.004885491 -0.0065597054 -0.014721202 -0.016048582 0.019193763 0.0042490605 -0.017161109 -0.01104423 0.008019953 -0.009514027 0.01037811 -0.008759302 0.006927715 -0.015106708 0.012249054 0.008900089 0.0024691608 0.006280183
best -0.01753064 0.004951396 -0.0016275677 -0.018708391 -0.018365892 -0.0035459008 0.0094452575 0.008502469 -0.013355805 -0.014113937 -0.009656159 -0.0054258173 -0.014513852 -0.01888052 -0.005122362 -0.0164867 -0.01180864 -0.0112428935 -0.005243895 -0.0038061314 -0.017966872 -0.0011898491 0.016905038 0.0152740795 -0.013810735 -0.0072008693 0.00580359 -0.018960156 0.002560074 0.012576521 0.011653079 -0.0174217 -0.009373114 -0.016680673 -9.1153175e-05 0.018857721 0.012955423 0.01006119 0.010730972 -0.0071540684 0.019841773 -0.014873676 -0.014868539 -0.004705695 -0.0009571853 -0.006055395 -0.0015542301 0.014820103 -0.001114379 -0.003305079
capac 0.005136515 -0.015743554 0.016477585 0.016581954 -0.01810618 0.0035001114 0.021042224 -0.013188109 -0.015201973 -0.016446939 0.017284103 -0.0032869696 0.018107705 -0.015542292 0.00885057 0.0062562586 0.0022068701 0.005387618 -0.016174365 -0.01946953 0.0046617286 0.012905407 0.017250523 0.011566848 -0.00067120267 0.016709065 -0.01928562 0.0070014964 -0.0001287031 0.00701888 0.014734576 -0.01332628 0.010531088 -0.019776817 -0.0023062974 -0.016987683 -0.007879829 0.018718317 -0.0025925175 0.004523816 0.019970264 0.017735979 -0.016515633 -0.00592676 0.02171609 0.011203556 -0.003553251 -0.018170377 0.006786272 -0.013429068
elimin 0.016268117 -0.0088064335 -0.002006629 0.0017157135 -0.00012219045 0.0020600958 0.012486892 0.00089453394 -0.0066641434 -0.003135748 0.011904216 0.0026437414 -0.0014447334 0.018899402 -0.009696531 -0.0014328781 0.018486008 0.013721175 0.002598089 -0.018040204 0.0024891163 -0.004201813 0.019250084 0.0024955801 0.0035074772 0.004849876 -0.0040224846 -0.009887573 1.2189999e-05 -0.0043155723 0.013260212 0.018127942 -0.0016954031 0.0056281257 -0.012466686 0.0036303385 -0.013213548 -0.017308788 -0.01136487 -0.018286953 0.015229684 -0.011569687 0.016529342 -0.014349293 0.0072710873 0.019423857 -0.015671967 -0.019834554 -0.008519956 -0.0053738225
nbrsolvabl -0.0006660635 -0.017189756 -0.016830213 0.0055383276 -0.015831118 -0.018965252 -0.0038305968 -0.01597886 -0.014857562 -0.01737102 -0.00040617283 -0.010175894 0.0130385365 0.0035426305 -0.0059998105 0.012668906 -0.01173154 -0.008900281 -0.015356465 -0.009075629 -0.003514352 0.013439925 -0.004724124 0.009681584 0.014648918 -0.015200816 0.008745132 0.012427732 -0.006463472 0.012836181 0.012176563 -0.012618634 -0.013869154 0.004730615 -0.00364673 -0.011828479 0.020178793 -0.010027842 -0.012182956 -0.00095308665 -0.0041682255 0.00070602784 -0.0074385866 -0.0007650463 -0.00032129165 0.0021880358 0.016074536 -0.011714386 -0.0026767207 0.011317608
ce 0.016350461 -0.008709455 0.018082345 0.016404983 -0.008786973 0.0003885985 0.008833043 -0.0074234093 -0.011287913 -0.013172867 -0.001281247 -0.00082211266 0.008848107 -0.0049060145 -5.773422e-05 0.005048419 0.009842854 0.00010791665 -0.012859976 -0.018583875 8.463541e-05 0.013400366 0.0032354135 -0.018013665 -0.01564558 0.01308248 -0.007604958 0.0125477705 -0.0134832235 0.016917221 -0.012937657 0.006538363 -0.002295293 -0.013720375 -0.006591328 -0.0022722166 -0.010499447 -0.0023648934 -0.01494034 0.005162141 0.01843353 -0.004934419 -0.0020178806 0.007104489 0.017665828 -0.011622326 -0.013825112 -0.005944394 0.018437214 0.0017226519
behavior -0.017550157 -0.002279218 0.019296827 -0.015238704 -0.010173504 0.01784912 -0.017200053 0.008662786 0.0008506965 0.012984618 0.016812129 -0.0068277894 -0.00803483 0.018157218 0.004504993 0.013049605 -0.018686997 0.01944284 -0.0034374434 -0.012615383 0.0060701035 -0.00048694832 0.010119534 -0.0045611914 -0.0077077537 0.004547603 0.016425326 -0.009782913 0.004803194 -0.016411163 -0.01347607 -0.00094330666 -0.017742904 0.0051868577 0.0029786977 -0.004229436 0.011105113 0.019591326 0.0174815 -0.0043598576 0.005098934 -0.008154319 -0.016706761 0.012581646 -0.0031131848 -0.0010708142 -0.0036426822 -0.0094339 0.008470698 -0.008485205
eg -0.019287253 0.018538838 0.0085326135 0.01854939 0.013780506 0.0048767966 0.020398337 -0.0076594036 -0.0145542035 0.008009265 0.0078123114 -0.012155204 0.019386934 -0.0065837232 0.01955816 0.002257224 -0.012608549 -0.0038153317 -0.015494722 -0.0060370425 0.0017339726 0.019373905 0.019357415 -0.013316856 0.007582564 0.004167176 -0.0051762247 -0.018345688 0.0016366672 -0.016832046 0.012864891 -0.011478836 0.01067878 0.019258754 -0.00077734323 0.009353617 -0.0025616637 0.014898453 0.008488665 -0.0190051 -0.003944631 0.0072916923 -0.00078392134 -0.0024126917 -0.001268291 -0.0028774242 0.0012693254 0.008007687 -0.008377855 -0.0077164224
respons -0.00017770722 0.0006255938 -0.00025168876 -0.009691003 0.008863742 -0.004607996 0.004349476 0.0015998334 0.011662956 -0.013819363 -0.013544732 -0.009375986 0.01873621 -0.0030007889 -0.018657176 -0.0008769412 -0.008921828 0.012092537 -0.019260308 0.0055654426 -0.018448465 0.002543377 0.012364177 0.014683256 -0.014950889 -0.012121093 -0.013801483 -0.015882755 -0.019055752 -0.00446588 -0.001515648 -0.0145143 0.0136090685 0.002043244 0.011579977 0.0031006483 0.0019203015 -0.014700734 -0.0040650587 0.008374928 -0.009597546 0.0020933505 0.005605399 -0.0031493504 0.020093853 0.016889226 0.004646974 0.014090044 0.011919642 -0.0111771
3 -0.010462277 -0.012750239 -0.015546621 0.016402291 -0.0033439554 -0.014389039 -0.007890453 0.011306667 -0.0061710663 -0.007960108 0.0033557354 -0.006351753 -0.0032130377 0.00267717 -0.0056553273 0.017569484 0.007963946 -0.01962543 0.012221786 -0.014069574 0.0016430682 0.008964772 -0.009631229 -0.0043592104 0.017093243 -0.008505954 -0.015872236 0.018472752 -0.004872338 -0.009863092 0.017412418 0.0087325275 0.008633373 0.0180811 -0.017090019 0.010804374 0.005066292 0.008538701 0.0040539433 0.008210397 0.009915585 0.0121552665 -0.006692591 -0.009317211 -0.00019478194 0.0055098464 -0.0067941267 0.0117828725 0.00878428 0.015648525
clear 0.004930584 0.016569909 -0.0026289856 0.01621837 0.0077579995 -0.016658226 -0.007205096 -0.004138155 0.009199449 -0.0020095608 -0.0055842283 0.014864684 0.01849787 -0.0028043066 -0.010086962 -0.008849613 -0.009510023 -0.018984908 0.002108438 -0.008569083 0.005048326 0.011613966 -0.0076132384 -0.019483298 0.0037019295 -0.013515382 0.004779115 -0.00745101 0.01385882 0.00095482264 0.0072042863 -0.005254037 -0.0036913515 0.015312015 0.0025362836 -0.0115246875 -0.014920454 0.0026698571 0.013510972 0.010620519 -0.01726611 0.016989293 0.007723874 0.015042347 0.020162823 -0.014341435 -0.0182174 0.0114575075 0.019171499 0.0071116216
ration 0.014094458 -0.0028477036 0.016117811 -0.019026585 -0.015854916 -0.013804395 -0.007644171 0.010562958 -0.0077863145 -0.016860463 0.017107148 -0.00793534 0.01714877 -0.009655798 0.0080413185 0.0101986155 0.004860033 -0.0056150835 0.005257589 -0.016754556 -0.005562394 -0.0050615794 0.014952676 -0.007036859 -0.012873033 0.00865406 -0.0012223793 -0.0072577777 0.013510477 0.007363176 -0.0076362765 0.0017516961 0.01819215 0.015352084 0.0126313735 0.009446384 0.0053498056 -0.0034911735 -0.012412101 -0.0010264018 -0.0024924106 -0.0011513869 -0.012593393 0.014899789 -0.012824483 -0.0143447425 -0.0054790345 -0.0031835318 -0.015061651 0.0014285904
internet -0.010673446 -0.0018419737 -0.014661254 0.0037743319 0.007298893 -0.0010600849 -0.010149875 -0.0018612496 0.013471566 0.006825555 -0.017455686 -0.007835438 0.004343716 0.005028436 -0.017959924 0.00971989 -0.017173434 -0.014603098 0.006141352 -0.00733196 0.007003797 0.018343013 -0.0057833083 0.018473422 0.004086216 0.019419461 0.010766272 -0.018235145 -0.0072501926 0.012508066 0.011634244 0.017487245 0.013638929 0.01571516 -0.019990513 0.0088771535 -0.008689166 0.0072205034 0.012887522 0.008007104 0.01589436 0.0029372543 -0.0031104654 0.011593089 -0.010314857 0.0008599042 0.018898709 -0.011098858 0.007820063 -0.016462808
rout 0.019394895 0.017561642 0.0027306324 0.010169527 0.0039200922 -0.014701129 -0.0015740554 0.015238303 -0.010487988 -0.008645139 0.010409965 0.0036820304 -0.0038113084 -0.004944121 0.013328011 -0.010491008 -0.0062765162 -0.012756424 -0.009923405 -0.018164182 -0.009174827 -0.016062858 0.0044545527 -0.017628558 -0.018893536 -0.016816901 -0.014239819 0.013104704 0.0064890343 -0.00017250908 -0.0052537215 -0.014385037 0.00065363065 0.00045402622 -0.0004942537 0.0018652749 0.003349165 -0.00014152488 -0.0149858305 -0.013458173 -0.015326939 -0.0026282703 0.0029058328 0.015004918 -0.002283096 -0.003798388 0.018995726 -0.0006005736 -0.0044239163 0.0167729
outcom 0.0053139273 -0.010374806 0.0130219655 0.009092387 -0.013738888 -0.0010709488 0.002070415 0.012111193 -0.003938624 -0.0059240838 0.003646615 0.0011917888 0.0023297416 -0.0049072425 -0.011950641 0.014911221 0.015516066 0.01679471 -0.017648699 0.0052765296 -0.0070380946 0.01941425 0.0061755725 0.009095858 0.005018294 0.013071504 -0.011692116 0.015944252 -0.005108644 -0.009293267 -0.0038677338 0.019332303 -0.01395852 -0.0044781193 0.013853738 9.1005866e-05 -0.012096105 -0.012589327 0.018386554 0.012625113 0.009900043 -0.006748908 -0.018647706 0.007681344 0.014880714 -0.011087024 -0.015812872 -0.006026333 -0.009522111 -0.0046978844
e -0.004068679 -0.01016467 0.019102281 -0.018876726 0.009176807 0.0103466995 -0.0023312147 0.018851606 0.019418608 -0.011114777 -0.0118321655 -0.014192373 -0.015846344 -0.005785783 -0.010794407 -0.016580125 0.0018214192 0.0060580154 0.012476231 -0.005807172 -0.008763843 0.0028061862 0.0014156585 0.016470473 0.0005658809 0.014642517 -0.016928092 0.0171873 -0.004157526 0.017085863 -0.015157269 0.0038350655 0.0018806191 -0.00017619284 -0.010214192 -0.01825765 -0.013541282 -0.015791342 0.0041339756 0.00042134826 -0.002939709 0.014265628 -0.0050262166 -0.0026909143 -0.017295817 -0.019649662 0.017636213 -0.011483299 -0.012540444 0.010487768
result 0.013193392 -0.013551014 0.0018718714 -0.012091292 0.00366108 -0.009165698 -0.0063349498 0.0052967938 0.01684219 0.013237909 -0.019301968 -0.011885823 0.015577842 0.004391441 -0.008414138 0.0016073362 0.01913184 -0.0021226106 -0.019230913 0.002789857 0.012526037 0.012998434 0.008813567 -0.011401175 -0.00031771112 -0.00036615468 0.008695897 -0.016193971 -0.016562825 0.00016945145 -0.017188607 0.011779547 -0.0010448599 0.019781169 -0.0109761115 -0.0010144778 0.016151505 -0.0080046225 -0.009582176 0.0023894315 0.005805473 -0.0050877715 0.012668786 -0.015321573 0.007225939 0.0012526615 0.01738961 0.011872533 0.013850064 0.01587679
router -0.019013016 0.01939865 -0.015470834 -0.00555239 -0.009489739 -0.0102368295 -0.015719473 -0.014903062 -0.009505827 -0.0027498284 -0.010229326 0.011802899 -0.019161288 -0.010318227 0.018979918 0.014102636 0.015506862 0.0087101655 0.0006300826 -0.012233774 0.012010169 0.0052732523 0.015895281 0.012736571 0.016266132 0.01739872 -0.019850124 -0.013386697 0.002405491 0.012758876 0.014836222 0.011069542 0.015098323 -0.010373484 0.013018085 -0.00816356 -0.017520465 0.018185219 0.0028994493 -0.0057746638 -0.004613478 -0.008558663 0.009531604 0.008697674 -0.0049581043 -0.01454226 -0.007246413 -0.000722594 0.012270198 -0.005747684
class -0.00042833656 0.0025075544 -0.013999841 0.003922767 -0.0023081666 0.0046930863 0.010721134 -0.0014749931 -0.006197229 0.0150700575 0.010314692 0.012286992 0.009164977 0.01783974 0.015522342 -0.0017025891 0.017661337 0.009093827 0.01029428 -0.0034934853 -0.0040240074 -0.008335061 -0.01615388 0.0057874676 0.018630184 0.017613836 -0.004321688 0.012158004 0.0068835462 -0.009416013 0.0043293787 -0.010673175 0.016209729 0.010458142 0.0056932396 0.008296117 0.01832071 0.014872774 -0.0010639579 -0.014991099 0.017674372 0.014649376 0.0030923523 -0.002971876 -0.011164303 -0.008765875 0.017283956 -0.0065969005 -0.012658427 0.020016974
small 0.015286012 0.01832328 0.0023081836 -0.016711965 0.01708559 -0.0076571098 0.011772091 0.009230472 0.01924997 -0.018709878 0.01848121 -0.01891856 -0.013778382 -0.018070837 -0.011012672 0.014843025 0.018501647 -0.0066003036 0.0072959173 -0.007343299 0.015829323 0.011823693 0.0002988318 -0.0074306843 -0.01425994 0.009419466 0.0027258596 -0.005262071 0.015501686 -0.008288273 -0.01813634 -0.004489825 0.00010879671 -0.013463192 -0.011023506 -0.017049242 0.018736813 0.014939805 -0.0003971761 0.014716794 0.01614549 -0.0015450565 0.013156504 0.007476236 0.010271385 0.014639657 -0.009388431 -0.004429652 0.0018629187 0.008494544
link 0.006341408 0.01056547 0.009307986 -0.016946945 -0.006133168 -0.014907703 0.019611344 0.010833513 0.00015739904 0.008009011 -0.015091645 -0.0133538 0.006166849 0.013469389 0.008288976 0.012385324 -0.0039467104 -0.006497386 0.00010199728 -0.0064362753 -0.0108878575 -0.01528475 0.013563598 -0.0022334582 -0.003542818 -0.015571392 0.01856169 0.0017615466 0.0033935464 0.0047490066 -0.014606641 0.0032031094 0.005804047 -0.017397968 0.009668103 0.004949859 0.01580023 0.010073814 -0.005610331 -0.014805939 0.014892879 0.003663179 0.0103877485 0.012929947 0.004288069 -0.01202582 3.8553644e-05 0.016112408 -0.011995543 0.018815346
equal -0.014712157 0.008879527 0.004569158 0.014771828 -0.009437787 -0.009586837 -0.011590477 0.007310781 -0.009360008 0.016809383 -0.008499981 -0.019050118 -0.009678096 0.01352861 -0.011961118 -0.010267806 -0.014367453 0.012429277 0.0062241587 0.0055486597 -0.0060694246 0.012351926 -0.011516822 -0.0039000215 -0.011473472 -0.002149429 -0.004297637 0.016995179 -4.951806e-05 -0.017591417 -0.010790018 -0.013895664 0.0052350396 0.01885783 -0.01186552 0.01659641 0.018091187 -0.014228857 -0.017269813 0.018339904 0.017437907 -0.00956172 -0.013466666 0.01577223 0.008092872 0.016616147 -0.015320327 -0.019206777 0.0032857808 -0.01954392
divid -0.009864002 -0.006081775 0.019671455 0.017023666 -0.0053883414 0.010729573 0.017169222 -0.0033187156 0.01844511 0.013808776 0.004275096 -0.008810012 -0.010282567 -0.0055975085 0.016642308 -0.011870318 -0.005487681 0.018694965 0.006311793 0.01196671 -0.016060036 -0.0010041301 0.0118102 -0.009453578 0.015471065 0.01874037 -0.0011717915 -0.0039694654 -0.0014902608 -0.011883198 -0.016601413 -0.0031298767 -0.005449827 0.008435232 -0.014126451 0.0110680545 -0.012027707 -0.01568161 0.017636046 0.017149322 -0.0060072546 0.0068716863 -0.011715076 -0.017404882 -0.00995941 0.014129405 0.012496753 0.018446485 0.014667823 0.013582219
announc 0.002560299 -0.019540548 0.009188181 -0.0012093192 0.012907834 0.0030470134 -0.0058467854 0.016030213 0.0026697482 -6.124068e-05 -0.009112607 -0.017484874 -0.015550438 0.01771423 -0.017618025 0.018244619 -0.018386154 -0.0005441727 -0.004162449 -0.018028738 0.01734167 0.013783267 0.0066325082 0.009593709 0.00063426193 0.018801259 0.013855346 -0.01953898 -0.009072506 -0.0027653382 0.0062245447 -0.008644753 0.0028009051 -0.01587002 0.0053835744 0.009547843 0.0105248345 -0.0062880176 -0.01648868 -0.018707229 -0.0009461257 -0.014770876 -0.013793548 0.012211305 0.0148016205 0.0045172824 -0.015904317 -0.011478648 0.016351486 0.007862052
use -0.010484749 -0.014479435 0.0015482416 0.006718829 0.0043312237 0.005640857 -0.010896259 -0.018977491 -0.014306233 0.00036689677 0.009408547 0.008415201 0.0037936212 0.010776484 0.0001466964 0.008438985 -0.018150907 0.015555735 0.011869592 0.009865523 0.014623197 0.01705477 0.0020865058 -0.0034592792 0.0013296627 -0.018709328 0.016564142 -0.012720858 0.016552422 -0.008632099 0.0015567612 -0.018329667 -0.01911996 -0.015990786 -0.015685469 0.0008221696 -0.0137004005 -0.009803585 -0.010130966 -0.009138752 0.014476919 0.009549319 0.01725591 0.01426742 -0.010901667 0.014565949 -0.018676443 -0.0052626994 -0.015354243 0.008347046
1 0.003605577 0.014305387 0.0059792353 -0.013994531 0.015656602 -0.012511272 0.018535018 0.0066978955 -0.008394286 -0.009574911 -0.008746076 -0.012927458 0.018816825 -0.0047807246 0.01598996 -0.019167183 0.004436342 -0.0023256398 0.014879516 -0.01863018 0.015115686 -0.009946507 -0.011642353 -0.011611048 -0.0062622256 -0.006938706 -0.006847029 -0.014966714 0.0009813415 -0.0015772127 -0.0031949715 0.0075604506 -0.015157699 -0.0069249934 0.010000771 0.017121254 -0.018852178 0.014639422 0.011073714 -0.0079828985 0.017832117 -0.01840909 0.014247582 0.010578922 0.0030242875 -0.01001336 -0.008437181 -0.006868188 0.0034035877 0.0034509858
flow 0.014697597 0.020441001 0.017893685 -0.0082403915 0.019448211 -0.0015520783 0.0100610545 0.0056559183 -0.0014183391 0.0070001604 -0.010513306 -0.012297576 -0.015281059 0.004133556 0.013474944 0.0020479015 0.0025959092 0.006555928 0.015845014 -0.015688077 0.004519932 -0.014771105 0.007796151 0.019402323 0.0152058415 0.013011377 0.015796106 0.013104513 0.013539694 0.017208042 -0.009675328 0.018329717 0.009986074 -0.0046579717 0.016771184 0.010245179 0.020235665 0.005626403 0.02023168 0.0020597887 0.018703528 0.0070615276 0.013206079 -0.007288829 0.01407838 0.014698097 -0.004324022 -0.0038797644 0.0075387335 -0.014081278
exampl 0.019467937 -0.019084988 -0.012984458 0.005559584 0.013400314 -0.01137323 0.005968614 0.019215943 -0.014115838 -0.01247172 -0.009456804 -0.008058046 0.0035976435 0.01968281 0.013554555 0.0010118686 0.0052033095 0.017093195 0.017664853 0.010853737 0.011959774 -0.014856653 -0.006941274 -0.0113922 0.013073005 -0.0046541244 -0.018021317 0.015309336 0.016477296 -0.0072873076 0.01853664 -0.0011874958 -0.0075766635 -0.0012833107 0.000112689995 -0.0069207246 0.0065640686 0.011638601 0.0142521905 -0.018502459 -0.0035726577 -0.010852845 0.014823744 0.012963013 -0.008138182 0.005249311 -0.012100495 0.00033704168 0.01896274 -0.0052990364
nbr -0.010297159 -0.014480738 -0.005766302 -0.002001063 0.0073163034 0.018773748 -0.0059642037 0.004984492 0.018816184 0.0026383088 0.0022897485 0.018760659 0.01838389 0.015832912 -0.011888462 0.020561516 0.011817306 0.018407866 -0.004513208 0.006495055 0.0137057 -0.0074688257 0.014369594 0.0050306427 0.0192836 -0.006319085 -0.006678496 0.01236599 -0.01844012 -0.014748311 -0.012751537 -0.0015681272 -0.004973241 0.013124963 0.018224908 -0.0015997519 0.0040203542 0.004053104 -0.0035305172 -0.016651407 0.015792757 -0.008805126 0.00894436 0.017946992 0.0069262716 0.006824893 0.007894091 -0.0057098097 0.00795588 0.0007273669
tcp 0.011327088 0.011066457 0.003508014 0.011513002 -0.017574321 0.012695682 0.018852718 -0.007810206 0.002941197 -0.01060211 0.0021316013 0.0052905055 0.016372018 0.0013753445 0.005403253 0.0027759788 0.0169412 -0.011303612 -0.012856931 -0.0075582294 -0.004520295 0.010308655 -0.015931329 -0.005786486 -0.016084801 0.010083657 -0.005412436 -0.018091954 0.007899448 0.017890476 -0.0061443844 -0.011443145 0.0059317425 -0.0010214543 -0.020166226 0.017041387 -0.01431538 -0.009807475 -0.0049661025 -0.011322142 0.0037737908 0.019559685 0.009064828 0.016120201 -0.00062268286 0.001660716 -0.005343141 -0.017619375 0.006955112 0.0042235283
break -0.018782495 -0.00959942 -0.01947615 -0.011624567 0.0082953535 0.017135207 0.00840702 0.005199641 0.016112719 -0.0024133134 -0.0027381673 -0.017861199 -0.000151483 -0.005073005 0.0009934149 0.014690391 -0.0139935175 -0.0078122714 -0.013508862 -0.0072948798 -0.006625458 0.004440943 0.0067973495 -0.009718721 -0.009000182 0.0022562738 0.010726835 0.010729094 -0.0061002 -0.008723654 -0.011205584 -0.001079303 0.0036491563 0.0028246413 0.014614039 -0.0052959705 0.0004978826 -0.01117509 -0.0020950949 -0.015880765 -0.001531426 0.0025933068 -0.01708389 0.017365193 -0.01805916 -0.019133396 -0.017230026 0.014478328 0.011105248 0.018412102
tie 0.005018324 0.0020393827 -0.0050064833 0.018631008 0.005882933 0.008000269 -0.0021978412 0.0022169095 0.013146922 -0.0016080452 0.006746399 -0.0016217082 0.010584635 0.0074205957 0.0053187143 -0.010464375 -0.009269309 0.008781437 -0.012006625 -0.00045181677 -0.0010961925 0.0071384995 -0.01661553 0.017677864 -0.0026328568 -0.010696485 0.007971208 -0.00393914 -0.015638346 -0.009179299 -0.00066197687 -0.017916875 0.00079637876 0.0045295013 -0.006380032 0.005179339 0.0054249894 0.020017568 0.0031026264 0.0037197056 0.0058826525 -0.004161306 -0.017323637 0.016022721 -0.0036360465 -0.019272644 -0.013231986 -0.00805153 0.008096583 0.0099270195
graph 0.012082743 -0.012939461 0.0016261832 -0.0059680045 -0.009686759 0.013362568 0.00850737 -0.0051353425 -0.016883368 -0.010597963 -0.0010031385 0.014618714 0.012052061 -0.016521677 -0.018572815 0.014744989 -0.0044287606 -0.0071381084 0.010973552 -0.012227035 0.010168278 -6.338561e-05 -0.012927229 -0.0008154795 0.013349641 0.018674262 0.004002709 0.010392133 -0.01043589 -0.0021615934 -0.010378506 0.0026061193 -0.003998666 -0.007483393 -0.014282282 0.019748386 0.0070013124 -0.0042963587 -0.007910167 0.014754378 -0.011873272 0.005967918 0.0015956775 0.016783362 0.014471512 -0.0053597083 0.0050480957 -0.0034854456 -0.018950075 -0.0052112243
set 0.0025663744 0.013353919 0.019983914 0.018120142 -0.015876895 0.012885729 -0.011271302 -0.0016369779 0.0007911801 0.013094435 0.008933608 0.0090910485 0.01904927 0.000976819 -0.011892559 -0.012619774 0.012923248 -0.010369798 -0.0059004948 0.008032857 -0.0044820383 -0.012034365 -0.0045553604 0.0024312632 0.00459316 0.012142216 -0.010456338 0.006186357 0.014267747 0.0043255785 0.010854348 -0.009705277 0.012127638 -0.015370475 0.006905345 -0.018549614 -0.005004049 -0.01807999 -0.0030325653 -0.010993118 -0.007737888 0.002232808 0.0055110715 -0.0029402452 -0.016108967 -0.011919904 0.0014960059 -0.008080089 -0.018798461 -0.0015948226
other 0.013059667 0.012284509 -0.019709913 0.006238879 -0.011607381 -0.019118836 0.0008670584 3.170939e-05 -0.014266989 -0.012672682 -0.0046818755 0.013268115 -0.015025028 0.015898785 -0.00061085675 0.0025273564 0.019019654 0.009559612 -0.007564892 0.0071777604 0.0073132413 0.013026115 0.00094833353 -0.008940753 0.0029643069 -0.011103877 0.0027113524 0.009849882 0.009873836 0.017889313 -0.014901994 -0.0107902875 0.012851417 0.0024548357 -0.013501241 0.0018351121 0.006376787 -0.0050481106 -0.009466047 0.009540757 0.020003138 -0.014894518 -0.0005283169 -0.005155937 -0.012039261 -0.0023806728 -0.010459018 0.01783587 -0.011287172 0.0074214456
converg -0.0006261137 0.008886181 0.0044829277 0.019794876 0.0016492268 -0.011619451 -0.0016663797 0.005147505 -0.0073578414 -0.016026502 -0.011043105 -0.014253771 0.012674892 0.008194006 0.016996857 0.013360556 -0.011947659 0.005784217 0.016386768 0.002724577 0.0061631342 0.012022733 -0.016997375 0.018191451 0.014370473 0.016934806 -0.016813926 0.012508708 0.0127041 -0.003075468 -0.012501491 0.0108133415 -0.014003493 -0.010895005 0.0067094336 0.016336141 0.018401712 -0.008762548 -0.017839791 0.018441083 0.013476358 -0.008036862 -0.017163945 -0.009399726 -0.0071045803 -0.0062300717 0.0013739265 -0.00089518446 -0.0059129647 -0.011836095
sequenc 0.01887156 -0.009302871 -0.01461092 0.015312484 0.005253698 0.016874041 -0.008391035 -0.013151273 0.0015823054 -0.0026040098 -0.018650139 -0.0035604525 0.006196545 0.013398771 0.013969956 0.006743304 -0.008747103 -0.003453731 -0.008253386 0.01128335 -0.012586176 0.004432205 -0.0021941485 -0.011575001 -0.014042408 0.011543392 -0.016950818 -0.0013260539 0.005416676 0.015229989 -0.014536706 0.006788494 0.019437687 -0.014276492 -0.007096871 0.010416234 0.011197208 0.0034208933 0.016220478 0.0012330544 0.004085544 -0.0032031892 -0.016469883 0.006560944 0.004475221 -0.0171471 -0.0014542232 8.0163474e-05 0.00023226757 0.017332042
reach -0.005129316 -0.011322752 0.01503044 -0.014802118 -0.017640408 -0.004158717 -0.01633457 0.0016022217 0.0034642026 -0.005091061 -0.012747591 -0.0013956358 -0.002181638 0.0072218147 0.01647885 0.011972394 0.017018013 -0.01786956 0.018516904 -0.005077008 0.017435523 0.005000399 0.007863884 -0.01915951 -0.018661862 0.017956031 -0.0062395968 0.005742507 0.012522881 -0.000911168 0.01976388 -0.0020811511 -0.019518958 -0.014423483 -0.0022667728 -0.017204981 0.015670585 0.007489944 -0.017105257 0.016511733 0.018348217 0.0116627505 0.013789103 -0.019167306 0.0015008455 -0.018260926 -0.0072881244 0.00034770885 -0.0003007927 0.0028715723
follow 0.00654923 0.0043095397 0.010636023 0.015015108 -0.011533595 0.015490189 0.012419776 0.020151649 0.008901261 -0.0068365224 -0.0075024404 -0.0017830768 -0.0034758432 0.02003144 0.0022989786 0.008165568 0.007049385 -0.017658623 0.0132732205 0.01600067 -0.0032694251 0.004908219 -0.012579927 -0.012503308 0.016844967 -0.0059813973 0.013186722 0.0033231308 -0.0044356906 0.0061095026 -0.007923154 -0.0033412322 0.0025855838 0.0097240945 -0.0030285236 0.0014558258 -0.015355287 0.01897302 -0.017201206 0.013720074 0.0082616545 -0.014225033 -0.010787483 -0.015864098 -0.0099711465 0.014349385 0.01915687 0.0042912224 0.0013000972 0.019251183
equilibrium -0.009953878 -0.001841007 0.00682312 -0.012820151 -0.019140424 -0.019513968 0.019088337 0.012158101 -0.0103661185 -0.017083438 0.0029891483 0.004544331 -0.002615996 0.0031825737 -0.008270157 0.0101653 0.0032492953 0.018064605 -0.021029498 -0.010812557 -0.018289281 3.395004e-05 -0.014790231 0.010165762 -0.012271971 -0.012089996 0.009449306 -0.015995214 0.0024785583 -0.015066995 0.020105144 0.017389089 0.0031900518 0.011123651 0.0088375965 -0.011747374 0.020923309 -0.019291958 0.01698506 0.0047276313 -0.0052367034 -0.007181143 0.017749866 -0.010826027 0.017242346 -0.011640054 0.016535517 -0.0014845475 0.016186455 -0.0063391966
schapira 0.011875037 0.01812046 0.005184019 0.0025886148 0.010290006 0.015598786 0.017320292 0.01776261 0.013929739 0.015652806 0.017638821 -0.00042585813 -0.001981777 0.003606013 0.0004919313 0.0016399341 -0.01693444 -0.018883957 -0.00503603 0.017594703 -0.007405995 -0.0137377 0.009968637 0.0021395017 0.004071082 0.007428756 0.006816466 0.011875484 0.0022757822 0.0015717465 0.018267598 0.005539024 -0.009860139 0.012710932 0.010322006 0.00585412 -0.0057080905 0.0065905824 0.013157384 0.013708065 0.0022919336 -0.017065274 0.0004940741 0.00081819034 0.008468733 -0.01877435 0.019289413 -0.014162644 0.011592221 -0.019074226
simpl 0.019211337 0.014964989 0.0024412577 -0.0068420013 -0.0006563411 0.00050789333 -0.012553435 0.011998863 0.004516575 0.007444738 -0.014412986 0.016637873 0.0009523993 -0.000112170885 -0.018130032 0.008277244 0.013612643 0.014775511 -0.013122797 -0.015760817 -0.010973755 -0.0011005027 -0.016321087 -0.016406754 -0.003539017 0.0022222498 -0.019309826 -0.007601541 0.0010570294 0.0134333335 0.0036863482 -0.0012379749 -0.015101504 -0.013841038 -0.001467744 0.014972195 0.011198176 -0.002941256 0.0027543004 -0.019681003 -0.0025353113 -0.009331173 0.01143824 -0.0047524916 -0.009173751 -0.018837452 -0.0024547456 -0.014575089 -0.003112923 -0.008174926
zohar -0.0048379065 -0.0061323764 -0.016187541 -0.0026845008 0.0036905308 -0.008554631 -0.014959951 -0.0065071895 -0.018412542 -0.0017308424 0.0118806185 -0.0065352833 0.0062597836 0.010321853 0.01727229 0.011448966 0.019158691 -0.019196952 -0.016361883 -0.013662325 -0.014968243 -0.015636988 -0.015253215 -0.0058351876 0.0031073436 -0.0056210104 -0.017916584 0.010088452 0.0014647424 0.00898164 0.014507353 0.015349693 -0.0017567705 0.007113583 -0.010488379 0.0040117856 0.009740891 0.019768622 -0.005931417 0.0052598077 -0.01109777 -0.0044608912 0.016120195 -0.0078969635 -0.0018742165 -0.018300856 -0.019061005 0.017572511 -0.011106057 0.010127474
fairqueu -0.013923449 -0.0045176926 -0.015938023 0.014979244 0.012456499 0.01016224 0.017160872 -0.0008553615 -0.018955132 0.017940957 -0.009708367 0.015117795 0.011039683 -0.0017643932 -0.01509992 -0.002582803 0.012777564 -0.013537378 0.0024089597 -0.01600276 0.017446566 -0.0054793744 0.019196404 -0.0111898305 -0.019074645 -0.017156815 -0.008216515 0.0096488595 -0.0007005019 0.018378587 0.006328112 0.007375768 0.0056971074 0.01610393 -0.0049523814 0.014840806 -0.018342499 0.005868973 -0.00090076705 0.0005720292 0.01411776 -0.0058559556 -0.0047120946 -0.00011678005 -0.00032536642 -0.006941239 0.012307817 -0.013245541 0.016140874 -0.0003233968
thm 0.005166452 0.0066108485 -0.0008155306 0.0035061985 -0.0060134055 0.008949809 0.0010227396 -0.005993856 -0.017761223 -0.020114593 0.0006968285 -0.012056509 -0.0021675597 -0.008029347 -0.017430399 0.002567641 0.011854525 -0.0042661345 -0.014825465 0.00609962 -0.0005686988 -0.010730167 -0.0017554148 -0.001372253 -0.0060856654 -0.020234507 0.0151438415 0.007499763 -0.0054481677 0.014275902 0.00080109853 0.014465037 -0.0030993999 0.0151298735 -0.0003398582 -0.011965524 -0.00895519 0.019345319 0.0013271312 0.0014224909 0.017095542 -0.012545508 -0.0037501876 -0.016191794 -0.013037472 -0.017014598 0.007825453 0.0052715265 0.0113183 0.005373519
question 0.0042870054 0.012123212 -0.0039265426 0.0063037383 0.017324405 4.4277658e-05 0.013280749 -0.012183921 0.012550611 0.008936216 0.010396631 -0.021022808 -0.00091367454 0.007016298 -0.011161613 -0.012935805 0.013018847 -0.0134309735 -0.011312617 0.015718022 -0.013850269 0.0175969 0.0020609868 0.008812788 -0.005563963 -0.01092386 -0.018296963 -0.00090537715 -0.010719849 -0.0066059227 0.01644154 -0.015261338 -0.012840338 -0.011062468 -0.013589814 -0.017398005 -0.0010108084 0.018961305 0.016647873 -0.011427841 -0.015509312 -0.004557626 -0.018874263 -0.0100075295 -0.011151505 0.0063122436 -0.015327548 0.0022235916 0.004705779 0.010666105
motiv -0.004009896 -0.019386489 0.01059101 -0.011806514 0.009946165 0.0035435879 0.018173952 0.0037228807 -0.0039474005 0.0128109045 -0.014040453 -0.017196508 0.007464877 -0.0049119215 -0.0081068855 -0.0035342828 -0.019538762 0.0005571684 -0.0024649608 -0.0062468513 0.00497728 0.009682653 0.013113349 -0.016022028 -0.009637294 -0.017670114 -0.018154193 -0.007406086 -0.0028498312 -0.016643453 -0.010695937 -0.004376682 0.012505305 0.002926606 0.016457722 -0.016519334 -0.008688365 -0.0014319378 0.017894784 0.0019890703 0.0034342436 0.0025167014 0.0055208774 -0.01882525 0.0069271377 0.011119695 0.010597389 0.008698555 -0.015976062 -0.008056259
theori 0.016671835 -0.0009210953 -0.018668137 0.009566176 -0.01202974 0.012883224 0.011531113 -0.00903142 0.004658131 0.010442911 -0.0069050835 -0.0037479433 0.01819305 0.018514618 -0.018536303 0.0155312205 0.019880395 -0.0055661197 0.0043828734 -0.0059191897 0.017294219 -9.070698e-05 0.011878294 0.018328419 0.008675681 -0.014250509 -0.0041067973 0.0022387807 0.0035679224 0.0056180772 0.01913624 0.008914031 0.019622462 -0.017591592 -0.01167966 0.004198636 0.008161368 -0.0019354163 -0.013366552 -0.0069576027 -0.016398286 0.018729782 0.007253947 -0.01566432 0.0070676594 0.008474741 -0.011225398 -0.012142571 0.0022569557 0.017948892
arriv -0.019364815 0.0001342344 -0.013690867 -0.0018291421 0.006351014 -0.0104385605 -0.005356951 0.0018250482 -0.012977416 0.014499279 0.00889153 -0.01747367 -0.004276298 0.006524221 -0.016384915 -0.014027874 -0.016861426 -0.011115268 0.01752477 0.013834311 0.0057905996 -0.017040798 0.011823323 0.00904241 0.0005738474 -0.017893206 -0.00398408 0.00043358398 -0.015671281 0.0045697307 0.00092955405 -0.01397667 -0.01659812 0.011900877 -0.016802276 -0.01105909 0.011578757 -0.0010321063 -0.0059032985 -0.010854548 -0.002000241 0.010523939 -0.012112115 -0.0099849235 -0.009676667 -0.009381782 -0.016049955 -0.01962515 0.015198009 0.0160578
turn -0.008741138 -0.018409323 -0.0038055775 -0.0073639955 0.01848215 0.005614043 -0.01162158 -0.0062035387 -0.020103712 0.0036541985 -0.00794841 -0.005714694 0.010254849 0.015744805 0.009067661 -0.013455815 0.013650632 -0.019203158 -0.014189192 -0.015886134 -0.004421084 0.0009639457 -0.0070258933 0.0037666538 0.01872256 0.013332918 -0.0021311361 0.018157572 0.0029727318 -0.004022441 -0.012971151 0.012833936 -0.018224295 -0.004156422 0.015384291 -0.005108705 0.0036973662 -0.01468829 0.010318963 0.014683843 -0.018313333 -0.006612441 0.015521467 0.005773969 0.00034305456 0.0010488066 -0.01963796 0.019771643 -0.003899846 -0.009950456
studi 0.0054021804 0.0022389241 -0.011697369 0.011725376 -0.004837632 -0.0126992 0.0150870625 0.013722497 0.017152214 0.002200228 0.0011195197 -0.016377022 0.009243373 0.019079594 -0.0012408483 -0.0033509994 -0.007382189 -0.00083812233 -0.015660478 0.011179297 0.0030666355 0.018873544 -0.0125143165 -0.010282926 -0.011990638 -0.014652599 0.005279745 0.010093776 0.0022314398 0.0067960517 -0.018645015 -0.0020504775 -0.015687758 0.005727567 -0.0055033034 0.017962104 -0.0062806755 0.01379202 0.008521634 0.0023081482 0.00038599866 0.016208746 0.00460854 0.01663089 0.007092557 0.011009992 0.010155255 -0.01546588 -0.011507856 0.0025409018
object 0.00037537393 0.0043783523 0.0023275672 0.015178679 -0.008683246 0.0002574128 0.014494035 0.0051537487 0.008127691 0.008490814 -0.0023986015 -0.01728706 0.0062080063 -0.017367063 -0.005231111 -0.018558549 -0.0005836461 -0.015450875 0.014343115 -0.009948664 0.019902248 -0.017716432 -0.008308901 0.003762409 -0.0057758195 0.0028268911 -0.0076859803 -0.0015237561 -0.011702476 -0.020000959 0.012723466 0.00074574776 0.01282989 -0.015034015 0.007038399 -0.019752584 0.015810523 0.011956509 -0.011888109 0.016118059 -0.010777977 -0.017163381 0.0029767852 0.0063651763 -0.015798591 -0.017730238 0.018341305 0.0030290673 0.0018292826 0.0050501027
basic -0.0070348955 0.0035202566 0.0039782985 0.019739203 -0.011091464 0.004444941 0.013109015 -0.0128578525 -0.018037561 0.01719494 0.013796749 -0.008401491 0.011549925 0.0017768001 -0.0100301 -0.0024440396 -0.0095870495 0.012432233 0.003678437 -0.016732685 -0.00020768373 -0.0051141544 0.013455494 -0.0023736702 0.015582004 0.003688523 -0.007879565 0.01647866 0.005738823 -0.008252897 -0.01107628 -0.006156778 -0.010386409 0.006813895 -0.018637314 -0.011512395 0.0070098215 0.00044511698 0.012286475 -0.0074977684 0.00031588104 0.00485654 0.010846733 0.0031669706 0.01997089 0.0076207127 -0.014412105 -0.0030924154 -0.016701499 -0.010639446
latest -0.004640416 -0.019288037 0.01865827 0.0040312256 -0.0019158563 -0.011380381 -0.016853102 -0.0192313 0.01761199 -0.005124878 0.009253384 -0.009571646 0.01976275 0.007679543 0.0024262813 -0.008128574 0.002591943 -0.005301593 0.014500664 0.008737667 0.0021061213 0.0069963387 0.00782766 -0.013660922 0.018286305 0.0035798189 -0.011763807 0.017411264 -0.002894845 0.016176637 -0.0029592542 0.013938764 0.0052471743 -0.009141485 -0.007583426 0.018475084 0.003735937 -0.011968995 0.001169233 -0.004245325 0.0035607219 -0.015511134 0.014426185 0.002643712 0.016134955 0.00916714 -0.00897454 0.0074029565 -0.00090958364 -0.01958164
solvabl 0.016561123 0.019405074 0.019502273 -0.0077191 -0.016703188 0.009528572 -0.015073775 0.017521108 0.0054174685 0.01109952 0.012423282 0.0006948333 -0.0040782257 0.0016137337 0.01977264 -0.014238867 -0.0030956473 -0.0045948443 0.009464446 0.012797976 -0.008180118 0.007352153 -0.008683724 0.0066911066 0.016554523 0.0072000013 -0.0092861755 -0.0059765982 0.015623804 0.019042673 0.011696388 -0.0064327987 -0.0038376662 -0.01275926 -0.008663393 0.006757228 -0.012627567 -0.013206477 0.016430657 0.018860826 0.01662135 0.0030038352 -0.017589279 -0.015191995 0.0034080409 -0.018976912 -0.014892224 0.0039867996 -0.005753557 -0.018495144
never 0.012665772 -0.017793665 -0.0146226315 -0.0037235061 0.0036349222 -0.0024464957 -0.010287721 0.013620941 0.01756474 -0.015045222 0.019716417 0.014190174 -0.015000088 -0.0036269606 0.008744684 0.014310537 -0.007242588 -0.013928676 0.00924869 -0.01824097 -0.011612399 -0.0024184007 0.011277323 -0.011299099 0.009801281 -0.0008099739 0.0051750923 0.012891928 0.002628236 0.0152302375 -0.00056349364 -0.016463844 0.01819856 -0.009910119 0.009302829 -0.007823812 -0.0140807815 -0.013017757 0.009483257 -0.0014324647 0.0032685534 -0.017917568 -0.010341677 -0.012121563 0.01709109 -0.017123686 0.00999166 -0.0018215213 0.00055019197 0.017581796
truli -0.0071969735 -0.013381324 0.0017212366 0.015503942 0.018518297 -0.00790714 0.006200952 0.010832963 -0.011070734 0.013411683 -0.012725805 0.003384233 0.008911024 0.009268593 -0.009111114 0.0055441717 0.015101635 0.017249994 -0.019792756 0.010835982 0.010058075 -0.0028300958 0.019033642 -0.0084215095 -0.0032216848 -0.013768976 -0.007945033 0.0007343446 -0.0071060006 -0.011023494 0.013487728 -0.010532361 -0.012968216 0.014786134 0.019082578 0.008080724 0.00083493616 0.0017235198 -0.0014268623 0.013317148 -0.012135409 0.00093830354 0.00826962 -0.004246561 0.0024046332 0.0076658386 0.019316794 0.003966948 0.019324543 -0.011592699
valiant 0.009785976 -0.0069622975 -0.008489211 0.0022239173 -0.008171701 -0.011617085 0.006676378 0.017276414 -0.013418473 -0.018512009 -0.006599379 0.014877986 -0.019457502 0.019470079 -0.0005647313 0.004834482 -0.0038529173 -0.011491305 0.0058794566 0.012357266 -0.014114012 -0.0021602104 0.0035330716 0.008424254 0.01455199 -0.0071999757 0.014579413 -0.011140398 -0.0047323364 0.01815745 0.010812049 -0.016856156 -0.0034602294 -0.0178476 -0.0034511623 0.011432975 -0.014499949 0.01122597 0.0124154035 -0.0077772345 -0.018931739 -0.005074745 -0.005209669 0.0073937755 0.018488033 0.0042796293 -0.004194666 0.005920251 -0.013402913 -0.0026947814
10 -0.0028085965 0.019390002 -0.011568486 -0.014396846 0.0049704835 0.004932113 -0.013923276 -0.011019421 -0.0027307996 -0.0069839936 -0.017877998 -0.008657241 -0.006092995 0.0132821 0.0017485955 0.003500124 0.00069634157 -0.006483435 0.0060165054 0.0011354996 0.01203247 -0.0015097919 -0.017403275 0.0018070181 0.020280931 -0.010642429 -0.010814879 -0.0050835134 0.016855037 -0.00200055 0.01895356 -0.01651822 0.017999724 -0.019779675 0.018232888 0.0038197257 0.0060038306 -0.011720435 0.01715875 0.01165709 -0.010406639 -0.019101 0.013809389 -0.0111222165 -0.01837283 0.005527813 -0.01014718 -0.014907585 0.019765044 -0.0030357342
gregori -0.0030451065 -0.007633237 -0.008771397 -0.009568865 -0.0108320825 -0.010967425 -0.015772747 0.019805854 0.0125246 -0.0075385 0.005062932 -0.015585149 0.015025153 0.016897025 0.0019755398 -0.013503237 -0.0058833673 0.009528744 -0.006238129 0.0061896676 0.018780168 0.008993711 -0.009885617 0.010876672 -0.005360304 -0.01269983 0.013970744 -0.018544016 -0.0026024883 -0.0027633756 -0.016826216 -0.002135976 0.0109690195 -0.010717099 -0.014271207 0.012532196 -0.0064077144 -0.015527612 0.0010219847 -0.0003738274 0.015507733 0.0011747974 0.015624183 -0.019790947 0.008689164 0.012747862 0.0020764132 -0.0057042856 0.0023610445 -0.0018879881
15 -0.016288025 -0.013330928 0.0023456502 -0.0042524273 0.019388698 -0.0022414422 0.012626701 0.004706482 0.01582733 -0.018993707 0.0047943466 -0.0033909858 0.00404509 -0.00016639911 -0.013243092 0.018533546 -0.0055561583 0.003898709 -0.0129798455 0.007025737 0.01995932 -0.0023394094 0.01361178 -0.00025199904 0.016294118 0.019213215 -0.0010287109 -0.003601206 -0.019456469 0.019660562 -0.0048895054 0.0044637364 -0.0032827393 0.016263148 0.016738651 0.0032308074 0.006322274 0.012866283 0.004734753 0.012333714 0.0007980025 -0.0047156964 0.010429652 -0.006963839 -0.0048788763 0.017994644 -0.018510252 -0.007001956 -0.0056010704 0.011470356
michael 0.015899051 -0.012651428 0.011581613 -0.00057126186 -0.01791313 -0.00511225 -0.0029019185 -0.00844693 -0.0018639477 -0.010755039 0.011979941 0.01825909 -0.0032717192 0.0069718547 -0.0013571909 -0.0010910679 -0.013977252 0.0029922996 0.007428804 0.013906013 0.01296841 0.0072373385 0.009688623 -0.014851638 -0.0024611922 -0.0115948515 0.013550022 0.015642187 -0.00888835 0.0021383571 0.010266531 0.0037193466 0.0013769729 -0.013497703 0.019443085 -0.014462411 -0.011515823 -0.011278919 -0.01246945 -0.007066689 -0.018422196 0.0022361951 -0.007464764 -0.005076039 0.012094398 0.007322435 0.0036066659 -0.0028200375 0.01984763 0.00049451744
nisan 0.010163354 0.018289104 -0.019528853 -0.018532004 0.019987775 0.0052539892 -0.0035314034 0.009894945 -0.008884658 -0.013034047 -0.016443193 0.014245399 -0.004971404 -0.014886881 -0.011632325 0.012458663 -0.0049240403 -0.0122353025 -0.0034165676 -0.0029826865 -0.0065815873 -0.004040574 0.008587373 0.0029222898 -0.006812188 0.0052704606 0.010322413 -0.018513525 -0.015341211 0.01261668 -0.017830951 0.0010744858 -0.018150123 0.01656097 -0.008751315 -0.013234998 -0.002439012 -0.0021635212 0.015286032 0.018108932 -0.00028037696 0.005315435 0.009458691 0.00021676013 -0.011200687 -0.00092543266 0.004322255 0.016538415 -0.0070354748 -0.019838234
def 0.010734571 0.019688603 -0.014166124 -0.0011640013 -0.0100396555 0.012804175 0.019380305 -0.00047214446 0.010170404 0.012941022 0.008902155 -0.016133085 0.00624475 -0.0028789463 -0.0042612725 0.010883806 -0.0025752434 0.019884761 -0.0013528715 0.0005489178 -0.004612869 -0.01702721 -0.019478874 0.009811336 -0.013077724 0.00587156 0.005458857 -0.014004295 -0.0063577243 -0.011646178 -0.017086769 2.2788772e-05 0.019534718 -0.0134605765 -0.008735561 0.01667558 0.018703582 0.019650867 -0.01972739 0.009995688 -0.013182512 0.013777437 0.012255355 -0.0067772423 0.01389332 -0.015642982 0.009134733 0.009121282 0.011862621 0.011764508
g -0.0054791593 0.008118132 -0.012236437 -0.013165619 0.005800959 -0.019257626 -0.00024121099 0.0026982913 0.015809894 -0.0142191285 -0.004661417 -0.008870994 -0.010454626 -0.00067478936 0.009320813 -0.009774862 -0.003122719 0.017523278 -0.0029104578 -0.0073584826 0.0149785625 0.002665372 -0.000378243 0.019010615 0.016631434 0.006897921 0.0065589547 -0.0044928514 0.016042272 0.0099514015 -0.010718982 -0.012302659 -0.0012991981 -0.016128287 0.0065706917 -0.018356763 -0.0024786014 0.0067962315 0.006397687 0.006002267 -0.017843077 0.0068047857 0.0106398035 0.0068530105 0.015816249 0.0034570736 0.012457149 0.0175962 -0.0018498377 -0.0015084612
tiebreak 0.004450755 -0.014905962 0.0111457985 -0.0099877715 -0.006362106 -0.003955051 0.016679078 0.004945313 -0.0019596864 -0.005797619 -0.0041155736 -0.0027835718 -0.010195053 -0.0080694305 0.0005253736 0.009207935 0.0035266809 0.013799858 0.0010635874 -0.006694963 -0.014665893 0.012133521 0.014156482 -0.012085968 0.009626699 0.018783674 -0.012859199 -0.0057787923 -0.01847063 0.006312248 -0.006794433 0.0041750493 0.018838454 -0.016948968 -0.018565467 0.0035411364 -0.015702257 -0.018013578 -0.018544912 -0.0008580457 -0.0018887286 0.0014667882 -0.0029249808 0.018018289 0.01782703 -0.012550355 0.017361999 -0.01802048 -0.0025160748 0.005041347
aviv -0.00016830803 -0.007392843 0.0008628609 0.001958195 -0.01876718 -0.009888187 -0.015250912 0.007918503 -0.0019105482 -0.01512311 0.011297341 0.00038611877 0.005371928 0.010949345 -0.008372627 0.015781073 -0.015780112 -0.0069113495 -0.014900644 0.002101725 -0.014877846 0.018205827 0.011235331 -0.014494492 0.012447153 0.013105038 -0.014776692 0.009243973 -0.015655484 0.018695654 0.009418826 -0.00045234946 -0.017952576 -0.0018002851 -0.0006362087 0.0018650924 0.017416429 -0.005514913 -0.017146006 -0.017725054 -0.002044855 0.0026732157 0.00021985214 -0.0044521103 0.01735041 0.0003822911 0.012879275 0.007924348 -0.014359762 -0.004372652
roommat -0.015517453 -0.013281299 -0.006419097 0.013206018 -0.0013956706 0.01746194 -0.0044388357 -0.010069131 0.0075369785 0.0043630265 -0.00033938128 -0.004999025 -0.012041262 0.0084485235 -0.014886266 -0.01776592 -0.01821368 0.01674397 0.007741669 0.013996543 0.01991037 -0.014503872 0.008459542 0.0055573047 0.012503755 -0.006909108 0.018454093 -0.011638854 0.013905377 0.013733773 -0.00068223634 0.010190874 0.013174482 0.002934809 0.014634792 0.0048438497 -0.0026664487 0.014961756 0.009581528 -0.0067467997 0.0036903594 -0.0002354811 0.009774202 -0.010732552 -0.00825541 -0.00165857 0.007692387 -0.013098788 0.015677834 -0.006034619
satisfactori 0.01146334 0.0060213683 0.013807376 -0.008967486 -0.006242934 0.005672715 -0.005105839 0.012711441 -0.012333125 0.004838662 -0.0012915592 -0.0017964528 0.0050606313 -0.0039255093 -0.00808238 -0.016942287 0.005184417 0.010744338 -0.012210844 0.017985908 0.00806574 -0.00992658 -0.002145457 0.007848554 -0.01368628 0.0040033497 0.0107045965 0.012573128 0.010528178 0.0070969327 -0.0053413636 -0.012139564 0.01610812 -0.014953043 -0.0035080523 -0.006406312 0.013663132 -0.012555289 0.0072595635 0.003836464 -0.007655915 -0.016496142 -0.016231937 0.007042059 -0.018516995 0.011698804 -0.0059591145 -0.018494451 -0.009982127 0.01548444
answer -0.0034981903 0.013194865 -0.018480903 -0.018321231 -0.010200162 0.0013748417 -0.01365231 -0.01790395 -0.018334534 -0.001300634 0.0148904985 -0.017481182 -0.010693678 0.003574524 0.006957553 -0.016624454 0.01598078 -0.016368162 0.009033722 0.018605705 0.011437186 0.012738232 0.017066658 0.006980635 -0.013839589 0.01129342 -0.01699438 -0.011209406 0.011376918 -0.016029852 -0.011586484 -0.007135776 0.006683624 0.010181961 0.0038836217 0.010419101 -0.0044104294 0.008690548 -0.0137960445 -0.003833667 -0.015067096 0.00030683758 0.00913068 0.009580584 -0.008809633 0.0038489485 0.01555629 -0.011540521 -0.0074680652 -0.0010344541
domin -0.009379473 0.017573886 0.015146291 0.018470902 0.018932298 -0.016994942 -0.0007088909 -0.014835239 -0.009671637 -0.017817281 0.006918476 -1.279338e-05 -0.013813769 0.01592158 0.001958009 0.0007707292 -0.0070201363 -0.006656135 -0.0054649143 0.015036525 0.004730716 -0.010222741 0.009699052 0.001970557 -0.005216574 0.015394933 -0.008086174 0.014875142 -0.0086015295 -0.014748428 -0.0089833075 -0.007663659 -0.0014812016 -0.0038150933 0.010066668 0.0109764 -0.0033353693 0.0074270396 -0.0038681305 0.0012557723 -0.0024843235 -0.004979524 -0.009554408 -0.008602559 0.0004922551 0.0034251101 -0.018991938 0.012006693 -0.0033427165 -0.0060024834
overview -0.009603739 -0.008348574 -0.009543919 -0.019644318 -0.001324136 -0.015866125 -0.009289801 -0.014196102 0.01972249 -0.0028754508 -0.015500194 0.010578628 -0.01615571 -0.0036524218 0.005647998 -0.01399846 -0.017307276 -0.013205918 0.014755366 0.017997492 0.007911603 0.0050021587 0.008564251 -0.008199988 0.019771485 0.013695604 0.008045074 0.017883625 -0.01707178 0.001618501 0.017750582 -0.0018725804 -0.013566985 -0.004615783 -0.005780819 -0.0050294376 -0.003279099 0.014517639 -0.00035145725 0.008204658 -0.0071681594 0.0164527 -0.013159677 -0.018728737 -0.007955512 -0.0145672355 -0.009760891 0.000822103 0.004736383 0.0035046882
exist 0.010023796 -0.0025882605 0.0046157767 0.00046086306 0.015909499 0.015493554 -0.0032690535 0.0032464436 -0.012540241 -0.009884013 -0.01373383 -0.0006973331 -0.009871168 -0.007866364 0.00313846 0.005571111 -0.018125946 0.0037870144 0.009865128 0.008139184 -0.0057515386 0.01926749 0.01942409 -2.360217e-05 0.0020089142 -0.018737566 -0.009832493 -0.00024316846 0.007924143 -0.0001256534 -0.017364003 0.011693502 -0.014916693 0.01681137 0.010892696 -0.01347379 0.0065332 0.015530791 -0.011980642 -0.013542111 0.018849535 0.0036864602 0.019319225 -0.019884208 -0.002504327 0.0141299125 -0.0029553513 -0.003688798 -0.013940288 -0.011361693
identifi -0.013173753 0.018154113 -0.0031497057 -0.016557546 0.016349593 -0.006229493 -0.0023949877 -0.0006696939 0.0055365637 -0.009606738 -0.0004041402 -0.0062557654 0.017586434 0.014168088 0.002431514 -0.011987461 0.0065352325 0.0023208365 -0.01254753 -0.011688755 -0.006086469 0.0049625486 -0.015813313 -0.010008302 0.016483426 -0.00746812 0.015679568 0.0010677301 -0.011302046 -0.010174481 -0.00034192103 0.009221496 -0.012273705 -0.011322292 -0.013750259 0.013458908 -0.0043106643 0.008044051 -0.0028764987 -0.015128163 -0.002229962 0.0009358644 0.007005688 -0.01740259 -0.01333931 -0.013020317 0.0060764635 -0.0076484717 0.0021147795 0.0083711995
realli 0.009001271 0.004885053 -0.0056297705 0.0012630643 -0.010664274 -0.0130290985 0.017714925 -0.0076962644 -0.01886312 0.0073060626 0.01714436 -0.00068400765 0.0044975574 -0.0069728494 -0.008335123 -0.016930155 -0.015690949 -0.018101763 -0.0122320615 0.016889162 0.018785913 -0.0031905598 0.0003605494 0.015530623 0.0028391741 -0.010428897 0.005175525 0.0036237137 -0.00764829 -0.010100906 0.019406168 0.01539773 -0.017201 -0.011116222 0.0027864568 0.0019120023 -0.016378112 0.01873241 -0.010520867 0.008921966 0.01881022 0.002140646 0.008291673 -0.00545838 -0.019096315 0.0012701759 -0.0022120415 -0.019917518 0.014086727 -0.014800349
locallyr 0.010197022 -0.008557938 -0.018210119 -0.018031169 0.012627225 -0.010819192 0.010822774 -0.0026574899 0.019182445 0.014197651 0.019967157 0.016424697 -0.015716072 -0.019009264 -0.011030696 -0.0011682116 0.01002616 0.0073580183 -0.0044347546 0.009869018 -0.0069287946 -0.013362121 0.009783531 -0.01982716 0.0020709517 -0.010054084 0.014988207 -0.007423239 0.0054366 -0.012813401 0.019385723 -0.01095312 0.0069738072 0.006473275 0.017732648 -0.010933577 -0.008318656 -0.012454027 0.012631022 -0.009606727 0.009977586 -0.0018489584 0.014361553 -0.012073745 0.00013858463 -3.8311315e-05 -0.017090924 0.017335562 -0.0041217767 0.012690299
ask 0.00013494643 0.010264144 0.0044357562 0.017800963 -0.016381312 0.01645905 0.017727742 0.0028658456 0.008669333 0.007479664 0.008365692 -0.006454234 0.0058545554 0.002038856 0.009860257 0.017260568 -0.015518869 0.0002840234 -0.017977634 -0.0034081938 -0.018025026 0.0066903774 -0.0025014407 -0.0014677664 0.013211167 -0.016334452 0.002029485 -0.0049109235 -0.007757844 -0.014816784 -0.01574608 0.016765762 -0.014950437 0.009540015 -0.007839032 -0.002226545 0.0061716586 -0.017053105 -0.010936075 -0.015958514 -0.018294275 -0.00948821 -0.0065860157 0.0010567282 -0.0009217211 -0.015574731 -0.007497897 -0.0057851444 -0.012762825 -0.01291819
practic -0.0052157375 -0.015643964 -0.016485434 -0.015109871 0.0072966632 -0.015524864 -0.0069295852 0.013715346 0.01449561 -0.01294322 0.013800359 -0.015958367 0.00036074023 0.013555207 -0.0054541556 0.018659603 -0.0006268902 0.009479864 0.013659526 -0.017399356 -0.01209251 -0.014293575 -0.0019444996 -0.014316523 0.0004480335 -0.016279427 0.00084402243 -0.0007993933 0.012636384 -0.01804755 -0.0062727425 0.011847068 0.018493334 -0.0036421116 0.0013929567 -0.012206891 0.0020470321 -0.016195508 -0.015138062 0.0023240058 0.00028161256 0.011060043 -0.01974807 0.0033413784 0.003520172 -0.010338399 0.00018780553 0.011893266 -0.013310885 0.00047163232
employ 0.0077121696 0.0038401766 0.0057538426 0.016386488 0.013604119 0.006501669 0.016473815 -0.014572753 0.014716446 0.007540313 -0.011681884 -0.0090164 0.0127040455 0.012000601 -0.019336084 0.002750391 -0.00081884983 0.0016556795 0.013687307 -0.014761557 0.019382231 -0.018600127 0.012904927 0.018946951 -0.00725215 -0.019067377 0.012132143 -0.017870571 -0.016943071 -0.0020225437 -0.013401139 0.017584473 0.015760506 0.0013665347 0.015744409 0.019795451 0.011026357 0.008669892 0.011144197 0.012284818 0.009951934 0.012783283 -0.015227364 0.017466396 0.01699664 0.018998517 -0.018053334 -0.007104873 -0.00057814707 0.00837818
often -0.01638407 0.00064505095 0.012087069 0.019186653 -0.005367985 0.0031005829 0.013208871 -0.0032617743 0.0034980064 -0.018798895 0.0016521765 0.008746215 0.0090017365 -0.019189732 -0.010000339 0.0061912904 0.0031932748 -0.009273318 0.01105041 0.00687524 -0.015583838 0.020005487 -0.014953258 -0.0062351376 0.019787338 0.0018295313 -0.011257188 0.0022587327 -0.008470213 -0.013973624 -0.015406803 0.009445794 -0.018210895 0.007881987 -0.011225275 0.010999922 -0.008031673 -0.011094641 0.01312876 -0.017864801 0.0031366395 -0.0042958762 -0.013591556 -0.015242119 0.014073903 -0.008609758 0.0090598725 -0.01948363 0.00398876 -0.003959039
regretminim -0.011768983 -0.005505911 -0.017285239 -0.0069704684 -0.005078137 -0.0047684326 -0.010077837 -0.018075673 0.010576476 -0.0027263486 0.012476481 0.005925767 0.0170971 -0.006776326 -0.017714098 0.0027520305 -0.017808085 0.012151671 0.016706413 0.0009861594 0.015480412 0.017197637 0.008670671 0.010769863 0.018445065 0.0023035049 -0.016709533 -0.016644998 -0.0037374285 -0.0013453108 0.017724494 -0.018598575 -0.005255234 0.018059291 -0.0029145475 -0.018073633 0.004286258 -0.011647613 -0.010839313 -0.012878139 0.0004873959 0.014415772 0.008157059 0.01631685 0.017876174 0.009173926 -0.01211472 0.014038303 -0.018972188 -0.009511906
betterrespons 0.016056828 0.01612344 -0.010850687 -0.015974395 0.01629546 -0.008000571 -0.007829741 0.014904555 0.010466419 0.007507007 -0.002362475 0.016887749 0.016925242 0.014255105 0.018351 -0.011383244 0.0021092705 -0.003123902 0.012308811 0.019196624 0.010449873 0.008441722 0.013447808 0.011651064 0.00036654304 -0.016832171 -0.0046342174 0.01822763 -0.010376103 0.0017779435 0.009877156 -0.013849194 0.0164163 0.0026599208 0.0047057695 0.016773153 0.003385371 0.0018596459 -0.018588126 0.019307744 -0.01950439 0.01717557 0.009866517 -0.0002141465 -0.015445513 0.018846702 -0.0027676243 0.010568422 -0.0059193633 -0.009705169
local 0.00029481668 -0.015966551 -0.013128199 -0.01900826 0.010710739 0.0006353144 -0.0016158636 0.0105849225 -0.004113602 -0.014810414 0.005845852 -0.012245215 0.00096549187 0.019219553 -0.00171843 0.01241782 0.00907147 -0.006920454 -0.010694634 0.01761021 0.004348909 -0.00080663693 0.002173368 -0.009753256 0.0071371663 -0.0062089316 0.00819144 -0.008978087 -0.0016493507 0.0076977727 -0.014161973 -0.0050651957 -0.017547362 0.0029723777 0.0040300037 0.0048681125 0.0025753737 0.0003303253 0.004535751 -0.0020455292 0.012141803 -0.005940532 -0.0102502005 -0.010610313 -0.019130265 -0.01615126 0.004229573 0.007840776 -0.011450137 -0.019287093
quickli -0.012500632 0.0100629795 -0.018052395 0.009993313 0.013362305 0.011532083 -0.014549853 0.006866448 -0.011347666 0.017775122 -0.00834789 -0.005611552 0.010423138 -0.0012012457 0.01062355 -0.0079594795 0.0102068335 -0.01962035 0.011757169 -0.0029532162 -0.011302326 0.00040652356 -0.0017587116 -0.0015121201 -0.0028449066 -0.018594423 -0.01606989 -0.013732167 -0.01782664 -0.009695679 0.018636556 -0.0034955475 -0.015427601 -0.012183215 0.006795618 -0.0053127017 -0.0020679554 -0.008554781 0.012675102 -0.016608367 -0.0141483145 0.015241874 -0.014254985 0.004163109 0.0013390727 0.01972696 0.008267632 0.0038370555 0.0056437207 0.0046320767
initi 0.0042865807 -0.00491962 0.008152314 0.012300615 0.01824557 -0.0020771513 -0.0018954794 0.013727912 -0.017386567 -0.0015070115 -0.013011794 0.008963968 -0.017852085 0.006952868 0.018579131 -0.003964531 -0.01754 -0.016359422 0.0061857197 -0.011104824 0.012965701 -0.0021674484 0.016183853 -0.0012262074 -0.011932281 -0.0115999235 0.001262283 -0.0096273 0.012710513 -0.007455168 -0.011047602 0.0020027533 -0.009727787 -0.016736021 -0.010640926 -0.0035772014 0.0016004621 0.0074994955 0.014203964 0.012841554 0.012255995 0.0006464842 -0.012021937 0.017932964 -0.0008821043 0.009694913 -0.0027885328 0.011532837 0.010678782 -0.014550611
point -0.005602564 0.00063964725 0.0042553125 -0.018720808 0.010394977 0.0059892386 0.00015592358 -0.005774527 -0.015691003 0.014936172 -0.01702504 -0.015672103 0.00883906 -0.016592957 -0.0059346985 -0.003935625 -0.0034259306 -0.013702235 0.008258202 0.0015087028 0.00725281 -0.0024569326 0.014609503 -0.01924558 0.012283149 -0.0105163725 0.0029617625 -0.0139602395 -0.0054439395 -0.013479983 -0.006544211 0.019633051 0.00508723 0.0027430889 -0.0125617385 0.011105123 -0.015226377 -0.0044997158 -0.012468276 -0.013392715 0.005417137 -0.006370497 0.0045624548 0.0077481805 -0.012028509 -0.0030336578 -0.005307683 -0.019788694 -0.019562336 0.002418057
cover 0.008752024 0.00086382555 -0.009724598 0.0070181373 0.003761469 -0.019229874 0.014748354 0.016284524 -0.015781308 -0.0017753488 0.012287159 -0.0060164486 -0.0008073873 -0.0081840735 0.01262606 0.014165319 0.004498248 -0.00933833 -0.0038961575 -0.008202386 -0.019508824 0.015665412 -0.00083258835 -0.001243214 0.014501487 -0.018033007 0.0123413075 -0.015160272 -0.010944429 0.009885471 -0.0068330485 -0.006881318 -0.012915275 -0.008111825 -0.0054911724 -0.008129874 0.01953716 0.019045198 -0.000297264 -0.00090334966 -0.010793232 0.015823402 -0.010014132 0.01179179 0.018568918 0.011756975 -0.0019050195 0.010966266 0.0140961 -0.007685782
sever 0.0011131273 0.013460891 0.011755678 -0.0002964084 0.0052722287 -0.013417502 -0.018275589 -0.009120645 -0.011259585 0.0012125975 -0.0076958924 -0.0012297119 0.015379138 0.019720564 0.016271872 0.004828952 -0.005223921 0.004953723 -0.005661233 -0.018224284 0.013805158 -0.017047634 0.008107768 -0.008015724 -0.010517238 -0.0023007882 -0.013417893 0.017131133 -0.0140248425 -0.018536909 0.011699404 0.008967872 0.009318715 0.0044518984 -0.0075690234 -0.010143492 0.004209356 0.016813487 -0.010803163 -0.0053187236 0.0042275377 0.013669307 -0.013169718 -0.009081037 -0.0051194243 0.0029533918 0.010812177 0.011005455 -0.017367598 0.014498419
import -0.0051422734 -0.0053601745 -0.017650345 -0.011652795 0.019249763 0.0057635764 -0.015738167 0.0061967405 -0.014410297 -0.018193118 0.0077433246 0.003559437 0.0024282893 0.018058373 0.0126973605 -0.009946112 0.005733829 0.005048428 0.004651854 0.016506443 -0.0136061935 -0.004452771 0.0025352433 0.01268726 -0.0009457169 0.015702436 -0.009561015 -0.018005757 -0.014368468 -0.008629768 0.019331617 -0.010212903 -0.009749038 0.016093763 -0.015075273 0.0038777282 0.011955264 -0.014923194 -0.00014465002 -0.005077417 0.011394477 -0.009075471 -0.013360268 0.019793872 -0.009080808 0.015491831 -0.016725741 0.013913608 -0.0068416195 -0.01546062
cost -0.0025541394 -0.004086985 -0.003528806 -0.0021433842 -0.012588733 -0.0077365395 -0.005985992 0.016283492 0.0110765975 -0.0021043366 -0.009378993 0.009986312 -0.01782149 0.0037309066 0.008605119 -0.0035941862 -0.008843564 -0.01638652 -0.01705182 0.013747301 0.0071411943 -0.00057817984 0.020059064 -0.01723122 0.0017471885 -0.0010307919 -0.016599191 -0.018232252 0.013943912 -0.0077236844 -0.015635706 0.016024187 -0.01275261 -0.006530215 0.003296033 -0.0065916064 -0.015072055 -0.00775605 -0.017489964 0.0020477078 -0.008669831 -5.985512e-05 0.004797067 -0.0047302134 0.01806945 0.014419128 -0.0012533765 -0.0013431446 0.001826663 0.013617341
share 0.01781897 -0.0033803894 -0.0031752798 -0.0057832864 0.0012632825 -0.013339732 -0.0035486107 -0.016640414 0.00095970393 0.0026965109 0.007664696 -0.0060682185 0.011909112 -0.013655131 0.020068642 0.0010982329 0.0045506177 0.008644412 0.000493636 0.0049031484 0.0033279252 -0.019094113 -0.0058382023 -0.0052264887 -0.01811389 0.0066752555 0.009369417 -0.0041238684 0.014515761 -0.0026665987 -0.0003888512 0.011619634 -0.017069515 -0.014023033 0.014406567 -0.013013724 0.01739489 0.010748547 -0.015810115 0.016287414 0.012791921 -0.013399845 -0.017245375 -0.017659996 0.007936449 0.012976629 -0.00423089 0.002614748 -0.016747678 -0.010306158
stabl 0.0094836885 -0.01785464 -0.01852104 0.001981579 -0.017081385 -0.014135213 0.009818668 0.016550949 -0.015046133 0.016013613 0.018827194 0.009245313 -0.008845836 0.019758603 -0.015093987 -0.007686708 0.003893221 -0.015244845 -0.020001587 0.0055155833 0.016469607 -0.010242425 -0.008257666 0.0078540975 0.001626564 -0.017136281 0.01291902 -0.0063112197 0.00694715 0.006241587 0.01770542 0.017529547 0.014580101 -0.016807871 0.0024057236 -0.0018492568 0.0022055323 0.018030971 0.009744534 -0.018186213 0.019879354 -0.0017210377 0.00052112417 0.009818097 -0.012142172 -0.00056362996 0.0028306905 0.014154402 0.0086997915 -0.0038578422
alway -0.016951844 -0.007561198 0.017508185 -0.018992646 0.019850364 -0.0005385769 -0.0021024237 0.019526368 0.019014835 0.016446572 0.01819083 -0.02018308 0.015068153 -0.018562037 -0.015375304 -0.017522573 0.0043755807 0.014416037 -0.012850087 -0.005442578 -0.004769479 -0.00886222 -0.0023586662 0.009724601 0.0075447396 -0.006565507 -0.0075927544 -0.004640656 -0.0066145603 0.0077147493 0.01963107 0.015777554 -0.015256132 -0.012872049 -0.018380707 -0.011852514 0.007509046 -0.012008206 0.003555713 0.017661465 0.006864712 0.0024008914 0.017813392 0.012774042 -0.0027052409 -0.012312323 -0.002134382 0.014481861 0.014968038 -0.008189125
character 0.019710753 0.0055385823 0.010611692 -0.011523113 0.009156076 -0.00015162982 -0.018809194 0.010978525 -0.01849103 -0.013257073 0.005757546 0.017670272 -0.0042590247 0.01426137 0.010869384 0.00841401 -0.0123572145 0.010354761 -0.017099679 -0.009045132 0.010839809 -0.016170673 0.01190859 -0.0069211326 0.00046002795 -0.0146312015 -0.012774167 -0.0066049066 0.016968427 0.010344632 -0.019436168 -0.013041802 0.006682811 -0.017541042 0.013155723 0.012584981 -0.017544203 0.017352367 0.016362242 -0.004065886 0.004293882 -0.011420805 0.01208597 0.01546248 0.008748244 -0.01738641 0.009706269 -0.0063609714 -0.003970687 0.012167056
crude 0.0037241299 0.009354283 -0.0125409905 0.010463597 -0.0067709996 -0.00095950393 0.012756827 0.008618304 0.014683528 -0.008016027 0.0070989174 0.014342227 -0.00663773 0.011732257 -0.018568596 0.017930618 0.0075371317 0.010701421 0.009166942 0.008938059 -0.0065864897 -0.012381004 -0.00430781 0.0026836104 -0.00569566 -0.017023193 -0.012717751 0.016747242 0.01852732 0.011836629 -0.008163697 0.0014283423 -0.01716509 0.013179541 0.0009979992 0.014851141 -0.010456165 -0.0056297886 0.006035354 0.006773484 -0.012829062 -0.014801683 0.0038516237 -0.018018598 0.011924494 0.01117185 -0.007704199 -0.011277256 -0.016511787 -0.0038566778
leav 0.014024744 -0.00023654361 -0.015935011 0.017571326 -0.016954774 0.011001958 0.013473207 0.0025156199 -0.017525358 0.012159693 -0.01569982 -0.010340492 0.019297652 -0.016438408 -0.015202335 -0.009619352 0.007090734 0.0041184826 -0.011318358 -0.006642894 0.017243665 0.019584367 0.020151153 0.0022469633 0.008353496 0.002646855 0.0031745082 0.009799572 0.004145101 0.0005351205 -0.0063249725 -0.013074477 0.015789265 -0.012146658 0.0055242213 -0.0018177812 -0.0067675337 -0.009742652 0.006580653 -0.011875282 -0.014815855 -0.005390054 0.009380246 0.012057091 -0.0026331584 0.014760894 -0.015160897 -0.009569687 -0.015625607 -0.012052111
market 0.014313712 -0.018246835 -0.01719239 -0.019802189 0.018725736 -0.005865484 0.0025421516 -0.011636987 -0.0054696617 -0.0001445306 -0.004871421 -0.015571995 -0.012509889 0.0053538596 -0.01853056 0.0025529934 -0.0039072386 0.016730644 -0.0013303056 0.012107889 -0.014221624 -0.014587136 0.011705104 0.0018738037 -0.009805643 -0.0055049676 0.017479397 -0.018428357 -0.007683492 0.0019088974 -0.0003175742 0.018895548 -0.00397231 -0.014403094 -0.015618578 -0.01971032 -0.014791836 -0.012044158 -0.011592654 -0.003309399 -0.0004908558 -0.009357622 0.003980827 0.007701349 0.0184944 -0.008874126 0.009953109 0.014360189 -0.007186961 -0.014805982
match -0.0067459526 -0.013331728 0.013024446 0.01869277 0.01699307 -0.017587025 0.010717513 0.010929502 0.010744767 -0.017035646 0.0001425103 -0.0142575605 -0.018019073 0.0052502616 0.020082312 0.013294575 -0.013960632 0.004859557 -0.008425238 0.019639399 -0.017472226 0.019712409 -0.012425114 -0.013937665 0.0037746157 -0.0016790614 -0.017036755 -0.0012645938 -0.0011048185 -0.012681351 0.011753531 0.006435022 0.016601486 0.014420727 -0.013478381 0.009646316 0.012145381 0.011779862 0.010960559 -0.009962546 0.00925644 0.002444993 -0.00015857125 -0.012863121 0.0036784576 0.010862004 -0.01861227 0.01701864 0.006467586 -0.0002736752
probe -0.0068469304 0.00116325 0.012467275 0.00948796 -0.0116643505 0.015194249 -0.0007210639 -0.015576308 0.01739811 0.010061553 0.007296344 0.015250149 -0.0149922175 -0.011368245 -0.0036503472 -0.008057742 -0.0032165723 -0.0011059213 -0.017210027 0.0034323998 0.005098989 -0.0014182992 0.009969783 0.0028759642 0.012479277 -0.004531006 0.016816063 -0.0028792114 0.0057637906 -0.007896296 0.012296123 0.0062419423 0.00090235623 0.017274903 -0.015878089 0.019578882 0.0022564004 -0.0046094563 -0.007886969 -0.01889559 -0.003815515 0.005417602 0.012811896 0.018094826 -0.016931038 0.01813741 -0.01794748 0.0072496766 0.016347518 -0.0049651894
seen -0.015848773 -0.015909418 0.0026071614 -0.0017512817 -0.018678784 0.005590684 0.005084866 0.009870159 0.0084351795 0.00616311 -0.019630086 0.010705461 0.008426569 -0.0152661055 -0.0038067475 0.0010082346 -0.0011432904 -0.001745266 -0.011720258 -0.0002964909 0.009194196 -0.0011258717 0.0021560753 0.004301068 -0.0074795824 -0.015665753 0.01799395 -0.01942723 -0.005385852 -0.002734445 -0.015217807 0.0035191134 0.01558244 -0.003471458 0.016095884 0.0006708646 -0.01066752 -0.0038259395 -0.0009238935 0.011968193 0.014721614 0.012273477 -0.012234439 -0.014058576 0.01281025 0.005156336 0.01054168 0.00059664826 0.015960047 -0.017897451
actual 0.019585539 -0.016106984 -0.0031462929 0.012545083 -0.018054841 0.008147912 -0.0133267185 -0.012911347 0.0042626513 0.0033030668 -0.005448043 0.015024396 -0.014000532 0.0012280613 0.017904542 0.004520155 -0.013662811 0.0071810163 -0.0105216 0.00096860004 0.005872986 0.015473026 0.015353885 -0.009737897 0.019423317 -0.010909463 0.015045401 -0.015885951 -0.015965758 -0.0026535646 -0.016277898 -0.0068076225 -0.0014271353 -0.00018371936 -0.020150483 -0.012779039 -0.013905073 -0.000699357 0.010835553 -0.000548789 0.020831492 -0.007825908 0.015747704 0.012313958 0.017086225 0.00042420204 -0.001221638 0.003510882 -0.019437103 0.018017586
topolog -0.004948447 0.015465115 0.0044774804 0.005648146 -0.0021503882 -0.020511206 0.0034559267 0.0065241503 -0.020003814 -0.008055622 -0.004605084 -0.010968801 0.007872015 0.004458684 0.009053088 -0.012565269 -0.011829787 0.009619705 0.012986791 0.010734043 0.009581471 -0.014087647 0.01677605 -0.014144307 -0.014696701 0.01705317 -0.005279769 -0.018704941 -0.006547062 0.011527964 -0.0058075013 0.009990401 -1.4788856e-05 0.007981638 0.0019947898 -0.018586133 -0.006505648 0.01786354 0.0036727553 -0.012315373 0.014806926 0.014867047 0.014151081 -1.4893969e-05 -0.01763376 -0.0067194696 0.010091606 -0.013319379 0.019965678 -0.019262945
regardless -0.016445898 -0.009905565 0.012544194 -0.015794165 0.017789675 -0.020569865 0.008009103 0.007977576 -0.00055364135 0.0185317 0.010282934 -0.000423073 0.009551918 0.01313987 0.0067400574 0.019327652 -0.0023920918 -0.016361013 -0.009776566 -0.0037008252 -0.014455276 -0.0026791603 0.01671254 -0.010278513 0.011332496 0.008833795 -0.0019369664 0.0023911183 0.010739618 -0.0135756675 0.007853794 0.01807238 -0.0075562433 -0.0156231895 -0.018781072 -0.017575115 0.008974268 0.010549968 0.014720188 -0.003583376 0.0031888871 0.0060120975 -0.020200029 -0.018865954 0.010307952 -0.016445156 -0.0066535487 -0.009132035 0.012505706 -0.0068152286
fast 0.019801086 0.001985255 -0.009798184 -0.0077173184 0.0030473808 -0.011346556 0.015562485 0.019264435 0.008096129 -0.015192288 -0.011966343 -0.0009131983 -0.0022968543 -0.0108268205 0.016548429 0.012870668 -0.008003561 0.005326083 0.009576428 0.0040476364 0.01706824 -0.0023420379 -0.012395902 -0.0015935393 -0.015824577 0.020021757 -0.017682306 -0.0025588493 -0.006225434 0.0061330376 0.0099505 -0.016347447 -0.009165416 0.0005179038 0.007767942 0.010521249 -0.0016329677 -0.0012803657 -0.0149239795 0.008617609 -0.014419014 0.006270206 -0.0072000856 -0.015553885 0.014707938 -0.0006168083 -0.019511387 -0.019069633 0.0016515036 -0.016340498
compat 0.007276459 0.007668582 0.007096367 -0.011257359 0.016707385 -0.018644035 0.015732314 -0.00022658345 -0.0035731485 0.007615884 -0.0049110157 -0.009801059 -0.004941666 -0.012060596 -9.5525655e-05 -0.010474205 0.009435971 -0.01866961 -0.009254394 -0.018967025 -0.019027371 -0.001121204 -0.015552163 -0.01170154 0.0063460832 -0.0027263004 0.005912022 0.01679806 -0.019760182 0.011864094 -0.01591273 0.012985901 0.014493927 0.016689548 -0.016307216 0.006933976 -0.014615679 -0.00221023 -0.0097990325 -0.017498728 0.010885063 0.008690896 -0.008373267 -0.015294055 0.0079616895 -0.0073892656 -0.018034019 -0.009043917 -0.0039090766 0.017532503
incent -0.013319142 0.015379162 0.0127764 -0.010075823 -0.0027055242 -0.005575024 0.006852992 0.00027274448 -0.006024613 -0.018723978 0.013142911 -0.020193852 -0.017337127 0.0030339775 0.0068208966 0.00031664936 0.0008953092 0.0056463596 0.0028806974 0.014529319 -0.0068326383 -0.014146128 -0.015072056 0.01583704 0.0047424827 -0.011467629 0.012479838 0.01729286 0.015209715 -0.01404873 -0.010261379 -0.004000273 -0.013740887 0.009005957 0.011091428 -0.011781694 0.01574071 -0.015347469 0.013036972 -0.010007639 0.0048621106 -0.0066952202 0.006401341 0.015600153 -0.0017257456 -0.009534053 -0.017415795 0.006948365 0.008855553 0.013459276
corollari -0.008901213 -0.019246781 0.013802071 -0.009345254 0.009449523 0.015353571 -0.006834507 0.004409142 -0.0077862665 -0.013845573 -0.011244435 -0.0016627994 -0.015035061 -0.0036791004 -0.004659488 0.014019541 0.003048337 0.011947923 0.0071178507 -0.0076058097 -0.010046402 0.019743647 0.014814272 -0.018266803 0.011353327 0.016258935 0.018091269 -0.015825795 -0.0045139045 0.0017472069 0.005625239 -0.003018298 -0.009657462 0.012610716 0.0135127595 -0.0006897458 -0.010485908 -0.008549563 -0.009674422 0.0078052315 0.0019500199 -0.004956668 -0.01850675 -0.00293129 0.013733655 0.013094999 0.008277545 -0.0061206413 0.01855007 0.0017549198
remain 0.0024202443 0.012648571 -0.012919633 0.012785224 0.020036727 0.0069853906 0.0073360577 0.0091897035 -0.0043272194 -0.016357189 0.0029717046 0.0012255152 -0.013725768 0.0041533085 0.011264759 -0.0141118 0.0053159404 0.015827617 -0.017744489 0.0064051584 -0.017030805 -0.015546303 0.0147621585 -0.015100749 -0.0022638943 -0.01563672 -0.016003259 -0.014078996 0.0004253118 0.0033392562 -0.01575995 -0.015903903 -0.0066479044 -0.0039437637 -0.01270226 -0.008149264 0.008051533 0.0063169147 0.013591223 0.008179128 -0.0010652284 0.00546858 0.01813115 0.0039343606 0.004255503 0.0025535463 -0.018782895 0.010569568 0.01029977 7.621161e-06
residu 0.018404454 -0.010995694 0.0067526116 -0.015742728 -0.017384201 0.0035953394 0.009944584 0.013007194 -0.017773833 0.0084241405 0.005013293 0.007729499 -0.0013504562 0.011352642 0.015151334 -0.016622223 -0.019538974 0.014341795 -0.0025217817 -0.019171499 -0.008023299 0.0025612602 0.017411783 -0.0033849543 -0.0016252878 -0.014651524 -0.015699817 0.00321821 -0.0012393411 -0.01568057 0.0018507022 -0.017876666 -0.005191448 0.008219714 0.0020904783 0.016006043 0.014026921 -0.0021794857 0.010265075 0.011997047 0.018069057 0.01799045 0.009724131 0.009321287 0.01494238 -0.0028490694 -0.011443255 0.017438533 0.0025911194 -0.010147325
get -0.0018495865 -0.010331708 0.018525407 0.0064625167 0.008949377 0.012578647 0.01682162 -0.008642422 -0.012845107 -0.0075975233 -0.0072716717 -0.019703826 -0.0011292044 -0.015895851 0.019868502 -0.006477354 -0.012406404 -0.015929297 -0.0075802 -0.019686483 0.0016707125 0.0112911025 -0.005230673 0.015287295 -0.0032219258 -0.014293045 -0.00673388 -0.006011642 -0.014667099 -0.01974865 -0.008176944 -0.0028356386 0.009740662 -0.015300241 -0.010162988 0.0029597776 -0.0024613522 0.007134437 -0.0033404464 0.007959534 0.016761586 -0.015846303 0.007423955 0.011983848 -0.00052518566 0.013689002 -0.01107628 -0.009405641 -0.015420614 0.019060768
manag -0.01885038 -0.005946297 -0.0003069435 -0.0101722395 0.019656528 -0.014383907 -0.015388407 0.019632071 -0.016964773 0.01899127 -0.008047499 0.010320578 -0.0012296343 -0.007869883 -0.014541123 -0.012145929 0.014025033 0.012935152 -0.00028773973 0.012427671 0.007839421 0.008267979 0.0061365315 -0.019347994 0.019164909 -0.016023716 -0.006623465 0.003183532 0.0100403745 -0.018914295 0.0034641882 0.012902069 -0.018169865 0.018922262 -0.010850287 0.019331694 -0.0118810125 0.013310039 0.019426575 -0.01918037 0.001661439 -0.015604677 0.016215183 0.01931678 -0.011262245 0.0020465504 -0.0047721267 -0.01576446 0.0018555549 -0.01959845
none 0.005282902 -0.015068321 0.011652459 0.015037538 -0.0049550687 -0.00826501 -0.01893155 0.010249616 0.005519618 0.017344357 0.006763525 -0.0063147284 0.0071263434 0.017428363 0.018783316 0.015280257 -0.017006153 -0.014856483 0.014188647 -0.0151978675 0.0065712826 0.016340787 -0.0061386917 0.013657025 -0.016066454 0.013106465 0.010946614 0.0067357477 -0.016431162 0.018089524 0.016368633 -0.0030448197 0.008090822 0.012522715 -0.0036098496 0.011123278 -0.007450638 -0.00243832 -0.0021608856 -0.008730301 -0.0009961479 -0.015372998 0.0072448268 0.01815697 0.009850603 0.012872148 -0.009705298 0.009752943 -0.013255403 -0.00987972
least 0.019794479 0.013613102 -0.009372476 -0.012659079 0.015131167 0.0048579164 0.0138265 -0.012334949 -0.002422388 -0.0023791764 -0.00030277323 0.0032990987 -0.013574118 0.009055902 -0.004892782 0.016881235 -0.0015875908 0.0187295 -0.0023701556 0.010044286 -0.015225769 -0.017923394 -3.8401686e-05 -0.0043098596 0.020478187 0.009542739 -0.011674833 0.015221771 0.0007485844 -0.019334327 0.011671495 -0.003996014 -0.019455856 0.016877614 0.014188658 0.017479068 0.0019556526 0.015544074 0.011239117 -0.014199131 0.019513983 -0.0073946523 -0.019597685 0.017069403 -0.009682546 0.017208712 -0.015944729 0.018330045 -0.011456342 0.007983006
transmit 0.01952612 0.008883979 -0.0036920612 -0.010244754 -0.01886642 0.007811839 0.015352409 -0.008572018 0.01131313 0.013295629 -0.018048113 0.0032579706 -0.013870257 -0.008407428 0.0022436357 -0.013718576 -0.008064491 -0.014789395 -0.014618983 -0.014330978 0.019920442 0.016955514 0.00024836487 -0.0051318114 0.012940713 0.0028053618 -0.018285777 -0.013793678 0.0015591584 0.015695525 0.0065630698 0.01972646 0.012657714 8.348572e-05 0.016968532 0.018172555 0.017167887 0.019044185 -0.018199697 0.006895629 -0.014763631 -0.014470695 -0.016852826 0.006353428 0.0007514766 -0.012380253 0.010743228 0.01565105 0.009003476 0.01583938
uncorrel -0.008555324 -0.012215221 0.008033973 -0.0061516436 -0.013888054 0.0068177283 -0.006274417 -0.009572109 0.0048628617 0.01334855 0.012832209 -0.00053733634 0.016983405 0.006433388 0.013653833 -0.001653138 0.0043142596 0.012464261 -0.020048898 0.011431566 0.0026326615 0.01252853 -0.0023601255 -0.0053203506 -0.010674413 -0.005687105 -0.0053135306 -0.010273136 0.0016295088 0.01580406 0.010693025 -0.015345278 -0.015032293 -0.0060752155 0.007506036 -0.018504309 0.013097926 0.006352282 -0.00520134 0.01801688 0.016814029 0.0013508776 0.009561353 -0.01850629 -0.017129086 -0.005501889 0.0183504 0.006282163 0.01151862 -0.013584848
intern 0.008327396 0.001074553 -0.0018153669 -0.006584534 0.010430676 -0.018725596 0.010767713 0.011913376 -0.005222129 -0.0084595615 -0.014702141 -0.013469695 -0.010145564 0.006609113 -0.009350413 -0.0021329613 -0.01782951 -0.0068990467 -0.001973359 -0.01629499 0.0066130846 0.019877277 0.009330851 0.003561112 -0.009381185 -0.0025015865 0.004367758 0.0033996864 0.017244741 -0.002151051 0.014128663 0.01162956 0.006018157 0.014458783 -0.010374912 -0.007822236 0.014530763 0.017390754 0.0065590697 -0.008991443 0.015988113 0.005537262 -0.00054673286 0.017770056 0.0090293335 0.008063564 -0.00018018861 -0.01799405 -0.0061060134 0.0048585865
repli -0.011286349 0.014709557 0.014999509 -0.01788134 -0.010587563 -0.012360049 -0.0010997927 -0.0030695705 -0.004319992 -0.004609842 0.0072857137 0.018844588 -0.009221537 -0.01645314 0.007816074 -0.01270728 0.013482343 0.0055788616 -0.015985532 -0.015778014 -0.018424729 0.0049529164 0.0057471516 0.005219802 0.00065770384 0.002159254 0.006062218 -0.0030080688 -0.016276745 -0.0014277076 0.007365405 -0.0051385853 -0.004406608 -0.0047620884 0.014418938 -0.0059499713 0.019614328 -0.007832361 -0.019634001 -0.013533466 -0.008174424 0.0024944497 0.010048762 0.0041143172 0.0184751 0.0020502713 0.011081257 0.00010761905 -0.003910541 0.01246978
hospit 0.004201367 0.017086377 -0.016503409 -0.01779848 -0.0005877187 -0.0044425493 -0.0039623245 -0.0001884957 -0.01055679 -0.016431889 0.016548127 -0.0073339087 -0.005855982 -0.003051762 -0.0019390344 -0.018002091 -0.003413811 -0.0022794653 0.016589122 -0.01628637 -0.0094011435 -0.0034261236 0.0066379383 -0.0120042935 -0.01065401 -0.01608571 0.010834878 -0.017533245 -0.00690438 0.00047793088 0.0032706033 -0.019726697 0.017033886 -0.0046503055 0.0005340951 -0.017460905 -0.015338326 0.007761153 0.008515394 0.0055474434 0.012465685 -0.013966908 -0.0026093258 -0.005526653 -0.0020596355 0.009398793 0.0024744433 -0.015094324 0.0069288076 0.012255475
find -0.012199086 0.0068033687 -0.008399872 0.017618071 0.008599531 0.0034461098 -0.0013359014 -0.017064007 0.016759673 -0.0040088934 0.015012393 0.006723813 -0.016691994 -0.0009635429 0.00616783 -0.0047943434 0.019703005 -0.009888307 -0.014947547 0.007202733 -0.0070083 -0.013348666 0.0048863855 0.010435486 -0.010431645 -0.008856124 -0.014926705 0.0031880732 -0.009787492 0.016499052 0.0014544188 0.00392495 -0.0070011164 0.014406823 -0.0016990586 -0.01614666 -0.013721221 0.0006009863 0.01581504 0.0057668127 -0.009757962 -0.01346193 -0.019834168 0.008020338 -0.018408174 0.0067450097 0.0033614843 -0.00199335 -0.019692082 0.011906668
correl -0.00033641187 -0.019677818 -0.014704912 0.016942773 0.00418855 -0.016985212 -0.0011111682 0.0117494995 -0.019134875 -0.014003639 -0.0017782691 -0.020427201 0.0008563448 0.0041074483 0.017456898 0.002404728 0.0026912312 0.009974521 -0.008975878 0.014250812 0.00020593424 -0.00087115006 -0.018816506 0.0010212471 0.014023499 0.0035719501 -0.016726905 -0.0064997426 -0.012293967 0.0113581605 -0.012980334 0.010840069 -0.010828772 -0.013944939 -0.015453161 0.007710184 -0.01646848 -0.011335848 -0.013716332 -0.009253828 -0.007091373 0.0029210707 0.012777243 -0.0022354794 -0.01044012 0.0035089243 0.011155123 -0.010808211 -0.01047549 0.010547712
nash 0.012431604 -0.015062514 0.016760863 -0.019837022 -0.014449855 -0.012309161 0.0040933 0.0011098526 0.0065518315 0.013643292 0.009793765 -0.007204929 -0.012889845 -0.016243719 -0.0005496948 0.01968713 -0.015150041 0.0073044254 0.008286059 -0.009077194 -0.013865382 -0.010548638 -0.0094933435 -0.01391091 0.012296293 -0.015374104 -0.0063154893 0.008812745 0.000105663705 -0.015849052 -0.009226674 0.007401652 0.0047583864 -0.0043149977 -0.0017870779 0.005187927 0.0038018934 -0.0050628646 0.01106543 -0.015782364 0.01352034 -0.01993274 -0.00457857 0.013384791 -0.006575858 0.013208519 0.010734698 -0.015068251 -0.00018059598 -0.008917295
mix -0.01620023 -0.001642135 0.013021295 0.017214471 -0.009854747 -0.0055501796 -0.011797531 0.0030651228 0.0050367326 -0.01992523 0.004934843 -0.018316954 0.0006178187 0.009853972 -0.010393824 0.0008241147 -0.0042298916 -0.017141495 -0.0052060736 0.008927885 -0.017186867 -0.011580286 -0.0007060097 0.01625492 0.003199871 0.019655174 -0.015652329 0.018131731 -0.009618707 -0.012989175 -0.015558028 0.003731701 -0.0059330626 0.014824251 -0.0013315025 0.0051357076 0.012761164 -0.017391322 -0.003661254 -0.009944819 -0.016795866 0.006665806 0.0048710583 -0.00463311 -0.0033874656 -0.013218807 -0.006691347 0.0024513758 0.015699644 0.014144824
equilibria -0.007116092 0.007887549 -0.0046248203 -0.009928305 -0.0067207282 -0.013248864 0.0077880886 -0.01387879 -0.015647035 -0.009711878 0.014916309 0.002295498 0.010505238 0.016723864 -0.011797769 -0.008623417 0.015597257 0.010180155 0.008497178 0.017530568 0.017457617 -0.0046959305 0.0030691174 0.010994034 0.018300807 0.019735623 -0.01722207 -0.009964658 0.009395948 0.0013364832 0.0005928257 0.015128644 0.012135768 -0.0149864005 -0.0056582373 -0.01666732 0.0156107815 0.0057227034 -0.0036721868 0.0027868694 0.016616825 0.01603096 0.01208883 0.0064490284 0.0041965493 0.016767645 0.002182437 0.00045478877 -0.018527977 0.0051285666
minim -0.016884638 0.013381114 -0.011371393 -0.003452974 0.0023036096 -0.0042144796 -0.017810678 0.008692979 -0.01345281 -0.017650044 0.00798557 -0.0021340256 0.013025961 -0.013786145 0.0018126183 -0.0011660111 0.011588739 -0.019261157 0.011436062 -0.01833547 -0.015617147 0.0018471832 -0.005197522 -0.007676382 -0.010004607 0.008320039 -0.019030627 0.0027021016 0.008142201 -0.0009849742 -0.0008785174 0.0144291995 -0.019253563 -0.018352652 0.008416971 0.017649172 -0.014841379 -0.016595194 -0.0011054622 -0.018894278 0.004846649 0.018576173 -0.01240221 -0.013386056 0.018139541 -0.0014111509 -0.0077573084 -0.005668541 -0.01740203 -0.009209791
regret -0.008559216 0.0011357529 0.0017647268 0.014999882 0.014196918 -0.0036970158 -0.019350588 0.0062604826 -0.012831627 0.017767923 0.007737369 -0.003107666 0.012857452 -0.0065737944 -0.0066917622 -0.00021941311 0.017105049 0.012207443 0.0024093513 0.00720464 -0.0060268384 0.018879952 -0.013601706 -0.0063564437 -0.010066344 0.017310979 -0.006492034 -0.004438856 0.013914739 -0.019934408 -0.0057634744 0.005925658 -0.012838097 0.017069578 0.0019310934 -0.010466015 0.011303987 0.016109193 0.0024738042 0.013226077 -0.012764738 -0.007265044 0.019454205 0.011466537 0.004018265 -0.006590247 0.008593881 0.0047791163 0.017149774 0.00019907688
dynam 0.017186549 -0.011567696 -0.015121684 -0.0027273279 0.0061151306 -0.004266027 0.012160113 -0.016417755 -0.018326437 0.015059344 0.012735612 -0.008572365 -0.007942566 -0.0068488508 7.552271e-05 0.018318063 0.0019252374 -0.0040094214 -0.0071797795 -0.004390632 -0.018470224 0.013921316 -0.017877417 -0.006123827 -0.0140415095 0.017985055 0.011462185 -0.00080291886 0.0076580294 -0.005070693 0.019648684 -0.0072364365 0.009612357 -0.0076318807 0.018899942 0.019025384 0.012938117 -0.00047139457 -0.0031086234 -0.017768055 0.018998068 -0.016890071 -0.013302131 0.011197613 -0.004255552 0.016055845 -0.015832765 0.018282073 0.0045463047 -0.017099362
explor 0.007989724 -0.009474187 0.013163482 0.012718396 -0.017041178 0.012403389 0.01128715 0.014078173 -0.014572621 -0.01354388 -0.017588124 0.009542568 -0.008103101 0.009870345 0.009995937 0.016468525 0.0048991004 -0.0017616969 0.0023042145 0.005651633 -0.017497346 -0.011583613 -0.001372067 0.009875656 0.000105207924 -0.019264882 -0.0013995339 0.014560147 0.012307881 0.0065863235 -0.008994566 -0.0073654437 -0.0045925495 -0.012729917 -0.017349966 -0.0010090233 0.0047947336 0.0097522205 0.007614918 0.01657691 -0.012630674 0.018442264 -0.006725192 0.0017435277 -0.007797249 -0.0076520434 -0.003315975 -0.015213675 0.018146276 0.009144037
open -0.004636927 0.0043852967 0.015868736 -0.011281799 0.007960299 0.0008963034 0.006263956 -0.0035461693 -0.020191498 0.011638985 -0.0027289768 -0.017172039 0.0014110567 -0.012017741 0.01584562 -0.012604259 -0.0030555706 -0.00068115455 -0.009175142 -0.007226426 0.014767083 0.0039443495 -0.018357737 -0.00043563798 -0.01884411 -0.006350765 0.009702499 0.007481308 -0.011696066 0.0026252423 0.011803506 -0.014960324 -0.0069448347 -0.0053241644 -0.017997768 0.0042145867 0.013885566 0.0051396135 0.0050680605 -0.001918341 -0.0011033226 -0.012544457 -0.0010654262 0.013213205 0.0065261084 0.0011636029 0.01554236 0.0053313905 -0.014559202 0.014515298
refer 0.019167861 -0.01795877 0.014462116 -0.01507503 -0.00064247847 0.008981371 -0.011324273 -0.015503196 -0.0148476465 -0.019817514 -0.013321792 0.018954694 0.005691807 -0.018018812 0.017323313 0.014570193 0.015688216 0.019233475 -0.017596612 -0.004443989 0.00413996 0.0049840766 0.009934361 -0.015357604 0.009815365 0.019694857 -0.017950581 0.015826294 0.0062537086 -0.008348251 -0.0029357863 -0.016977103 -0.015047496 0.010894923 -0.006323206 0.020095536 -0.015663438 -0.0140940575 0.012542356 0.0154412035 0.007704072 0.014411685 0.012838881 -0.011472996 0.017749267 -0.012518893 -0.005879303 -0.012060869 0.012370477 -0.008890529
detail 0.0062015723 -0.0028298048 -0.0022898985 -0.011883961 -0.01119071 -0.0076714824 0.0009154064 0.003626418 -0.0069217347 0.0037301192 -0.0112115275 0.019497188 -0.0018436145 -0.013755371 -0.0032266178 0.016153062 -0.0021242008 -0.010180227 -0.01666219 -0.0120548075 -0.0065670665 0.01586506 -0.013883351 0.0028220403 0.00018685324 0.007754903 -0.016127607 0.015906762 -0.0058405665 0.01034051 -0.018905113 0.010269972 -0.016592711 -0.006600515 -0.002627725 -0.007179252 -0.00091009523 0.000100259 0.009319398 -0.0049525243 -0.007375431 -0.012540051 0.016446292 0.009378872 0.018711273 0.011191452 -0.009220124 0.016313408 -0.0137133645 0.0059550763
paper -0.0067594936 0.001088914 0.0075524454 -0.0057245055 -0.008360666 -0.0044730664 0.0015293785 0.013844261 -0.012123663 0.009085364 -0.007344245 -0.01659692 -0.011467062 0.0040058787 0.018063417 0.016159104 0.01841776 0.013940884 -0.006606504 -0.0052405954 0.017566824 0.013490906 0.012665262 0.01375314 0.0036307098 0.004696276 -0.016593885 0.015182831 0.018568214 -0.014395564 0.002533981 0.017601574 0.007155871 0.013678215 0.014905486 -0.0036719886 0.018462181 0.012005143 -0.0032247156 -0.00071342196 0.020019341 0.011496621 -0.013496112 -0.006863 -0.006221311 0.0064882347 0.0019198466 -0.017555615 0.0046393597 0.019108277
see 0.0048007825 0.009270718 0.0041332636 0.01626047 0.018245568 0.0055244085 -0.0042086104 0.008157113 -0.015988296 0.015694171 -0.007869813 0.019317163 -0.019319203 -0.0049455124 0.018608617 -0.007862703 -0.0038844703 0.0103119435 0.01789195 -0.0012944682 -0.013597248 0.020319283 -0.018436613 0.0024589915 0.011745911 -0.015780974 -0.011391749 -0.018031107 -0.00058515364 0.009643732 -0.01627378 -0.0060019814 0.016543873 -0.009219226 0.0060046976 0.007322232 -0.0061065177 -0.010193559 0.017157437 -0.005821907 0.018964967 -0.004979361 0.0057635237 0.011281586 0.002044532 0.009101945 -0.012137927 0.016472679 -0.002846009 -0.009076511
interdomain 0.010224458 0.02030902 -0.011130216 0.0015600957 0.009320396 -0.006385714 0.002066433 0.019010393 0.014794162 -0.013311714 -0.006082478 0.017512321 -0.0008767358 -0.018741345 -0.00085707474 -0.01307468 0.0019879285 0.0019539637 -0.009609501 -0.009896044 0.017460588 0.009858895 0.005898895 0.003442618 0.017289948 -0.010158073 0.011875289 -0.0017527973 -0.015931912 -0.019703407 -0.002993371 0.01655752 0.004047851 -0.018320255 0.0019214312 -0.0069150976 -0.007047866 0.016455203 0.012408542 -0.00044811628 0.0060621393 0.0016415833 -0.02017699 0.006112274 0.015250795 0.0082715275 0.0047558667 -0.0074235825 0.005273178 -0.01541856
bgp 0.008396863 0.0051110266 -0.0007523732 -0.0014395227 0.0056193657 0.0039279875 0.0033671476 0.019218463 0.0066824597 0.0024817693 -0.005677807 -0.012679924 -0.018777194 -0.0061600404 0.009033523 0.0154173225 0.0014699119 -0.0092680305 0.0066304943 -0.007977803 -0.0015328001 0.018063877 0.017009541 -0.0008109422 -0.011334525 0.0072027957 0.01947356 0.017320601 -0.0041720746 0.01404706 0.018764826 -0.019065673 0.01751107 -0.00043866548 -0.0106108105 0.0075106993 0.018660229 -0.014537329 0.014150771 -0.013560228 -0.014815422 0.010801996 -0.009131217 0.009516633 0.015445441 0.019614846 0.011222255 -0.018074337 0.0068920753 -0.018136295
costshar -0.0009665303 0.020073768 -0.01001877 0.0076436237 -0.011016988 -0.016715815 0.016590815 0.0074243844 0.014226875 0.005553976 0.0022564305 0.0063780216 -0.01704631 0.013553564 -0.008713276 0.009602302 -0.010790239 0.0024564166 0.0073862383 -0.00529595 -0.015010193 -0.011594992 -0.019004855 0.019483525 -0.008320891 -0.0020725087 -0.018194977 -0.009157378 -0.010160346 0.0057351976 0.0115695335 0.0069267293 0.019388802 0.003446394 0.019478017 0.015095174 0.0065819244 0.0044494933 -0.0143695325 -0.0053864 0.012218913 -0.016339976 0.00460475 -0.015107054 0.019935472 4.5969384e-05 0.0016401738 -0.009798041 0.012641713 -0.014364035
certain -0.014903748 0.013538615 -0.0066580307 -0.0019525033 0.0108563835 0.008839553 0.0124952 0.014379436 0.01099968 -0.017910372 0.010319821 0.018008528 -0.007908268 0.0023367663 -0.006358878 -0.0066658747 0.017456599 -0.00041778802 0.006630525 -0.011024254 0.011485578 -0.0064738295 -0.00973733 0.0043816897 0.019586822 -0.012223942 0.0071021044 -0.0019933109 -0.014450396 -0.00893147 -0.01629957 0.011106814 -0.0057144156 -0.010560883 0.0020140558 0.009368804 0.019385228 -0.019495232 -0.00035395494 -0.0026972387 -0.0049080625 -0.0010474734 0.01640697 -0.003760993 0.018955281 0.00087512704 -0.0023258014 0.013640327 0.014075863 0.00075317797
equival -0.0008216022 0.013416599 -0.007449636 0.009120701 0.0003015248 -0.012656703 0.013320503 -0.0071574384 0.004105318 -0.013874097 0.005640122 0.010326933 0.010259672 -0.01569611 -0.011380725 0.014548722 0.006318383 0.0025419635 -0.012660129 -0.0030266603 -0.01842837 0.0028472922 -0.008672309 0.0013637647 0.009635898 0.004925224 -0.014478335 0.002005415 -0.013721596 -0.008298717 0.0039692125 0.015931576 -0.013115314 0.0042562913 0.016124861 0.020147244 0.013485496 -0.014651032 0.00835359 0.016791912 0.009280313 0.004981849 -0.0033274246 0.007142443 0.008905396 0.01784061 -0.0078054997 -0.017487237 0.013304389 -0.012390231
singl -0.0010717487 0.003202255 -0.0022875012 -0.008158604 0.0018738323 -0.019813554 0.0033908086 -0.007641618 -0.012000128 0.0073280777 0.00319071 0.0068117846 0.0018535531 -0.018777397 0.02027015 -0.006645256 -0.0042668236 0.014662876 -0.00029950193 0.005909789 0.0046464815 0.005068966 0.0140792215 0.01895622 -0.000753764 -0.0069848537 0.008897776 -0.016524687 0.01671386 0.004471227 0.011985496 0.0056373253 -0.0027956879 0.0016682677 -0.0096582975 0.018346053 0.010860674 0.0074427454 -0.009723846 -0.017760161 0.016277956 0.0059177964 -0.008580096 -0.017314488 -0.007338296 0.0031685862 -0.018439123 -5.839163e-05 0.005701466 -0.019924233
sourc -0.00026688701 -0.01181874 -0.007104699 -0.0033760602 -0.019831548 -0.007591747 -0.013801182 -0.014216729 0.0030164332 0.0045499615 0.018592741 0.017264213 -0.01285869 -0.018216664 0.015914377 0.010984438 0.014022434 -0.005831359 -0.010793615 -0.00934726 -0.016709488 0.011949724 -0.0066212225 0.017187355 -0.011142494 0.019273242 -0.009259854 0.017253632 -0.0110954195 -0.015129362 0.015438583 -0.01943275 -0.017729439 0.009724717 -0.01983527 0.010592456 0.0077327644 -0.013952912 0.0065033142 0.002699407 0.017575037 0.0057637803 -0.01029129 -0.0046679806 0.014014051 -0.013105103 0.018497767 -0.006572888 -0.0090627745 -0.0086509045
edg 0.0061146338 -0.019383403 0.0065396894 -0.009022246 0.019428192 -0.01027195 -0.01586006 0.0074272742 0.017796842 0.0053523136 -0.0044650994 0.0067762095 -0.017865488 -0.008140179 -0.008542907 0.0038863055 -0.012639014 -0.015151385 -0.01335457 0.010423881 0.0054500047 0.017641738 0.004829789 0.010616094 0.00881717 0.009276187 -0.010068431 0.0029136348 0.00048157907 0.01051577 -0.013124594 -0.0014662545 0.007939204 -0.009879211 -0.017058183 0.011319168 -0.0013299776 0.0007433932 -0.011876489 0.016786514 0.0019826696 0.0034286613 -0.0009103048 0.0013531382 0.011868499 -0.01836221 0.0046366598 -0.011189165 0.019075586 0.008694503
repres -0.011123649 -0.0020987378 -0.010973473 0.017005362 0.018420914 0.004336828 0.01944968 -0.009069959 0.0056131463 -0.010386896 -0.017414218 -0.0086307665 -0.0028698551 -0.011232942 -0.00889172 0.0013807266 -0.00021590857 -0.01659764 0.013572245 0.0030097542 -0.018936643 -0.002780244 -0.015038448 0.015201475 -0.0018646928 0.01564653 0.00995081 -0.00802744 -0.018312775 -0.012484054 0.01790556 -0.0031497534 -0.00081650104 8.806131e-05 -0.0165782 0.008528388 -0.016014667 0.018900327 -0.015936734 0.015610927 -0.0037638878 -0.0042494466 -0.0045605837 0.0020018297 0.0052657826 0.003343642 -0.0013249639 0.01506013 -0.012574731 -0.015814047
network -0.014524458 0.012961232 -0.0037680862 -0.00955548 0.010349716 -0.016041206 0.0060963696 0.019705627 0.013739959 -0.0062847883 0.004889888 0.009340558 0.01904707 -0.005228333 0.002887627 -0.00827183 -0.006273852 0.001827098 0.0041433303 -0.010735753 0.008508012 -0.010115811 -0.008826069 -0.017966947 0.015470069 0.0085438 -0.0045531243 0.01684421 0.0038010473 -0.019946743 -0.015489005 -0.008630108 -0.014738455 0.014637933 0.009949827 0.0040529775 -0.0007450751 -0.014710321 0.012706792 -0.010708335 -0.005003175 -0.011794003 -0.004417342 -0.01868322 0.006837955 -0.014564495 0.01342053 -0.014972436 -0.011497738 0.0002081198
case -0.015877713 0.011014369 -0.008416746 0.0007292196 0.01602358 0.005809754 4.044423e-05 0.016148012 -0.00066214247 0.010897547 0.012218137 -0.016515585 0.003789855 -0.018626943 -0.0025726913 0.017504591 -0.0048818416 -0.009585491 0.0050187176 0.014316301 0.013115631 -0.012712036 0.014595042 0.015038477 -0.010414177 -0.0025331276 -0.0015653421 -0.018816486 -0.0051206294 0.019324308 -0.005074665 -0.015150046 -0.008877846 -0.019156484 0.0037094872 0.0121407285 0.0020388495 -0.006743417 0.019207876 -0.01931197 -0.00877767 -0.019458195 0.019037802 -0.003629918 -0.010216749 -0.015494289 0.01640879 -0.0061397986 -0.011400883 0.007517709
back -0.01410609 0.018510148 0.013007856 -0.008402456 -0.0057490137 0.0025308672 -0.019041592 0.009020168 0.008167467 0.011378692 -0.01762656 -0.0010585375 -0.012881204 0.012222246 0.020198591 -0.001164109 -0.015667174 0.009824667 -0.0011223867 0.0050922805 -0.012543646 -0.0011150194 -0.0045863567 0.01489382 -0.0151124 -0.0073801437 -0.0030337675 -0.0057163904 0.011568904 -0.00081866473 -0.0047059054 -0.017558252 -0.019607294 0.0032523759 -0.0019260359 -0.018847564 0.015314285 0.014638181 0.013516733 -0.0065645752 8.435054e-05 0.015427738 -0.013261171 -0.014086623 -0.015648518 0.009119479 -0.01897846 0.003280136 0.016515378 0.0027518058
scale -0.019062078 0.017041469 0.011392846 -0.01655616 0.011870572 0.015959961 0.013194808 -0.007442895 0.0120086195 -0.010441363 -0.014741621 0.006475326 -0.010645418 -0.0030645435 -0.009758228 -0.01401448 -0.00349612 0.0024204957 0.0015964701 0.014647216 0.0069536055 -0.019416774 -0.016818969 -0.003935102 -0.0043427194 -0.012908517 0.017152183 0.008237853 -0.015469215 0.011228348 -0.002816188 -0.014291083 -0.0004973881 0.013232568 -0.010363142 -0.0071090455 -0.0033404282 0.010102845 0.010890081 -0.0156202465 -0.016426947 -0.0013044841 0.005744735 0.0057961517 0.0075408816 0.00035071129 -0.002813179 0.0072692004 -0.00026956346 0.011003303
protocol 0.0017756335 0.01757528 -0.007985785 0.0060103945 0.0068929973 -0.013425335 0.018579258 0.011484217 0.009386961 -0.0033665355 0.019515533 0.00721524 -0.002723281 0.007997249 0.011620347 0.015821384 0.0032022747 0.0035350453 -0.0066447235 -0.010993431 -0.017447123 -0.0035373766 -0.0049299835 0.0047764666 0.00021522008 0.0027791518 0.01012693 -0.012398652 0.013452095 0.01289994 0.01244324 0.0032002325 -0.0007348264 0.0028001398 -0.01521921 -0.011628943 0.00464711 -0.00018224977 0.0088881925 -0.009705262 0.0102285845 -0.006602202 0.012670735 -0.006385712 -0.007751053 0.004593863 -0.002143689 -0.005298756 -0.006757525 0.01584944
